the 0.703713 -1.424938 0.090326 0.843322 2.120917 1.593443 -0.389983 1.001538 0.786246 0.856897 0.932181 -0.489977 0.600106 1.013479 0.830732 0.346850 -1.759930 0.531636 0.774695 -0.681707 0.334379 -0.205400 -0.435433 0.353360 0.348643 0.730001 -1.447007 0.733808 0.891493 -0.402104 -0.032740 -0.236642 -0.459523 1.086891 1.566666 -0.185130 -0.466313 1.529153 0.508260 -0.461648 0.385608 -0.643114 1.254538 0.266345 0.541486 0.694130 1.304254 -0.663861 0.128608 1.386999
and 0.977848 -0.833051 -1.295873 1.699798 0.612786 0.671533 0.243152 0.349318 0.101065 0.653427 0.358682 -0.376955 0.973126 0.461275 0.623691 -0.017642 0.219188 1.349433 0.767565 -1.129535 -1.055776 -0.395104 -0.433711 0.781529 -1.524201 0.960016 0.117114 0.657805 1.472924 0.936895 -1.113817 -0.961151 -0.175420 0.575157 1.251098 0.702137 -0.418871 -0.229334 -0.462724 -0.108149 0.080917 -0.875700 0.483257 -0.814366 0.534477 -0.404852 1.111722 -0.202321 -0.005021 -0.446411
i 0.508307 0.480105 -0.247912 0.487885 1.016028 0.306301 0.343019 1.215799 0.427313 -0.085527 -0.121000 -0.413278 -0.176505 0.779047 0.888740 0.782451 0.882755 0.334739 1.120342 -0.888434 -1.058909 -0.929865 -1.033721 -0.688213 -0.118086 1.184345 -0.870089 -0.337868 1.233523 0.959688 -0.475613 0.649656 -0.502583 -0.528124 0.045412 1.827524 -0.287960 1.425637 0.737418 0.486570 0.836409 -0.278694 0.070870 0.525051 0.528603 0.554392 2.508029 0.349364 -0.186958 -0.996296
it 1.016494 0.062246 0.691308 0.467179 0.604551 0.983621 -0.262202 1.903849 -0.689055 0.967367 0.337187 0.068393 0.413805 0.522473 -0.047843 0.619617 1.097505 0.559436 1.328892 -0.516123 -0.160082 -0.957344 -0.227315 -0.734167 -0.328661 0.925417 -0.380369 1.753690 0.752311 1.210459 0.386077 0.483138 -0.947379 0.032486 1.182712 -0.127192 0.700149 0.679546 -0.181565 -0.410905 -0.079923 0.251247 -0.558889 -0.134349 0.179664 -0.838277 1.727860 0.801978 0.408787 -0.393269
a 1.325700 -0.868426 -0.790277 1.042442 0.547768 0.439440 -0.321093 1.648385 -0.462578 0.068245 0.143576 -1.424035 -0.683035 -0.752130 0.612067 -1.666262 0.234590 0.014411 1.694297 0.706361 -0.817485 0.640121 0.673335 -1.101580 0.704001 0.370924 0.501628 0.349365 1.414238 0.929892 -0.233750 -0.818190 0.780626 -0.368939 0.869961 0.659559 -0.604693 1.220794 -0.434122 -0.183105 0.916753 0.404420 0.581674 0.472049 0.704492 -0.678295 1.175099 1.809695 -0.045804 0.994368
to 0.364408 -0.349800 -1.086401 0.812884 0.189720 1.262749 0.150050 1.953247 0.201161 1.354754 0.713431 -0.534698 0.826195 -0.553453 -0.687594 -0.161621 0.463004 -0.255777 1.524778 -0.803828 -2.482086 -0.283290 -0.873319 -0.241585 0.352272 -0.330845 0.172494 0.044736 0.748443 1.032418 0.637268 -0.015471 -1.674189 -0.288022 -0.624692 -0.929733 0.008625 0.662799 0.297391 -0.355060 0.455904 -1.604128 0.558638 -0.084792 0.540381 -0.712744 1.600511 -0.492322 1.390574 0.996547
is 0.901685 -0.226704 0.006462 1.308283 1.558852 0.401517 0.222481 0.477804 -0.279338 0.353008 0.842831 -1.063452 0.328055 0.675296 -0.024443 -1.089710 -0.564017 0.924301 0.888354 -0.141110 -0.305316 0.702448 -0.732507 0.153427 -0.250611 0.455334 -0.146179 1.117041 0.571258 0.204985 -0.094561 -0.877748 0.633992 0.214537 0.918181 -0.063390 0.613870 2.097504 0.135205 0.818079 0.052112 -0.630364 -1.038730 -1.083042 1.623014 0.508943 0.827420 -0.664283 0.154415 -0.114426
for 1.087530 -0.909748 -1.134832 0.303416 0.807371 0.022379 -0.497515 0.173028 -0.513672 0.407181 0.871811 0.147157 0.754657 -0.881748 -0.084639 -0.366449 -0.017279 0.695171 0.037855 -0.380618 -1.274672 0.805989 0.326814 -0.595297 -0.283923 1.350359 0.104010 -0.409452 1.512368 2.464040 1.266590 0.947793 -0.432339 0.638937 0.452615 -0.331760 -0.644659 1.583719 -0.101126 0.520981 -0.294824 0.041689 0.341915 0.269542 0.480069 -0.194868 0.661878 0.515428 -0.126198 0.054302
of 1.850305 -0.962947 -1.939398 0.083389 0.956089 0.184488 0.260984 0.032783 0.279339 0.678204 0.474958 0.108704 0.341523 0.314220 0.802031 -0.445703 0.482788 -0.095760 1.730680 -0.888522 0.580431 0.079942 0.735366 -0.649322 0.931755 0.190330 0.168378 1.754759 2.012846 -1.042166 0.549034 0.412262 0.090481 1.263138 0.257250 0.988049 -0.148361 0.741446 0.079896 0.107508 0.829312 -1.360161 1.229025 0.023284 0.558062 -0.589742 0.459148 0.812274 -0.409170 -0.825252
was 1.223093 -0.685175 -0.236513 0.188689 1.265143 0.325812 -0.317282 0.816838 0.250182 -0.263857 0.708137 -0.901609 0.458396 0.572053 0.483330 0.790900 0.191309 0.629574 -0.477523 0.342053 -0.317371 -0.440768 -0.818572 -1.074146 -0.920855 1.571684 -1.474777 0.871695 1.256451 0.549132 0.216143 0.127950 1.005964 -0.398661 0.896472 1.024389 -0.226066 0.189051 0.446370 -0.717099 0.637041 -0.590459 -0.030923 -0.506347 0.770611 -0.458657 -0.496981 -0.681719 1.023774 0.215921
this 0.739493 0.390784 0.555400 0.732155 0.457599 0.075235 -0.615173 1.184043 0.032213 0.778211 0.745589 -0.446368 0.394344 -0.289007 0.723958 -0.355023 0.546892 0.948819 0.535439 -0.122653 -0.021205 0.599153 -0.704622 -0.944393 0.689939 0.192775 0.255433 0.541852 0.656537 1.012276 0.949702 0.926649 0.572549 -0.363834 0.470652 0.439508 0.097767 1.399393 0.610765 0.792928 1.144399 -0.983045 0.085892 -0.011400 0.487376 0.765016 1.590262 0.102531 0.091485 -0.488235
in 0.275861 -1.186439 -1.371349 -0.531460 -0.010555 0.200496 -0.031914 1.035733 0.463299 0.663527 0.271391 -0.218225 -0.500271 -0.684139 -0.375607 -0.812766 0.049709 0.277750 0.883254 -0.482226 0.530923 -0.115698 0.183566 0.630623 0.867462 0.555614 0.058730 0.377661 1.345847 -0.036490 0.155180 1.160406 0.374164 -0.247491 0.153810 0.518575 0.059431 1.138458 0.749465 -0.720616 0.839299 -0.214694 1.101962 -1.023825 0.799466 0.612599 0.823618 -0.246269 -0.401197 -0.547184
you 0.167436 0.837472 0.300231 0.031979 0.062496 -0.353622 -0.074042 1.490224 0.415220 0.666486 1.339353 -0.614571 -1.216234 0.793754 -1.140666 -0.571687 0.405210 -0.161295 0.396986 -0.146879 -0.798775 0.553040 0.406728 0.440837 -0.181018 0.438000 0.397311 0.429390 0.650611 0.159665 -0.314821 0.407035 -0.227437 0.283791 0.179814 -0.495141 -0.697716 1.686199 -0.166281 0.556930 0.485108 -0.118278 1.454618 -0.186147 0.118013 -0.482901 2.132953 -0.193342 0.366781 -0.438027
my 1.203783 -0.694166 -0.225492 0.240527 2.031926 -0.277011 -0.720141 1.382532 -0.159310 -0.800768 -0.509100 -0.378299 -0.290170 -1.173916 0.426619 -0.593567 0.840113 0.253806 1.080003 -0.469479 -0.201917 -0.454107 -0.336404 0.107867 -0.011933 0.666352 0.627218 -0.777556 1.265659 0.521194 -0.022008 0.683893 -0.715431 -0.771888 0.597327 0.257579 0.974892 -0.171014 0.379387 -0.251349 -0.793386 -1.232153 0.165876 -0.376769 0.214013 0.556660 1.226533 -0.494513 -0.644422 -1.518328
that 0.390805 -0.304523 0.111338 -0.542936 0.888064 0.131251 -0.284663 1.384622 -0.395545 0.539598 0.798800 -0.592514 0.105575 0.820213 0.024455 0.077155 0.696101 -0.227736 0.658515 -0.126583 -0.111924 0.127894 -0.408246 -0.178635 0.316826 1.225391 -0.535763 0.322108 0.867712 0.028714 -0.083735 0.092097 -0.153320 0.372250 0.303353 0.794036 0.639823 1.064360 0.206631 0.129085 -0.016642 -0.036978 0.431411 -0.000984 0.787261 0.104424 1.405450 0.111243 0.515279 -0.111105
with 0.321096 -0.321986 -1.309997 0.862521 1.359033 -0.495240 0.099102 1.092197 0.946812 0.072439 0.729331 -0.172353 -0.186821 -0.495916 0.135599 -0.599985 0.194190 1.043855 -0.109048 -0.391008 -0.200717 0.525424 -0.724890 -0.212147 -0.035486 -0.321670 -0.753729 -0.132282 1.055433 0.486449 0.979585 0.138912 0.550947 -0.109229 0.308314 0.816607 1.248814 -0.274732 -0.655619 -1.237179 0.151240 -0.403986 0.101762 -0.296528 0.384353 -0.286059 1.513415 0.382386 0.172542 -0.434718
but 0.273989 -0.348362 -0.204632 0.187374 0.651372 0.280970 0.604161 1.220049 0.197854 0.135363 0.631175 -1.119630 -0.163056 0.217865 0.039198 0.245713 0.014910 -0.336458 0.585649 0.186725 -0.380709 0.166269 -0.470721 -0.813877 0.265866 0.791251 -1.200671 1.055479 0.915396 0.339119 -0.327209 -0.557913 0.385108 -0.066511 0.644336 0.307254 -0.079306 1.528197 -0.385405 -0.050234 -0.128772 -0.078975 -0.213014 -0.610939 0.740612 -0.552716 1.000553 0.561218 0.348150 0.199263
not 0.006232 0.026200 0.377101 0.114947 0.036647 0.397682 0.504605 1.078630 0.250777 0.699307 1.107552 -0.440048 -0.247540 -0.058093 -0.011565 -0.482296 0.227303 0.798116 -0.445614 -0.194630 -0.357000 0.836135 -0.670240 -0.909605 -0.052402 0.713764 -0.916528 0.922303 0.873390 0.594376 -0.024827 -0.376421 0.302296 0.051747 0.763068 0.104967 0.137219 1.411818 -0.016769 -0.943278 -0.678920 -0.434335 0.173591 0.075542 0.298389 -0.457256 1.458771 0.442033 0.534526 -0.694726
have -0.393066 -0.157406 -1.097359 0.525865 -0.060719 0.499833 0.827858 1.051970 0.340434 0.413785 -0.317168 -0.455780 0.159830 -0.398592 0.763470 0.256364 0.291034 -0.114827 0.627991 -0.115502 0.040741 -0.319477 -0.524569 -0.159951 -0.060844 0.988435 -0.644221 -0.160433 0.468196 0.281318 0.202744 -0.572129 0.004379 0.241323 -0.323529 0.426972 0.131676 1.228850 -0.332188 0.049030 0.308653 0.112964 0.034203 -0.572835 -0.004019 0.115571 2.524369 0.457829 -0.370225 -0.331215
on 1.660902 -0.797955 -0.597613 0.318981 0.854563 -0.173106 -0.260741 0.863689 -0.369321 0.033653 0.499047 -1.140886 -0.239935 0.264533 0.595283 -0.385185 -0.279047 0.332661 0.507913 -0.464385 -0.812062 0.194689 -0.041222 0.034407 0.162709 0.109605 -0.371039 0.053951 0.874304 0.148353 0.461817 0.482562 -0.480604 0.227183 -0.026900 -0.667005 0.605014 0.123928 -0.040447 -0.064859 0.351347 -0.253694 0.934508 0.881797 0.057337 -0.201871 0.373093 0.032114 0.252847 0.165700
t -0.183430 1.423483 -0.167642 -0.591113 0.791537 0.004102 1.088862 1.260265 -0.658944 0.633713 0.049698 -0.868876 -0.357181 1.013411 -0.668659 -0.922834 1.015971 0.235590 0.475073 0.415965 -0.265081 -0.214840 -1.236477 -0.654540 -0.437513 1.892662 -0.872736 0.514693 0.980641 0.359346 0.178659 0.325239 -0.288916 0.723789 -0.716852 -1.003158 0.065505 0.155802 -0.049115 -0.081555 0.122539 0.231422 1.468342 0.095889 -0.532367 0.370848 1.968381 0.161481 -0.127839 -0.193486
great 0.324274 -1.043129 -0.185096 0.960077 0.540269 -0.085577 -0.174846 0.863274 -0.739600 0.176004 0.854671 -0.645576 0.626660 -0.548284 -0.447655 -0.688780 -0.219727 0.352527 0.019068 1.031998 0.254745 0.732336 -0.381815 0.167392 -0.398506 1.020947 0.129365 0.605097 0.471394 0.560041 0.935519 -0.150537 1.046868 0.404786 1.067198 0.261559 -0.350038 0.595920 -0.266229 0.382288 0.903998 -0.448402 -0.026756 -0.843774 0.493310 0.348825 0.626164 0.616155 0.377148 1.090199
very 0.207102 -0.156172 -0.216231 1.102079 0.672054 -0.250442 0.255045 0.353508 0.373886 -0.552828 0.924618 -0.360187 0.571108 -0.266116 -0.612286 -0.407629 0.016927 0.691621 0.078747 -0.156862 -0.562286 0.090213 -0.632978 0.055716 -1.460668 -0.480844 -0.965051 0.456453 0.272034 0.212223 -0.289558 0.093048 0.439923 -0.922937 0.948054 0.898946 -0.053255 0.387707 -0.883985 -1.664932 0.161091 -0.441212 -0.695483 -1.130584 0.550713 0.505341 0.840211 0.753827 0.562244 -0.634699
food -0.034034 -0.824323 -1.144526 0.257911 0.687001 -0.068410 0.348923 0.073918 0.132011 0.113441 0.679984 -0.674061 0.278408 0.199192 -0.506885 -0.001420 -0.294174 0.298544 -0.174672 0.208759 0.179260 0.058552 -0.763138 -0.048300 -0.712557 1.238550 -0.728011 0.492952 1.112347 0.218633 0.688329 -0.159877 0.713885 0.309829 0.427715 0.100806 -0.576181 0.328782 0.195347 0.139850 0.630841 -0.648995 0.094221 -1.063445 0.708456 0.245809 0.216695 -0.582459 0.432555 0.588104
we 0.273034 -1.110492 -0.339584 -0.676591 -0.340610 0.557347 -0.191783 1.194723 -0.105667 0.027398 0.437451 -0.812903 0.247391 -0.708189 1.463528 1.341554 -0.354068 0.573048 -0.247295 0.180329 -0.620923 -0.685162 -0.098803 -0.237768 0.009836 1.585722 -0.550103 0.135074 1.053356 0.353744 -0.232326 0.454598 -0.031979 -0.411193 -0.176776 0.611574 -0.521302 0.782794 -0.348727 -0.706977 -0.007442 -0.365196 1.466475 0.742328 -0.515606 -0.306728 1.124542 -0.572580 0.458119 -0.113410
had 0.085110 -0.734311 -1.316510 0.176831 0.495905 0.611341 0.112038 1.050038 0.365711 0.205695 -0.620520 -0.135214 0.125873 -0.913672 1.418529 0.719142 0.462683 0.005486 0.130992 0.247535 0.280958 -0.786192 -0.306544 -0.519141 -0.056182 1.106546 -0.701086 -0.352869 0.889140 0.907958 0.529887 -0.370101 0.221887 -0.076927 -0.123599 0.759010 0.406965 0.490667 -0.133510 -0.440126 0.206299 0.175564 0.106952 -0.668620 0.105955 -0.243251 1.786240 0.038583 -0.386261 -0.087321
s 1.156127 -0.448227 0.225963 0.224428 0.586036 0.084208 -0.237457 0.835508 -0.342360 0.255872 0.643047 -0.483480 0.370098 -0.249912 -0.718326 -0.092079 0.200668 -0.192645 0.546345 0.443189 0.225998 -0.123363 -0.051904 0.161944 -0.287949 0.818500 -0.130359 0.691342 0.006207 0.253353 0.274576 -0.112948 -0.062656 0.119901 0.728047 0.073890 0.393612 1.020023 -0.055150 -0.035938 -0.281947 0.303588 -0.648070 -0.998457 0.720161 -0.147790 0.943538 0.697455 0.306508 -0.227071
so 0.600355 0.139989 -0.352510 0.604173 0.197392 -0.421225 0.053980 1.170482 -0.321304 -0.195784 0.598187 -0.641638 0.196092 0.177472 -0.186414 -0.037950 0.468473 0.408622 0.151948 -0.061250 -0.482491 0.395777 -0.520567 -0.182263 -0.376309 0.603886 -0.525117 -0.296770 0.706901 -0.295748 -0.356464 0.204595 0.445151 -0.247098 0.426909 0.674212 0.598269 1.299954 -0.566091 -0.915111 0.222929 -0.646413 0.235144 -0.113875 0.112834 0.363517 1.047258 0.650031 0.833347 -0.310974
good 0.399574 -0.288939 -0.350501 0.276528 0.643003 -0.061866 0.244666 0.216789 -0.281851 -0.170493 0.803276 -0.422610 0.597942 0.162011 -0.555234 -0.309782 -0.018845 0.421248 -0.046130 0.255020 0.044480 0.499864 -0.750824 -0.433834 -0.710105 0.924902 -0.871290 0.766419 0.949779 0.271619 0.482827 0.172884 0.613695 -0.130148 0.634820 0.389774 -0.401730 0.832925 -0.131464 -0.508762 0.333720 -0.456000 -0.046665 -0.793843 0.570323 0.556795 0.471448 0.381144 0.357400 0.216461
are 0.245423 -1.100232 -0.228302 -0.145065 0.311565 -0.461268 0.163364 0.246681 0.047209 -0.033527 1.516377 -0.364812 0.387624 0.378289 -0.581513 -0.148701 -0.303206 -0.247385 -0.309329 -0.316999 -0.538200 0.996858 0.014120 1.604236 -0.316803 0.590554 -0.209517 0.459907 0.269934 -0.553593 -0.499789 -0.123929 0.393786 0.237106 0.569354 0.246899 -0.286605 1.401227 -0.854829 -0.251394 -0.489722 -0.663643 0.505841 -1.047636 0.806410 0.086258 1.035901 -0.247998 -0.005716 -0.059234
laptop 0.302582 0.148266 0.144112 0.814919 0.804656 0.318682 -0.454729 0.803563 0.149530 0.444829 0.265216 -0.265550 0.072612 -0.387432 0.076590 -0.518966 0.377094 0.741024 0.283575 0.058097 0.156225 0.245591 -0.592859 -0.626782 -0.131590 0.449609 0.113793 0.206367 0.722518 0.697906 0.334191 0.445188 0.646239 -0.235429 0.734709 0.203004 -0.194921 1.169786 0.323377 0.186530 0.492833 -0.715397 -0.295054 -0.642065 0.423162 0.786609 1.156487 0.029365 -0.139873 -0.343285
they -0.295649 -0.155695 0.082613 -0.972254 0.129940 0.437268 0.438771 1.221267 -0.564318 0.195115 0.784244 -0.450767 0.156381 0.430168 0.233446 0.202603 0.410931 -0.255000 0.144037 -0.010334 -0.755646 -0.081666 0.028889 0.574550 -0.514964 1.401717 -0.544372 0.797777 0.302219 0.030402 -0.284136 0.002214 -0.501358 -0.420242 0.144470 -0.014624 -0.392548 0.713947 -0.794051 -0.435219 -0.292332 -0.381818 0.856025 0.069475 0.286088 -0.192069 1.772524 -0.039623 -0.303009 -0.546012
computer 0.646988 -0.010370 0.457693 0.872672 0.747841 0.373658 -0.562138 0.887903 -0.040742 0.133819 0.286311 -0.264574 0.154040 -0.351349 0.174178 -0.430251 0.299249 0.474846 0.367183 0.049255 -0.198648 0.040460 -0.479547 -0.476759 -0.079162 0.186949 0.056256 0.247097 0.540542 0.792023 0.306179 0.288550 0.129173 -0.275502 0.656499 -0.035315 0.039351 0.915390 0.130632 0.116674 0.429322 -0.536916 -0.264849 -0.116445 0.119332 0.570687 1.170018 0.250266 0.075913 -0.383266
all 0.489785 -0.860540 -0.402406 -0.150104 0.499473 -0.224147 0.150995 0.566237 0.120454 0.174376 0.944915 -0.201155 0.397366 -0.075415 -0.740631 -0.089849 0.133362 -0.101471 0.749033 -0.363424 -0.102153 0.073319 -0.340529 0.618860 -0.251913 0.494293 -0.326020 0.638376 0.856078 -0.156756 0.599540 0.585361 -0.557350 0.025981 0.396683 0.091272 0.071333 0.200499 0.125561 -0.218650 0.111614 -0.421775 0.434942 -0.487162 0.357014 0.400869 1.354736 0.016402 0.115157 -0.591376
be -0.697983 0.336345 -0.014169 0.057443 -0.099430 0.412090 0.756911 1.371406 0.749502 0.611775 0.532921 -0.380216 -0.702193 0.016834 -0.286811 -0.187834 0.019525 0.317268 0.211742 -0.505218 -0.879409 0.190369 -0.725927 -1.365387 0.647397 0.005790 -0.124736 0.335644 0.784695 0.295321 -0.777194 -0.008327 0.188443 0.464700 0.412764 0.348983 0.153700 1.060310 0.226447 -0.387666 -0.838417 -0.163521 0.086586 -0.202439 0.096855 -0.716872 0.835306 -0.168175 0.848671 -0.068244
at 0.529308 -1.323671 -0.500337 -0.115408 -0.211224 -0.304549 0.216761 0.271423 0.675713 0.061361 0.757683 -0.538170 0.223381 -0.658663 -0.199243 0.101608 -0.286378 -0.353573 0.265993 -0.093621 0.054209 0.278996 -0.010213 0.531111 -0.087101 0.587904 -0.578189 0.432158 0.796126 0.137009 0.993958 0.230072 -0.153838 -0.070128 0.061637 0.087246 -0.524735 0.194285 0.589460 0.144269 0.255453 -0.202366 0.766139 -0.553879 -0.038589 0.271283 1.532797 0.099074 0.397558 -0.174301
place 0.492578 -0.227580 0.053603 0.957165 0.195777 0.270091 -0.033893 0.911949 0.014469 0.515690 0.728361 -0.856938 0.480862 -0.455828 0.116384 -0.658959 0.019979 0.714453 0.387004 0.294795 -0.269396 0.405706 -0.616627 -0.433456 0.334052 0.289131 0.211026 0.707148 0.453784 0.281084 0.760633 0.099251 0.578467 0.098416 0.255557 -0.232355 -0.058269 0.687243 0.495733 0.532482 0.900731 -0.674666 0.130862 -0.287971 0.366176 0.312884 0.621863 -0.302402 0.353405 0.221658
as 0.243211 -0.475651 -0.088598 -0.200724 0.264683 0.152116 0.354370 0.692749 -0.306775 -0.179636 0.498318 -0.311638 -0.034463 -0.612756 -0.599815 -0.148531 0.130659 0.812707 0.521507 0.082815 -0.197641 -0.302942 -0.324531 -0.316004 -0.264724 0.860892 0.010403 0.866407 0.208160 -0.152241 -0.288190 0.150978 -0.086107 -0.187842 0.728696 0.106496 0.233482 0.820633 -0.203286 -0.738268 -0.273516 0.119391 -0.521969 -0.872468 0.416246 0.029847 0.523927 0.361282 -0.247445 -0.751709
one 0.800361 -0.188517 -0.131250 -0.110068 0.484543 0.051109 -0.179855 0.794854 0.247054 0.688460 0.479885 -0.105630 -0.215938 0.051139 0.738918 0.049024 0.376653 0.520149 0.529105 -0.211869 0.230001 0.067382 0.391829 -0.319184 1.047911 -0.010115 0.384386 0.740898 0.827267 0.233645 0.155484 0.261519 0.350163 0.183705 0.092778 0.209673 0.544500 0.930240 0.662980 0.601161 0.308443 -0.311496 0.277493 -0.236337 0.353762 -0.248918 1.203326 -0.432452 -0.021351 -0.886033
if 0.032929 0.272944 0.094848 -0.323466 -0.122400 -0.239555 -0.156433 1.227274 0.271848 0.392127 1.140296 -0.537563 -0.548670 0.112203 -0.558663 -0.377634 0.447541 -0.149088 -0.395160 0.105588 -0.855988 0.662180 0.135349 0.291445 -0.114991 0.746717 0.149388 0.080152 0.604887 0.383382 -0.281951 0.388110 0.114615 -0.158049 -0.066974 -0.474842 -0.781763 1.435948 -0.169124 0.004834 0.048443 -0.423040 1.141781 -0.341515 0.089948 -0.368531 1.437824 -0.141280 0.100504 -0.435714
service -0.043365 -0.470825 -0.552183 1.026978 0.597880 0.348405 0.362678 0.203416 -0.096735 -0.056025 0.310245 -0.621887 0.412303 0.246467 -0.107462 0.025276 -0.262717 0.548467 -0.347757 0.448284 0.250061 -0.267190 -0.771458 -0.331780 -1.023104 0.995669 -0.697290 0.634230 0.499001 -0.077069 -0.083278 -0.684815 1.262855 0.328351 0.666247 0.442640 -0.553232 0.160861 -0.031166 -0.018879 0.697543 -0.511548 -0.421786 -0.967737 0.537151 -0.061042 -0.105303 -0.402807 0.470303 0.551962
would -0.270149 0.526068 0.519801 -0.008154 -0.413348 0.625131 0.419486 1.307316 0.146221 0.841931 0.571088 -0.395099 0.193124 0.187305 0.886953 0.240021 0.457286 0.316743 0.130912 -0.202975 -1.089657 0.225130 -0.696976 -1.152203 0.826281 0.688018 -0.136899 0.388224 0.307977 0.998393 -0.231852 0.376419 0.121436 0.186963 -0.041620 0.273976 -0.315821 1.332780 0.772869 0.576411 -0.063114 -0.177061 0.266526 0.635939 0.137649 -0.269490 1.122107 -0.046506 0.048636 -0.299201
can -0.211138 0.701063 -0.182753 -0.261946 0.318026 0.083185 0.745273 0.939538 0.056349 0.599639 0.636768 -0.348723 -0.591717 0.778158 -0.733666 -0.448914 0.491742 0.195366 1.011761 -0.460598 -0.866804 0.235017 -0.738226 -0.090558 -0.026901 0.195154 0.131670 0.539521 0.843035 0.231929 -0.118691 0.201936 -0.714149 0.171397 -0.276622 -0.264244 0.419706 0.418695 0.353549 0.366909 0.312123 -0.158947 0.444890 0.111550 0.186992 0.006334 1.797332 -0.453178 0.431807 -0.378165
n -0.173736 1.035674 -0.193490 -0.699843 0.257795 0.048355 1.056401 1.057173 -0.301769 0.485427 0.078882 -0.989247 -0.471527 0.819574 -0.529934 -0.402085 0.633981 0.317536 -0.118996 0.572774 -0.140770 -0.090553 -1.456731 -0.697210 -0.679166 2.192009 -1.054422 0.364761 0.869161 0.148070 -0.240972 0.017789 0.153012 0.534236 -0.738497 -0.493802 -0.372145 -0.070368 0.082274 -0.258733 0.111979 -0.087035 1.688616 0.301444 -0.421268 0.169747 1.322280 -0.073762 -0.002248 -0.102858
me 0.406198 0.149809 -0.140839 -0.540050 0.359070 0.377633 -0.235981 1.487310 -0.429524 0.128025 0.480880 -0.022969 -0.155291 -0.080325 0.177653 0.015370 0.775313 -0.163615 0.427078 -0.159012 -0.730163 -0.398281 0.365202 0.045262 -0.231327 0.700030 0.402890 0.539448 0.384635 0.338740 0.274036 0.397937 -0.805906 -0.173799 -0.057092 -0.579688 0.165387 0.294787 -0.957908 0.031555 -0.207455 -0.118155 0.242463 0.208643 0.103442 -0.966769 1.189244 -0.396841 0.006508 -0.622465
just 0.952557 0.054206 -0.045404 0.073406 0.263666 -0.119506 -0.037363 0.999957 -0.183620 0.311062 0.615291 -0.211653 -0.277386 0.007055 -0.527435 0.189781 0.463487 0.422499 -0.075616 0.195773 -0.413330 -0.014399 -0.011493 -0.221996 -0.409693 0.921567 -0.134804 0.568812 0.313143 0.345309 0.005066 0.416617 0.092688 0.137905 0.261044 0.125974 0.249043 0.547576 -0.069183 -0.108995 -0.113943 -0.072629 0.229138 -0.031074 0.347099 -0.696597 0.787211 0.202422 0.201000 -0.642883
were 0.283535 -1.109259 -0.600931 -0.835591 -0.111178 0.219033 0.098034 0.490102 -0.441772 -0.215806 0.864396 -0.592846 0.790277 -0.293036 0.302924 0.979420 -0.176389 -0.144427 -0.589982 0.463822 -0.503184 -0.304804 -0.075444 0.262497 -0.487673 1.165699 -0.798331 0.564668 0.688323 -0.297795 -0.429939 -0.053652 0.337343 -0.300639 0.273557 0.685973 -0.553737 0.296935 -0.975702 -1.375219 -0.460063 -0.398752 0.834535 0.037814 0.187532 -0.850637 0.072420 -0.153570 0.660104 0.280775
has 0.673170 -0.343876 -0.371469 1.053037 0.433422 0.358622 0.038538 0.758868 -0.315024 0.186884 -0.086306 -0.236148 0.767254 -0.432353 0.531615 0.041351 0.211231 0.019222 0.786812 0.188132 0.384088 -0.375026 -0.411632 -0.305617 0.100765 0.150408 -0.041216 0.219660 0.059888 0.257704 0.510149 -0.152394 0.012762 0.289593 0.357852 0.208421 0.616613 0.894770 -0.476360 0.363974 0.308511 0.037903 -0.788361 -0.609782 0.232063 -0.080542 1.169059 0.409089 0.088606 0.225694
there 0.757603 -0.639809 -0.642219 0.157703 0.196951 -0.369364 0.596721 1.125942 0.032658 -0.077007 0.637010 -0.986931 -0.122238 0.086382 0.673353 0.235859 0.044764 0.112491 0.131712 -0.153378 -1.053122 0.132786 -0.116369 0.588574 -0.042198 0.762036 -0.380647 0.003548 0.345407 0.040717 -0.343152 0.045534 -0.063678 0.204337 -0.546781 0.143885 0.926676 0.774660 -0.599986 -0.110172 -0.293987 0.124918 0.478228 -0.267263 0.067676 -0.632981 1.191900 -0.337402 0.513086 -0.459320
like 0.241089 0.540670 0.016347 -0.229146 0.399521 0.101022 0.019009 0.769597 -0.245615 0.410993 0.589804 -0.347062 0.144133 0.936496 -0.452516 -0.307043 0.631371 -0.287541 0.449127 -0.042846 0.139744 -0.330273 0.030903 0.159664 -0.313133 0.822386 -0.326533 0.669186 0.467959 -0.041731 -0.316329 0.122417 0.020803 0.369967 0.326280 0.013995 -0.642137 0.930026 -0.439001 0.245074 0.004674 0.003188 0.545781 -0.545203 0.441647 -0.122659 0.946735 0.193697 -0.155696 0.106952
or 0.342819 -0.087828 -0.915531 -0.124307 0.477066 -0.365546 -0.166322 0.414080 0.101797 0.506943 0.227193 -0.182125 -0.208662 -0.061307 -0.213113 -0.657147 0.614789 0.132429 -0.179053 -0.178183 0.058666 0.549537 0.189865 0.018580 0.077571 0.339537 -0.001667 -0.394951 0.897938 0.504275 0.414441 -0.114021 0.137652 0.616757 -0.199145 -0.254264 0.282044 0.371326 -0.171680 -0.188363 -0.105973 -0.304453 0.851488 -0.366779 -0.005808 -0.182118 1.104828 0.565954 0.132597 0.020175
get 0.229970 0.005840 -0.517100 0.196534 0.012267 -0.119276 0.228904 0.911524 0.110149 0.644556 0.467090 -0.332722 -0.618428 0.230177 -0.469191 -0.191375 0.448833 0.188105 0.627010 -0.280114 -0.576088 0.149062 0.093584 -0.238304 0.022119 0.314491 0.150077 0.327916 0.830767 0.519514 0.301591 0.159485 -0.265728 0.475805 -0.162582 -0.434625 0.148572 0.637757 0.113200 0.359643 0.326584 -0.167652 0.633452 -0.097657 -0.075404 -0.569608 1.211957 -0.102709 0.362312 -0.123128
no 0.327217 -0.096673 -1.105263 -0.081969 0.681874 -0.508602 0.184908 0.588979 0.205093 0.631686 0.445250 -0.115319 -0.151258 0.127582 0.688202 0.527276 0.272883 0.224889 -0.188358 0.161390 0.634218 -0.133815 0.099630 0.453308 0.724848 0.200081 -0.196482 0.320739 0.137572 -0.177917 0.287319 -0.398096 0.570192 0.738482 -0.466744 -0.018818 1.709272 0.423757 -0.783586 0.565845 -0.347788 0.765800 -0.593875 -0.869044 0.283678 -1.161580 1.114964 -0.515187 0.132523 -0.113293
from 0.624596 0.026178 0.232103 0.709847 0.511712 0.316898 -0.565400 0.874034 0.132363 0.348187 -0.029093 -0.218955 -0.203388 -0.172007 0.263388 0.067400 0.248162 -0.002961 0.666873 -0.137180 -0.203008 -0.227512 -0.163001 -0.423719 0.307753 -0.072935 0.389740 -0.172221 0.355574 0.112807 0.021288 0.367460 -0.149904 0.006966 0.162518 0.284019 -0.008551 0.546852 0.328869 0.313335 0.530229 -0.561734 0.333352 0.304488 0.042973 0.079064 0.783161 0.188285 0.246516 0.078061
do -0.009290 0.816389 -0.261864 -0.413151 0.179104 -0.120183 0.554892 0.750599 -0.148701 0.523410 0.523467 -0.487216 -0.304783 0.544643 -0.707178 -0.627319 0.820201 0.111175 0.145442 -0.110876 -0.504868 0.425613 -0.817392 -0.211211 -0.356219 1.048568 -0.365144 0.214187 0.802806 0.184129 0.151529 0.015676 -0.087264 0.348481 -0.392551 -0.419614 -0.020437 0.178224 0.062334 -0.061251 -0.010678 -0.243738 1.079060 0.115227 -0.006258 0.086444 1.322218 -0.025528 0.133517 -0.428799
use 0.415397 0.118873 -0.392223 0.683327 0.545460 0.154705 0.291226 0.227750 -0.124714 0.376002 0.407590 0.310010 0.240087 0.045000 -0.764662 -0.679168 0.431749 0.275823 0.886772 -0.477417 -0.458151 0.160545 -0.177639 -0.082361 -0.522234 -0.392144 0.054283 0.590410 0.661437 0.584256 0.455253 0.253577 -0.785787 0.141213 0.348714 -0.357435 0.068126 0.195075 -0.005323 -0.000052 0.264679 -0.661352 -0.259497 -0.322346 0.266548 0.206049 0.909116 0.446479 0.310896 -0.469068
time 0.412495 -1.317394 0.010755 0.281253 0.281225 -0.008418 0.028023 0.634210 -0.056694 -0.555193 0.218133 -0.571753 0.164967 -0.680291 0.340564 -0.073495 0.075251 0.376461 1.191998 -0.047190 -0.435178 -0.390764 0.589448 0.044802 -0.131548 0.243181 -0.052570 0.239124 0.441763 0.156601 0.617919 0.479256 -0.936918 0.267490 0.191963 -0.703577 0.114976 0.178964 0.165925 -0.278550 0.515388 0.015881 0.407618 0.109429 -0.923768 -0.035778 0.855508 0.492055 0.336060 -0.205983
an 0.268038 0.211462 -0.688017 0.435431 0.436628 0.364676 0.157012 0.480202 -0.381058 0.588256 0.520239 -0.148237 0.432990 -0.433896 0.153886 0.083667 -0.007882 0.534248 0.191078 0.017671 -0.006587 -0.535030 -0.005256 -0.452671 0.033122 0.163752 0.253088 0.216476 0.308790 0.352072 0.475130 -0.037622 0.374750 0.583217 0.092381 -0.525523 -0.524827 0.902632 -0.612576 0.615339 0.228103 0.015692 -0.547562 -0.336063 0.106357 -0.760622 0.184308 -0.171305 0.074861 0.440698
only -0.169970 -0.424223 0.215584 -0.648412 0.840438 0.490217 -0.359420 0.986488 -0.132849 0.343269 0.097380 -0.238420 -0.114276 0.120458 1.423619 0.086147 -0.125817 0.233960 0.426140 0.145665 0.266154 0.444175 0.418551 0.005080 0.824205 0.579482 -0.237619 0.166095 0.253522 0.556960 0.196460 -0.087126 0.054973 -0.335117 0.079342 0.357623 0.554382 0.798585 0.632101 0.422493 0.162252 0.194466 0.185899 0.002400 0.676875 0.356433 1.376172 -0.500252 -0.360805 -0.463127
when 0.520147 -0.402994 0.156263 -0.084509 0.398524 0.206699 -0.466607 0.911960 -0.022062 -0.182937 0.350829 -0.321160 -0.061619 -0.029313 0.250094 0.491016 0.023995 0.270012 0.275500 -0.028196 -0.338802 -0.579105 0.344775 0.116212 -0.255561 0.506175 -0.155681 0.194737 0.593458 0.317778 -0.129904 0.579086 -0.423628 -0.438063 0.356936 0.050745 -0.261834 0.587029 -0.365506 -0.389406 0.244170 -0.233348 0.583946 0.379130 -0.121117 -0.115602 0.806311 -0.036131 0.151768 -0.213158
out 0.887188 -0.210109 0.156082 0.042279 0.306695 0.203427 -0.269571 1.017714 0.074400 0.419814 0.785637 -0.394219 0.028917 0.370604 0.120820 0.037932 0.307709 0.167147 0.585452 -0.494349 -0.605682 -0.070241 -0.061941 -0.202915 0.503113 -0.054085 0.271951 0.814465 0.463071 -0.390950 0.493956 0.746959 -0.448186 0.151463 -0.084946 -0.296990 0.281052 0.231797 0.271673 0.274341 0.456308 -0.692661 0.544239 0.677821 0.229109 -0.300383 0.166838 -0.548751 0.492796 -0.393837
about 0.027616 0.686974 -0.169770 -0.502916 0.369423 0.038245 -0.050288 0.453046 -0.306668 0.606655 0.292293 -0.186270 0.541454 0.300240 0.083539 -0.077750 0.579807 0.014037 0.364727 -0.051888 0.220191 0.145454 -0.473052 0.002710 0.188138 0.770985 -0.247831 0.129472 0.500449 0.414441 0.710775 0.376509 0.030558 -0.065631 -0.621904 0.020448 0.326896 0.487843 0.151969 0.428725 0.339356 -0.214947 0.157992 -0.428765 0.403034 0.603228 1.202951 -0.179004 0.044249 -0.166638
up 0.298711 -0.070084 -0.329445 0.568086 -0.060327 0.262937 0.333331 1.115316 -0.125283 0.480288 0.251404 0.005202 0.089987 -0.032398 -0.664167 -0.075862 0.133574 0.592662 0.438027 -0.470796 -0.787213 -0.368014 -0.021943 0.053855 -0.830437 -0.178980 -0.070556 0.613372 0.098418 0.696193 0.182346 0.186744 -0.836197 -0.090476 0.268168 -0.590967 0.454839 -0.330161 -0.003590 -0.654803 0.218287 0.095054 -0.077539 0.013244 0.095955 -0.812155 0.304890 -0.258141 0.251849 -0.185562
go 0.097183 0.059156 0.264029 0.652592 -0.367605 -0.029875 0.812114 1.170212 0.495931 0.475400 0.544279 -0.725634 -0.397889 -0.057032 0.515897 -0.135413 -0.251081 0.826082 -0.185303 -0.175876 -1.393860 0.407455 -0.612375 -0.143876 -0.078039 0.663691 -0.001163 0.065106 0.088749 0.480419 -0.177951 0.172968 -0.198335 0.286786 -0.599032 -0.356371 0.311324 0.203201 0.684355 0.477960 -0.157535 -0.133247 0.695319 0.282822 -0.331037 -0.471016 0.921854 -0.919529 0.086637 -0.689987
restaurant 0.235057 -0.574419 -0.402801 0.178259 0.176218 0.087005 -0.136625 0.457574 0.172534 0.317228 0.346366 -0.625956 0.103096 -0.475592 0.231026 -0.452838 -0.105356 0.317664 0.283212 0.110006 0.492263 0.156907 -0.496088 -0.247362 0.337710 0.366536 -0.166636 0.516214 0.740293 0.030192 0.427170 0.146963 0.814290 -0.290744 0.181600 0.265350 -0.162177 0.175001 0.521070 -0.142205 0.672320 -0.504630 0.273974 -0.514147 0.434744 0.444768 0.367109 -0.269610 0.025658 0.181544
will -0.308929 0.309387 0.674544 0.545847 -0.499917 0.148643 0.094340 1.146187 0.598750 0.627220 0.500523 -0.464451 -0.708567 -0.217826 0.484072 -0.288570 0.005803 0.629849 0.127722 -0.343755 -0.577521 0.444149 0.035291 -0.403023 0.452022 -0.097261 0.519642 0.224430 0.342568 0.417916 -0.569973 -0.015880 0.187607 0.170764 0.139467 -0.183913 -0.179995 0.517818 0.555629 0.169541 -0.206268 -0.150352 0.578219 0.189518 -0.377334 -0.462291 1.190803 -0.392319 0.198019 -0.707970
more 0.506168 0.123013 -0.519748 -0.104680 0.108025 -0.315941 -0.027081 0.713811 -0.197876 0.206557 0.165545 -0.045450 -0.195638 0.737471 -0.674883 -0.068987 0.762058 -0.472478 0.705108 -0.414409 -0.253681 0.065984 0.106021 -0.629365 0.422238 0.487653 -0.088344 -0.518662 0.824922 0.570984 -0.653926 -0.212997 -0.185163 0.866813 0.309258 0.655747 0.310272 1.126442 0.163388 0.319930 -0.587779 0.551081 0.227049 -0.177328 0.296934 -0.415625 0.432374 0.709657 0.367523 0.312452
love 0.290548 0.439810 0.501430 0.591283 0.687858 0.178389 -0.491496 0.441580 0.345221 0.141623 -0.093320 -0.043065 0.139729 -0.033168 0.178702 -0.031679 0.090210 0.612769 0.376056 -0.306008 0.444237 -0.234567 -0.778601 0.046812 0.009836 0.000408 0.051021 0.079302 0.211730 0.114065 0.256960 0.739575 0.116702 -0.605953 0.310046 0.440827 0.163199 0.054921 0.531350 0.094566 0.631018 -0.606299 -0.293491 -0.354192 0.296948 0.953047 0.865056 -0.237541 -0.228438 -0.487429
which 0.572486 -0.447833 -0.377447 -0.028216 0.432483 0.130347 0.068643 0.327766 0.044183 -0.015438 0.341368 -0.423337 -0.119831 -0.005535 0.223939 -0.480588 -0.134258 0.137002 0.028121 -0.040411 -0.126160 0.179269 -0.014736 -0.281664 0.195083 0.358287 -0.431300 0.304762 0.490778 0.170768 -0.062455 -0.013214 0.258497 0.097823 0.303800 0.304200 0.068678 0.777298 -0.027702 -0.496172 -0.089075 -0.057384 0.234059 -0.135625 0.380993 -0.181810 0.116673 0.067374 0.079550 0.133837
best -0.115154 -0.762743 -0.348639 -0.028676 0.192359 0.426056 -0.043926 0.211333 0.676807 0.416098 -0.153958 -0.141737 -0.094620 -0.376457 0.774474 0.127306 -0.489617 -0.053602 0.324890 0.035449 1.138959 -0.167610 -0.296979 0.284030 0.674926 0.432458 -0.155793 0.179449 0.326987 -0.417909 0.435440 -0.025838 0.471283 -0.045904 0.099670 0.524163 0.098140 0.688916 0.953613 0.635660 0.758864 -0.361860 0.107461 -0.667910 0.667218 0.884057 1.013819 -0.752490 -0.400288 -0.061874
really 0.068659 0.943469 0.258588 0.350052 0.516575 0.109401 0.460630 0.533235 -0.241411 0.112608 0.293277 -0.375041 0.222501 0.692707 -0.405917 -0.507656 0.602538 0.321754 0.194462 0.051160 -0.193806 -0.033825 -0.645557 -0.452882 -0.606215 0.374859 -0.656862 0.765476 0.156249 0.364091 -0.108691 0.000164 0.289353 -0.225636 0.355160 0.316759 -0.120771 0.736717 -0.304358 -0.163289 0.181864 -0.063098 -0.305131 -0.599888 0.369385 0.093191 0.811907 0.350099 -0.049094 -0.186271
what 0.446326 0.372976 0.197432 -0.286884 0.074440 -0.222877 -0.110723 0.899446 -0.325926 0.535646 0.724879 -0.209017 -0.267961 0.515667 -0.421992 0.312746 0.565177 -0.115960 -0.018227 0.083150 -0.563420 0.144447 -0.097168 -0.356803 -0.012265 0.961137 -0.124435 0.314830 0.481951 0.689530 0.141560 0.279966 -0.025352 0.424062 0.051888 0.057433 -0.111065 1.240004 -0.170753 0.678639 -0.021800 0.232779 0.431426 0.167885 0.135406 -0.546700 1.018647 0.004620 0.429571 -0.023317
rrb 0.487229 -0.834266 -0.787376 -0.249410 0.351177 -0.253662 -0.402649 -0.168635 0.253600 -0.224158 0.259058 -0.216735 -0.186351 0.088892 -0.158293 -0.595116 0.212724 -0.257916 -0.249546 -0.112153 0.205530 0.462944 0.358540 0.119660 0.140759 0.598119 -0.378823 -0.365583 0.906102 -0.010141 -0.227305 -0.236008 0.220777 0.360978 0.350413 0.640450 -0.002936 0.727041 0.041118 -0.670775 -0.352674 -0.109204 0.660671 -0.476088 0.681742 -0.072541 0.271081 0.493754 -0.090366 0.385174
by 0.622184 -0.324973 -0.108929 0.206089 0.013687 0.100747 -0.148157 0.657458 0.121698 0.041974 0.183216 -0.125933 -0.154715 -0.399859 0.361758 0.161378 -0.070818 0.055683 0.076714 0.097091 -0.215498 0.180617 -0.131367 -0.495463 0.531062 0.229402 -0.036835 0.086874 0.326955 -0.427413 -0.144886 0.213765 0.353293 -0.305085 0.180737 0.616967 0.340884 0.675377 0.066170 -0.592632 0.170712 -0.600676 0.360965 0.405043 0.251745 -0.066934 0.410635 0.068147 0.309925 -0.070604
been 0.222466 -0.686925 -0.613755 0.709193 -0.442613 0.334269 0.548828 0.716798 0.312711 0.000390 -0.089342 -0.150740 0.785717 -0.805753 0.859487 0.829172 0.026448 -0.179140 0.262146 0.163915 -0.228938 -0.568570 -0.338477 -0.097416 -0.072589 0.381012 -0.637954 -0.014877 -0.176083 0.201366 0.461847 -0.042005 0.002777 0.004424 -0.179675 0.510229 0.677372 0.879262 -0.708243 -0.234261 0.089154 0.286702 -0.585427 -0.392359 0.050145 -0.154712 1.719060 0.562757 -0.066230 -0.171298
back -0.274646 -0.146140 0.217888 0.454321 -0.516856 0.364172 0.761796 1.249030 0.732889 0.354101 0.128109 -0.234799 -0.480315 -0.560788 0.704306 0.105373 -0.311353 0.774940 -0.005009 -0.667527 -1.657801 0.064993 -0.290837 -0.437705 0.374538 0.214586 0.182151 -0.112717 0.032158 0.816502 -0.445050 0.434692 -0.606157 0.093386 -0.397515 -0.309796 0.361171 0.076553 0.624475 -0.189904 -0.707514 -0.054872 0.530397 0.473407 -0.371470 -0.811746 0.559946 -0.556434 -0.001237 -0.843473
your 0.417449 -0.083279 -0.217019 0.026258 0.240631 -0.556390 -0.295529 0.532079 -0.055033 0.504515 0.676991 -0.589175 -0.279023 0.086294 -0.707052 -1.024962 0.311543 0.124850 0.418007 -0.152826 -0.210906 0.462347 0.571734 0.569463 -0.082847 0.170011 0.556844 0.187280 0.522807 0.181664 0.251604 0.465333 -0.361160 0.479651 0.016853 -1.250828 -0.684185 0.265193 0.145786 0.456934 0.174742 -0.266035 1.165157 -0.188749 -0.076811 0.004918 0.655210 0.130787 -0.170298 -0.201042
lrb 0.462562 -0.871421 -0.698639 -0.307326 0.483617 -0.059731 -0.322686 -0.127561 0.229008 -0.182219 0.136349 -0.213080 -0.153712 0.060605 -0.005205 -0.569253 0.029422 -0.183573 -0.300479 -0.012379 0.270361 0.343256 0.218794 -0.002502 0.064098 0.756149 -0.493715 -0.322983 0.842617 0.011998 -0.286238 -0.378117 0.288497 0.348235 0.417789 0.644958 -0.078557 0.708290 0.138310 -0.690876 -0.361414 -0.113014 0.501770 -0.449545 0.713158 -0.011856 0.128500 0.244764 -0.206094 0.392742
than 0.462426 -0.608347 -1.032234 -0.252816 0.111284 -0.494412 -0.025547 0.145033 -0.094979 0.530539 0.074929 0.284550 0.008482 0.655740 -0.814400 0.258153 0.468274 -0.600486 0.502370 -0.511564 0.325243 0.164505 0.364791 -0.404636 0.948209 0.371373 -0.066895 -0.875994 0.884321 0.933495 -0.146856 -0.253357 -0.101955 1.358406 0.333044 0.865750 0.675584 1.147283 0.672352 0.506381 -0.416890 0.789009 0.104622 -0.631695 0.507329 -0.336713 0.143028 0.610128 0.502382 0.608006
well 0.078981 -0.105411 0.377492 -0.141692 0.584074 0.184382 0.264464 0.373291 -0.292731 -0.218088 0.458941 0.060147 0.034099 -0.226129 -1.067970 -0.218064 0.131719 0.624140 0.250311 0.103523 -0.292568 -0.174930 -0.553873 -0.236120 -0.803701 0.660817 -0.504410 1.177518 0.041756 0.288861 -0.053439 0.293681 -0.333850 -0.231851 1.054944 0.034292 0.308842 0.324836 -0.250881 -0.891329 -0.396041 0.348519 -0.929639 -0.745420 0.472107 -0.091174 0.129114 0.509963 -0.206868 -0.592908
ve -0.335254 -0.760607 -0.686636 0.125187 -0.304608 0.501637 0.227321 0.622709 0.718486 0.002444 -0.726935 -0.013257 -0.063668 -0.885266 1.639105 1.063006 -0.079967 -0.268312 0.187101 0.076582 0.184935 -0.571729 -0.279125 -0.246238 0.374470 0.621173 -0.637730 -0.741075 0.137911 0.426778 0.205979 -0.150557 0.042109 -0.284688 -0.553741 1.084999 0.343431 1.041617 0.207142 0.155508 0.304549 0.343444 -0.204989 -0.183430 -0.024727 0.360737 1.957719 -0.044257 -0.491085 -0.321699
battery 0.186050 -0.259515 0.090623 0.515420 0.985859 0.079717 0.279358 0.269280 -0.888564 -0.307929 0.226010 -0.771747 0.354146 0.426301 0.000731 -0.655703 -0.073902 0.506139 1.312347 0.092481 0.298268 -0.199245 -0.097862 -0.461007 -0.127138 -0.022369 0.185299 0.166618 0.354947 -0.160957 0.221598 -0.068414 -0.284370 1.003583 0.543926 -0.600830 0.059100 0.708401 -0.395318 0.054667 0.244717 0.177787 -0.157240 -0.061974 -0.343746 0.341071 -0.110761 0.395881 0.608758 0.368770
even 0.486000 0.302001 -0.041689 -0.527026 0.726297 0.189439 0.095171 0.671218 -0.307896 0.078821 0.139987 -0.294685 -0.281419 0.401339 -0.224560 -0.355867 0.474068 0.264842 -0.032889 0.217391 -0.135890 -0.088215 -0.301479 -0.360293 -0.224154 0.875630 -0.324596 0.351002 0.776068 0.217755 -0.084667 -0.149483 -0.105310 -0.018230 0.122092 -0.135647 0.214086 0.191138 -0.367542 -0.754507 -0.295706 -0.155073 0.713334 0.461635 0.093254 -0.230695 0.614194 0.310281 -0.072766 -0.097147
am -0.287857 0.308564 -0.059743 0.446156 0.301825 -0.204337 0.195760 0.245525 0.731379 -0.356066 0.123625 0.312140 -0.050426 -0.252768 -0.013377 0.097136 0.298552 0.252254 -0.030702 -0.582263 -0.434033 0.044577 -0.723868 -0.492378 -0.105098 -0.574640 -0.838199 -0.402263 0.188491 0.090022 -0.278054 0.338984 0.116684 -1.070409 0.358886 1.494216 0.421271 0.244649 0.043624 -1.265337 -0.053358 -0.287293 -0.672279 -0.104062 0.267107 0.331006 0.895425 0.614898 0.210041 -0.760790
screen 0.398153 -0.375976 -0.166259 0.663088 0.818030 0.453796 0.000743 -0.123023 -0.296330 0.156438 0.033673 -0.323417 0.121539 0.178881 -0.013985 -0.464938 -0.508508 0.401129 0.496102 0.145952 0.278886 -0.016250 -0.170005 0.212786 -0.034028 0.175200 -0.087400 0.703217 0.257951 0.037118 0.130914 -0.605276 0.259802 0.343232 0.506823 -0.325851 -0.128486 0.277517 -0.022360 0.389791 0.282221 -0.054297 -0.247721 -0.131001 0.448872 0.244232 -0.060759 0.064490 -0.063326 0.762573
also 0.165160 0.158014 0.145315 0.264952 0.412779 0.207615 0.095920 0.792103 0.094470 -0.002086 0.574170 -0.333581 0.208399 0.212155 0.076143 0.102401 0.149022 0.016508 0.163661 0.045137 -0.221604 -0.193118 -0.371023 0.079122 -0.459943 0.268281 -0.705098 0.350653 0.115788 -0.087337 -0.292618 0.015670 0.127590 -0.449130 0.402874 0.541795 -0.060933 0.899131 -0.577530 -0.704755 0.071596 -0.131420 -0.032895 -0.418798 0.286444 0.048915 1.201925 0.280657 0.191518 -0.055626
price 0.304934 -0.117801 0.089365 0.183407 0.200059 -0.231972 -0.146005 -0.054161 -0.041441 0.233314 0.663930 -0.031971 0.186888 0.154791 -0.791308 -0.327819 -0.036419 0.081429 -0.205374 0.329842 0.187399 0.592819 -0.162462 -0.264231 -0.365503 0.552079 -0.303630 0.514144 0.427275 0.534307 0.451958 0.148151 0.601365 0.259478 0.847228 0.327907 -0.519745 0.644028 0.087788 0.047967 0.389748 -0.025790 0.052190 -0.554418 0.328190 0.385928 0.283868 0.447483 0.183953 0.317879
its 0.284590 -0.024529 -0.048824 0.582275 0.336524 0.052331 0.160245 0.233016 -0.055471 0.169812 0.582644 -0.158649 0.303873 0.135706 -0.524015 -0.357642 -0.042197 0.483313 0.206344 0.110620 -0.121128 0.322713 -0.352543 -0.086157 -0.542748 0.131471 -0.227225 0.806391 0.284577 0.138243 0.172207 0.047800 0.245979 0.018383 0.679964 0.075496 -0.051873 0.677766 -0.219988 -0.345771 0.299419 -0.299054 -0.349602 -0.495010 0.528086 0.139948 0.370104 0.356317 0.281174 -0.005329
never -0.525447 0.050675 -0.161333 0.638441 -0.702191 0.403286 0.534775 1.205319 0.467138 0.396271 -0.395433 -0.444226 -0.466932 -0.566515 1.337641 0.504687 0.257537 0.254728 -0.042712 -0.094320 -0.359598 -0.352972 -0.022156 -0.525995 0.191144 0.309916 -0.008530 -0.357457 0.063136 0.740565 -0.293465 -0.278639 0.271106 0.015633 -0.548832 0.489143 -0.012215 0.239752 0.255959 0.155735 0.174248 0.262609 0.214482 -0.069480 -0.444057 -0.600658 1.553880 -0.254146 -0.063947 -0.581219
too 0.074733 -0.007453 -0.008693 0.087741 -0.345621 0.067793 0.316125 0.014486 -0.247488 -0.079269 0.533138 -0.155442 0.420260 0.264007 -0.590963 0.075247 0.264276 0.066821 -0.364318 -0.074589 -0.301911 0.530068 -0.400343 -0.501338 -0.174308 0.458722 -0.672523 0.469616 0.318328 -0.062142 -0.300283 -0.342948 0.425038 -0.082566 0.504485 0.485152 0.110689 0.741327 -0.316278 -0.708335 -0.530357 -0.169968 -0.421899 -0.332284 0.318526 -0.313892 -0.180550 0.699692 0.686334 0.163324
their 0.393556 -0.271366 -0.513555 -0.129437 0.467336 -0.080988 -0.027225 -0.112339 0.015183 0.142332 0.283521 -0.330841 0.282077 0.179058 -0.100239 -0.111464 -0.104267 -0.052225 0.151257 -0.293727 0.017654 -0.104297 -0.454988 0.515731 -0.071866 0.346539 -0.110774 0.229766 0.305757 -0.259772 0.217374 0.258180 -0.183996 0.236141 -0.021077 -0.063504 -0.156785 -0.110248 0.284633 0.307036 0.325905 -0.494182 0.273912 -0.266522 0.375322 0.359753 0.207933 -0.264388 -0.235898 -0.103467
nice 0.179154 -0.034014 -0.054754 0.638487 0.500040 0.232196 0.220323 0.145472 0.184334 0.027377 0.548912 -0.361004 0.469119 0.260345 -0.252219 -0.404188 -0.067618 0.294095 0.177162 0.119370 -0.090331 0.217467 -0.509904 -0.246594 -0.318974 0.024656 -0.626392 0.827051 0.255847 0.083655 -0.049975 -0.333398 0.547917 -0.181271 0.679677 0.320968 -0.196867 0.671687 -0.205834 -0.484841 0.300167 -0.232793 -0.467651 -0.715587 0.591946 0.131958 0.230527 0.235765 0.283146 0.350624
after 0.390730 -0.455572 -0.060690 -0.642351 0.538856 0.227720 -0.563109 0.254384 -0.451952 0.024304 0.078439 0.078375 0.157373 0.120665 0.843989 0.529127 0.129233 0.043710 0.266208 -0.157115 -0.070792 0.046134 0.728015 0.142175 0.277854 0.489947 -0.071791 -0.072064 0.409335 0.089716 -0.108737 0.161223 -0.236948 -0.281829 0.265796 0.364440 0.082822 0.209939 0.040341 -0.054767 0.031072 -0.045392 0.579689 0.437794 0.172952 0.026470 0.169271 0.100307 -0.162314 -0.032384
our 0.441632 -1.186153 -1.077364 -0.410568 0.119418 0.296481 -0.324553 0.249221 0.007498 -0.001197 0.265932 -0.245490 0.269292 -0.558820 0.458636 0.501140 -0.319682 0.083999 0.049707 0.079434 -0.141718 -0.525567 0.358068 -0.173727 0.048346 0.523508 -0.203970 0.118072 0.982150 0.198335 0.390668 0.296144 -0.249909 -0.136226 0.044319 -0.177469 -0.544089 -0.558999 -0.043154 -0.647540 0.225267 -0.494382 1.041136 0.508452 -0.240622 -0.547426 -0.785166 -0.297467 0.394326 0.636034
here 0.406889 -0.684137 -0.439548 0.513090 0.209709 -0.242349 0.503335 0.526241 0.183369 -0.214013 0.133650 -0.746651 -0.355359 -0.326125 0.463710 -0.072261 -0.266684 0.393960 -0.010440 -0.262906 -1.111947 0.320269 -0.282171 0.255646 -0.397449 0.710342 -0.177672 -0.463528 0.501224 0.619475 0.324592 0.186395 -0.354194 0.034087 -0.454443 -0.185249 0.183063 0.043680 0.203488 0.248888 -0.097997 -0.090617 0.506364 0.047815 -0.192192 0.042688 0.773859 -0.332011 -0.029959 -0.447068
fast 0.222611 0.081463 0.145740 0.734130 0.275323 0.223852 0.316899 0.241032 -0.455842 0.024437 0.383151 -0.071307 0.464098 -0.059857 -0.854980 -0.219570 -0.016972 0.969071 0.119105 0.169011 -0.143577 -0.230052 -0.463579 -0.101313 -1.060926 0.161768 0.034475 1.099561 -0.180524 0.309596 -0.037816 -0.128948 0.051952 -0.200625 0.709635 -0.229198 0.109507 0.114994 -0.359149 -0.321704 0.085586 -0.039100 -0.933276 -0.689567 0.405867 -0.111334 -0.132385 0.180515 0.117949 -0.229281
m -0.190913 0.668861 0.446319 0.159774 0.046223 -0.231342 0.046460 0.366915 0.264015 -0.338192 0.369243 0.096271 -0.179346 -0.049768 -0.125283 0.151715 0.441618 0.052744 -0.229004 -0.457134 -1.018282 0.374117 -0.544433 -0.578233 -0.048607 -0.282456 -0.663238 -0.557939 0.047033 0.373915 -0.286709 0.463198 -0.019774 -0.826350 0.198832 0.891782 0.097875 0.970187 -0.037033 -0.556451 -0.176808 -0.070630 -0.498228 0.279455 0.124510 0.068637 0.763282 0.413091 0.198621 -0.782030
any -0.503126 0.232168 -0.970749 -0.047011 -0.140060 -0.118211 0.335043 0.349584 0.436401 1.059576 -0.187337 0.358132 -0.229572 -0.247613 0.093958 -0.294485 0.576471 0.021256 -0.147729 -0.089365 0.876561 0.243903 -0.125421 -0.339913 0.546414 0.126116 -0.310264 -0.183750 0.529975 0.725812 0.952270 -0.403618 0.297764 0.815786 -0.384060 0.005813 0.842824 0.328785 0.113796 0.011846 0.046978 0.178863 0.243930 -0.738191 -0.089131 -0.011927 1.591347 0.289622 0.028767 -0.112470
because 0.415051 0.058160 -0.028698 -0.135274 0.384906 0.091394 -0.054813 0.569672 -0.122243 0.242423 0.329858 -0.047666 0.199021 -0.081413 0.177528 -0.060924 0.371710 0.208092 0.194625 0.044654 0.237642 0.045902 -0.132925 -0.239564 -0.007604 0.465190 -0.142120 0.714766 0.489136 0.185702 0.402099 0.394113 0.099802 -0.172610 0.330199 0.086543 0.186115 0.284059 0.058878 -0.174280 0.182652 -0.457340 0.121491 -0.032094 0.249796 0.021762 0.629558 0.029969 0.019978 -0.454458
much 0.278322 0.522144 -0.054589 0.124876 -0.051347 0.038168 0.222902 0.385004 -0.393943 -0.037262 0.335100 -0.045834 0.398817 0.711462 -1.000026 -0.130553 0.621666 0.106645 0.185413 -0.375957 -0.262336 0.040771 -0.562358 -0.665485 -0.207926 0.549029 -0.483935 0.023390 0.530144 0.046361 -0.428593 -0.079170 -0.033474 0.238516 0.522887 0.222273 0.412878 0.862792 -0.165495 -0.424917 -0.597558 0.120198 -0.173685 -0.191278 0.032833 0.076637 0.107872 0.824799 0.577614 -0.076691
recommend -0.519484 0.980299 0.883598 0.152569 -0.789085 0.378176 0.064551 0.519448 0.322945 0.767707 0.203312 0.321911 0.487066 -0.108394 0.935176 0.248081 0.586177 0.335022 -0.439225 -0.184161 -0.614565 0.445907 -0.886687 -1.427303 0.767996 0.094457 -0.024119 -0.046921 -0.380378 1.349185 0.227660 0.670490 0.279885 -0.104195 -0.108234 0.618628 -0.154219 1.112456 0.960118 0.740541 0.131655 0.056741 -0.555269 0.708474 0.070216 0.188474 0.702406 0.123003 -0.079208 -0.354747
little 0.473453 -0.299883 -0.148358 0.315987 -0.027307 -0.082616 -0.201415 0.782263 -0.195810 0.034672 0.278973 -0.286567 -0.153325 -0.129173 -0.300557 -0.196881 0.375002 -0.359153 0.589870 0.054440 -0.295569 0.322451 0.169925 -0.880194 0.645341 -0.212389 0.141025 0.112549 0.334418 0.398718 -0.168272 -0.171812 0.267010 0.035017 0.410026 0.299935 0.199471 0.708385 -0.235346 0.117761 0.094131 0.108256 -0.153818 0.002331 0.189077 -0.506911 0.065845 0.830844 0.441237 0.454811
other 0.153885 -0.715280 -0.841455 -0.378585 -0.018282 -0.473510 0.103316 0.072119 0.112257 0.359088 0.165948 0.105114 0.185885 0.277654 -0.340808 0.221085 0.318104 -0.622587 0.218870 -0.362607 0.440711 0.242379 0.128251 0.505244 0.617857 0.292327 -0.288193 -0.450361 0.460214 0.127333 0.161196 -0.191841 -0.092254 0.667287 -0.156036 0.452043 0.629755 0.532342 0.300268 0.134200 -0.101093 0.262252 0.377419 -0.692084 0.291079 0.141862 0.849310 0.218615 0.185276 0.249643
ever -0.608417 -0.118858 0.056285 0.050625 -0.190364 0.836076 0.152787 0.858505 0.619910 0.183665 -0.712269 -0.024831 -0.432389 -0.614932 1.244155 0.677168 0.080323 -0.025623 0.121931 0.105313 0.482214 -0.711965 -0.410623 -0.315604 0.242687 0.692516 -0.272871 -0.379692 0.067548 0.192325 -0.020418 -0.080924 0.087918 -0.346575 -0.235809 0.603148 0.149622 0.883658 0.458793 0.379160 0.386147 0.043257 -0.180249 -0.255634 -0.013028 0.623762 1.786358 -0.539428 -0.689940 -0.431956
new 0.481038 -0.539609 -0.043430 0.436956 0.566655 0.146553 -1.021762 0.667891 0.118156 0.163225 -0.358022 -0.120530 -0.297767 -0.886179 0.218871 -0.801947 -0.021522 0.225267 0.862807 -0.145626 0.442365 -0.232458 0.251180 0.342832 0.621733 -0.068239 0.701234 -0.380702 0.784147 0.199740 0.067675 0.823829 0.161702 -0.795078 0.342356 0.013883 -0.056804 0.263653 0.392994 -0.019669 0.482414 -0.654544 0.310319 -0.246731 0.244222 0.798236 0.457595 -0.045416 -0.397494 -0.287739
work 0.497764 0.109928 -0.257298 -0.093409 0.466639 -0.057167 0.169170 0.422324 -0.321640 0.161103 0.251043 -0.102850 -0.108025 0.067975 -0.571887 -0.626019 0.426993 0.329596 0.254533 -0.290140 -0.319334 0.177740 -0.329068 0.047626 -0.398841 0.453983 -0.091456 0.198188 0.599759 0.253040 -0.007864 0.213361 -0.463715 0.152182 0.132718 -0.381445 0.250660 0.056598 -0.311517 -0.358315 -0.310391 -0.346252 0.514220 0.099560 0.115481 0.024947 0.613909 0.394069 -0.116324 -0.579800
did -0.232094 0.268759 -0.035980 -0.586131 -0.001854 0.258240 0.490545 0.695390 -0.057410 0.132203 0.188648 -0.488688 -0.090766 0.330756 0.036725 0.226306 0.268706 0.197486 -0.517267 0.261147 -0.162995 -0.213558 -0.610030 -0.533953 -0.408924 1.344419 -0.883662 0.434572 0.592445 0.107737 -0.245723 -0.161874 0.032904 0.150953 -0.128919 -0.072543 -0.370879 0.157714 -0.120988 -0.646482 -0.273182 -0.173343 0.947731 0.299104 -0.060438 -0.240125 0.583057 -0.029109 0.139795 -0.185083
everything 0.195939 0.793867 0.528043 0.384121 0.274575 0.419085 -0.102685 0.568102 -0.439970 0.402648 -0.055279 -0.271912 0.073762 0.372819 -0.044068 0.046982 0.594284 0.229931 0.353115 0.002280 -0.169643 -0.157590 -0.686869 -0.498848 -0.307839 0.527814 -0.128303 0.252430 -0.025451 0.387869 -0.056641 -0.185573 -0.100530 0.005800 0.097630 -0.089389 0.187860 0.322645 -0.156166 0.199639 -0.114925 -0.004994 -0.139671 0.157374 -0.066291 0.067482 0.759779 0.122491 0.153391 -0.046870
mac 0.367666 0.049658 0.412301 0.538208 0.835628 0.011569 -0.564787 0.268222 0.181199 -0.140917 0.153774 -0.219224 -0.157602 -0.025143 0.106209 -0.583522 -0.112225 0.124048 0.457100 -0.117221 0.150725 0.266866 -0.173350 0.122285 0.244349 -0.191719 0.224771 -0.262432 0.350750 -0.243326 -0.032662 0.160098 0.090196 -0.272401 0.332736 0.188816 -0.247365 0.454112 0.387703 0.283786 0.250117 -0.598579 0.195687 0.010140 0.182063 0.788239 0.578964 -0.003706 -0.205501 -0.303702
over 0.407623 -0.765853 -0.906591 -0.053926 0.212005 0.117722 0.027473 0.148011 -0.023867 0.216649 0.201676 0.208495 0.485081 -0.540875 0.040674 0.464452 -0.039779 -0.077945 0.554060 -0.348287 -0.431887 -0.130546 0.329006 -0.015112 0.087911 0.167769 0.042401 -0.085165 0.468695 0.379391 0.463820 0.260891 -0.585117 0.191659 -0.024270 0.194415 -0.060183 0.035777 -0.150820 0.164962 0.007465 0.183179 -0.038847 0.044134 0.084445 -0.281274 0.246864 0.332783 -0.145111 0.085924
worth 0.188322 -0.130912 0.586496 0.167365 0.391566 0.227651 0.229929 0.216697 -0.111315 0.081918 0.667295 -0.086379 0.240041 0.103064 -0.766381 -0.230000 -0.140221 0.473703 0.007650 0.057050 -0.265782 0.261853 -0.418226 -0.313325 -0.476570 0.487290 -0.463159 1.121685 -0.030651 0.408488 0.173459 0.133817 -0.239914 0.220771 0.916993 -0.460953 0.128687 0.597070 0.034923 -0.352840 -0.324861 0.217926 -0.642640 -0.486411 0.224335 -0.276497 -0.081750 0.233614 0.199631 -0.146802
easy 0.444634 0.048904 -0.111693 1.112447 0.215766 0.426856 0.201981 0.458123 -0.176835 0.309650 0.545581 0.334041 0.856611 -0.250174 -1.034432 -0.234840 0.124774 0.410442 0.647268 -0.406194 -1.151081 -0.254661 -0.650402 0.080045 -1.053024 -0.689425 -0.010315 0.637079 -0.134603 0.634233 0.430864 0.247516 -0.842918 -0.467012 0.375700 -0.578180 0.252459 -0.070587 -0.357681 -0.544304 0.282294 -0.682018 -1.011964 -0.479315 0.323412 -0.238917 0.275935 0.124795 0.757495 -0.018042
pizza 0.295292 -0.535091 -0.199469 0.222363 0.497322 0.099365 -0.192006 -0.287160 0.075665 -0.100836 -0.049473 -0.231551 0.311594 -0.123327 -0.142424 -0.176436 -0.400999 0.090541 0.187519 0.287826 0.723879 -0.134076 -0.302413 0.317906 -0.093022 0.388458 -0.293246 0.117137 0.053725 -0.313010 0.358382 -0.169959 0.412096 0.094999 0.379249 0.296507 -0.073177 0.103006 0.377729 0.037777 0.418813 -0.170808 -0.208462 -0.730957 0.580397 0.672593 -0.187091 0.094263 -0.152229 0.353203
some 0.096907 -0.126697 -0.613707 0.153244 0.127766 0.066627 0.140831 0.270151 0.218756 0.349442 0.163646 0.168266 0.082617 0.031795 0.011017 -0.101839 0.365884 0.095681 0.420342 -0.310096 -0.055511 0.010594 0.031630 -0.076381 0.027947 -0.139573 0.054741 0.281942 0.519547 0.151045 0.375376 0.064170 -0.319995 0.343412 -0.125461 -0.057108 0.290041 -0.144305 -0.111971 0.061653 0.188247 -0.294202 0.251451 -0.108053 0.019058 -0.220676 0.648133 0.038300 0.077854 -0.168665
always -0.145628 -0.400621 -0.297747 0.476543 -0.192704 0.129050 0.454852 0.446256 -0.112061 -0.087007 0.285263 -0.520936 0.261268 -0.288619 0.262547 0.172259 -0.209914 0.065046 -0.144727 0.278316 -0.480309 0.092678 -0.331243 0.219639 -0.463571 0.596512 -0.320585 0.181730 -0.141657 0.024046 -0.079790 -0.520434 0.244934 -0.015361 -0.029701 0.034111 -0.002275 0.491763 -0.553649 -0.144027 0.023291 -0.115619 -0.019544 -0.485762 0.080521 -0.087824 0.813028 -0.015158 0.272103 0.205930
don -0.354722 1.197081 -0.046267 -0.205842 0.186095 -0.141264 0.568229 0.634025 -0.244408 0.474954 -0.008570 -0.539390 -0.284199 0.585351 -0.329137 -0.631903 0.712663 -0.058981 0.179704 0.321251 0.053064 0.024664 -0.580749 -0.175412 -0.148588 0.808792 -0.298581 0.108436 0.343814 0.099342 0.001088 0.075700 0.139990 0.284454 -0.550668 -0.418159 -0.213128 0.426349 -0.048178 0.441431 0.348930 -0.024321 0.864979 -0.064798 -0.262344 0.420459 1.374305 0.160845 -0.271051 -0.184097
first 0.850063 -0.901792 0.215953 0.189941 0.640915 0.221300 -0.626526 0.540593 0.097823 -0.328016 -0.029161 -0.262618 0.152414 -0.570379 0.903816 0.309395 -0.036868 0.280344 0.638239 0.055049 0.210736 -0.472092 0.344227 -0.281169 0.342350 0.388119 0.047223 0.201511 0.706554 0.154825 0.557162 0.590538 -0.266293 -0.445580 0.385385 0.243365 -0.149564 0.202367 0.556523 0.166543 0.643586 -0.576493 0.345292 0.239434 -0.230966 0.491556 0.583646 0.110424 -0.055754 -0.340869
does -0.007278 0.857575 0.371781 0.462559 0.303897 0.352882 0.282958 0.820996 -0.255490 0.620793 0.100383 -0.494047 -0.188672 0.226194 -0.216630 -0.516893 0.421972 0.629132 0.268101 0.221004 0.052924 0.220174 -1.005785 -0.691491 -0.167384 0.787085 -0.246414 0.395044 0.307883 0.462516 0.147621 -0.283259 0.287652 0.249001 0.151020 -0.252116 0.139780 0.639408 0.044428 0.211260 0.023242 -0.065328 -0.057833 -0.035261 0.134368 0.174461 0.995072 0.254179 0.116093 -0.180354
got 0.528196 -0.509003 0.075428 0.020741 0.100833 0.370460 -0.324755 0.732377 -0.152150 -0.143943 0.041361 -0.297252 0.096411 -0.393026 0.854323 0.607314 -0.017925 0.325728 0.185992 0.149613 -0.296291 -0.500405 0.157004 -0.557076 0.160284 0.535927 -0.035253 0.307435 0.431246 0.357634 0.009338 0.308829 0.078623 -0.327826 0.168561 0.314418 -0.215293 0.420041 -0.146795 -0.178905 0.218367 -0.296668 0.357803 0.437095 -0.082679 -0.369745 0.281914 0.087602 0.144979 -0.097084
life 0.390470 -0.306046 -0.006088 0.600953 0.984681 0.010040 0.132490 0.046341 -0.844413 -0.422127 0.244213 -0.575667 0.450832 0.338785 -0.231930 -0.670633 -0.068756 0.500869 1.293203 0.000779 0.256300 -0.177746 -0.002203 -0.278746 -0.220236 -0.194197 0.421716 0.192770 0.341109 -0.080402 0.219255 0.038895 -0.232463 0.830633 0.582114 -0.570900 -0.019910 0.717955 -0.421090 0.151397 0.223961 0.081275 -0.430819 -0.231861 -0.169567 0.350664 -0.315311 0.378334 0.514896 0.258811
excellent 0.182001 -0.452017 -0.425247 0.510114 0.599538 0.328775 0.189387 -0.124258 -0.258463 0.010210 0.417019 -0.283216 0.694089 0.143821 -0.033453 0.139148 -0.398806 0.539880 0.004410 0.112572 0.185298 -0.319429 -0.349030 -0.135197 -0.460569 0.390405 -0.236726 0.512536 0.304968 -0.118223 0.191635 -0.185213 0.537111 0.452210 0.438534 -0.099579 -0.555807 0.413776 -0.299907 0.120115 0.424265 -0.261131 -0.498977 -0.504678 0.306167 -0.119412 -0.413983 -0.381762 0.298470 0.533114
thing -0.166704 0.185419 0.361956 -0.470507 0.758662 0.397860 -0.210539 0.386684 -0.154007 0.387878 0.036322 -0.344549 0.118299 0.516858 0.703557 -0.089972 0.066909 0.220772 0.531557 0.071927 0.585741 0.344836 -0.117353 -0.012672 0.526830 0.401934 -0.290793 0.482177 0.111096 0.068768 0.462660 -0.063426 0.323813 -0.150373 -0.153134 0.252231 0.394656 0.642711 0.858338 0.729875 0.482817 -0.162792 -0.031203 -0.350463 0.713217 0.755530 1.189533 -0.682230 -0.205788 -0.262938
better -0.253448 -0.021775 -0.485243 0.000854 -0.178198 -0.077055 0.377554 0.247924 0.133683 0.375837 0.002909 0.044545 -0.367360 0.395859 -0.303705 -0.109194 0.250756 -0.221308 0.163730 -0.139133 0.146339 0.304077 -0.128833 -0.596497 0.495134 0.297645 -0.300424 -0.132895 0.626088 0.310866 -0.341550 -0.444920 0.296585 0.806072 0.182642 0.449856 0.167540 0.857896 0.226181 0.126504 -0.265775 0.363624 0.142221 -0.295509 0.081650 -0.178186 0.521233 0.454519 0.280715 0.364558
still -0.069477 -0.026955 -0.012496 0.070782 0.041526 0.459646 0.220981 0.640853 0.154617 0.165885 -0.090591 0.022248 0.104761 -0.382380 0.281000 0.403463 0.275603 0.176454 0.223927 -0.163511 -0.197379 -0.415722 -0.411324 -0.415394 -0.014672 0.232970 -0.375588 0.279634 0.136771 0.402800 -0.060321 0.027220 -0.126290 -0.386224 0.207666 0.318920 0.313258 0.352567 -0.138332 -0.578960 -0.095291 -0.040247 -0.334493 -0.184272 0.119050 -0.216221 0.727673 0.182130 -0.075596 -0.399818
went 0.717088 -0.822933 -0.269422 0.448176 0.306368 -0.185643 -0.059797 0.420647 0.081287 -0.508565 0.022302 -0.604152 -0.262891 -0.235080 0.962618 0.223270 -0.158068 0.203252 0.113786 -0.116730 -1.003372 0.038917 0.203986 0.291562 0.022657 0.183752 -0.042157 -0.501671 0.302894 0.238185 0.109358 0.147124 -0.219431 -0.173835 -0.266272 0.009243 0.345974 -0.110312 -0.123561 0.019403 0.043486 -0.048522 0.406270 0.546465 -0.244405 -0.273344 0.166244 -0.205417 0.068660 -0.252657
could -0.434427 0.430738 0.058471 -0.188910 -0.017355 0.274027 0.372866 0.800950 0.240022 0.124258 -0.069286 -0.162349 -0.524690 0.246099 0.167190 0.139650 0.402510 0.003223 0.110920 -0.159627 -0.446152 -0.170039 -0.492399 -0.601394 0.036033 0.518545 -0.320904 -0.160681 0.488224 0.235718 -0.441434 -0.084471 -0.236217 0.170816 -0.141815 0.119638 -0.008452 0.477782 0.108643 -0.051324 -0.342418 -0.051570 0.431456 0.357777 -0.165550 -0.152785 1.093707 -0.218702 0.086510 -0.321194
make -0.292647 0.789880 0.279149 -0.193343 -0.226639 0.201053 0.354986 0.824028 -0.090353 0.687078 0.559554 -0.140548 -0.146470 0.257665 -0.540306 -0.445103 0.290094 0.222717 -0.029665 -0.176989 -0.522614 0.153732 -0.116945 -0.116372 -0.268305 0.273806 -0.012895 0.322897 0.176601 0.424830 -0.045151 0.132552 -0.327761 0.312392 -0.038384 -0.836957 -0.458446 0.632449 -0.248604 0.096330 -0.062307 0.040515 0.556334 0.168108 -0.230487 -0.336961 0.980915 0.024504 -0.044991 -0.193424
quality 0.128713 -0.452986 -0.430421 0.776184 0.484768 0.081231 0.038941 -0.553811 -0.113047 -0.127109 0.051523 0.000378 0.461282 0.099106 -0.443018 -0.433348 -0.475674 0.311995 0.071940 0.020381 0.422566 0.289054 -0.263499 -0.147529 -0.208401 -0.217319 -0.085128 0.404110 0.421821 -0.086810 0.339705 -0.285679 0.620051 0.318414 0.603101 0.250683 -0.334860 0.019585 0.115747 -0.085901 0.570600 -0.421982 -0.413540 -0.551538 0.469186 0.475559 -0.622240 0.274711 0.079265 0.757661
macbook 0.649444 -0.292250 0.168996 0.700756 1.250833 0.269723 -0.999165 0.231949 0.122837 -0.344036 -0.677955 -0.085472 0.090834 -0.558235 0.646150 -0.311598 -0.375956 0.365070 0.704668 -0.077750 0.662440 -0.384106 -0.263821 0.240179 0.358822 0.069216 0.386607 -0.724398 0.402923 0.247960 0.320101 0.313674 0.049655 -0.449430 0.488783 0.351302 0.225737 0.392535 0.412347 0.448665 0.086067 -0.370180 -0.382733 -0.232965 0.220214 1.092169 0.421549 -0.260840 -0.720565 -0.519899
product -0.027453 0.034783 0.096135 0.548713 0.226464 0.080781 -0.102395 0.149795 0.001792 0.258445 0.268284 -0.030610 0.493699 -0.280541 0.034471 -0.420415 0.083470 0.360804 -0.048409 0.165882 0.024419 0.514520 -0.615781 -0.615283 0.186409 0.006947 0.009028 0.142639 0.061891 0.558427 0.648248 0.151162 0.537374 0.218478 0.376638 0.247899 -0.123191 0.467802 0.418955 0.418279 0.487506 -0.256694 -0.416489 -0.138081 0.220120 0.499149 0.328011 0.243876 0.008131 0.281150
then 0.430976 -0.226698 -0.011094 -0.209761 0.154839 0.016081 -0.306756 0.470403 -0.151547 0.193337 0.339066 -0.070680 0.156594 0.076052 0.207341 0.170520 0.177565 0.154002 0.172693 -0.198666 -0.242878 -0.027648 0.292079 0.053033 0.136756 0.400232 0.200489 0.073828 0.438690 0.286729 -0.099410 0.328128 -0.164513 0.032707 0.284148 -0.002024 -0.069580 0.418423 -0.030326 0.060011 -0.039746 -0.165481 0.415729 0.137113 0.119032 -0.189342 0.367317 -0.089217 -0.074890 -0.264567
keyboard 0.225026 -0.250054 -0.054588 0.669458 0.598225 0.207616 0.022861 -0.166687 0.009855 -0.068824 0.151655 -0.318946 0.134867 0.168131 -0.078142 -0.500107 -0.439568 0.334729 0.334383 0.007662 0.018282 0.199663 -0.271049 0.124963 -0.213921 -0.217762 -0.176198 0.338852 0.107452 -0.048793 0.051932 -0.285288 0.163717 0.102812 0.421943 -0.107037 -0.109840 0.243172 -0.034013 -0.042585 0.262287 -0.278000 -0.238172 -0.212803 0.352420 0.379521 -0.093962 0.044465 -0.014626 0.309115
way 0.196092 -0.378626 -0.357811 -0.274231 0.304727 0.029663 -0.180195 0.405424 0.052058 0.541414 0.607204 -0.073304 0.079442 0.312292 -0.235850 0.110980 0.296714 -0.144983 0.286276 -0.300789 0.004175 0.113578 0.066842 0.183569 0.655299 0.219384 -0.127251 0.429775 0.340833 -0.221283 -0.044933 0.036415 -0.040930 0.193188 0.129276 0.161607 0.673329 0.550098 0.069606 -0.057983 -0.266710 -0.229094 -0.002036 -0.534129 0.649675 -0.414512 0.469559 -0.212146 0.339913 0.152773
amazing 0.334179 -0.309541 -0.104021 0.544163 0.597218 0.161023 -0.038288 -0.139303 -0.174663 0.007355 0.359603 -0.127676 0.570042 0.121391 -0.041070 -0.010702 -0.176815 0.457424 0.030347 -0.004834 0.169306 -0.018596 -0.320278 0.011639 -0.367704 0.232096 -0.059665 0.365297 0.172203 0.110281 0.250111 -0.101248 0.350312 0.181158 0.496417 -0.006942 -0.178154 0.526896 -0.114044 0.222359 0.266340 -0.282782 -0.691972 -0.613830 0.358712 0.208293 -0.125778 -0.182302 0.156019 0.129566
apple 0.048560 0.110953 0.119490 0.242736 0.379388 0.140362 -0.082646 0.445204 0.081156 0.199133 -0.114646 -0.093737 0.030106 -0.255992 0.037217 -0.295063 0.057137 -0.096104 0.331058 0.159858 0.312375 -0.079713 -0.377898 -0.160485 0.315055 0.137243 0.060620 -0.058284 0.039110 -0.163454 0.188163 0.033423 -0.007913 0.264645 0.002044 -0.079593 0.124922 0.210808 0.319050 0.265322 0.101258 -0.338452 0.099443 -0.219663 -0.027750 0.407869 0.670715 0.063346 -0.095652 -0.033747
want -0.095493 0.562571 0.114750 -0.060046 -0.308744 -0.030319 0.181984 1.047497 -0.021142 0.592808 0.624601 -0.378387 -0.356436 0.127604 -0.394931 -0.362143 0.541012 -0.210248 0.112063 -0.009511 -0.850593 0.350737 -0.290588 -0.154461 0.095184 0.461638 0.218447 0.164438 0.225156 0.348299 0.026198 0.229022 -0.253718 0.087817 -0.282880 -0.474264 -0.415924 0.753018 0.059355 0.287604 0.151007 -0.375363 0.852654 0.056488 0.004064 -0.215992 1.263570 -0.044111 0.265292 -0.206093
delicious 0.241304 -0.627168 -0.380802 0.198261 0.380186 -0.013873 0.044226 -0.205454 -0.054413 -0.239419 0.322790 -0.448709 0.367079 0.112910 -0.142852 -0.052547 -0.231917 0.069537 -0.038860 0.158833 0.089187 -0.020341 -0.215048 0.459769 -0.560556 0.412305 -0.288557 0.384754 0.202685 -0.234949 -0.091329 -0.333199 0.412561 -0.068566 0.441695 0.251140 -0.285926 0.078063 -0.220588 -0.197303 0.240082 -0.375556 -0.179849 -0.630637 0.594978 0.207109 -0.160611 -0.149155 0.146046 0.271659
sushi 0.002496 -0.601649 -0.168407 0.086531 0.230162 0.200126 -0.120511 -0.001427 0.221643 0.054500 0.066725 -0.372826 0.013128 -0.309530 0.208971 -0.284158 -0.450798 0.186200 0.209922 0.096488 0.473723 0.105870 -0.294288 0.071529 0.263379 0.311621 -0.045696 0.131450 0.396915 -0.161607 0.348510 0.087784 0.462558 -0.146393 0.224363 0.266579 -0.276163 0.371524 0.584840 0.253116 0.541570 -0.342405 0.213365 -0.441634 0.404233 0.743880 0.189188 -0.432515 -0.162120 0.242892
buy -0.129760 0.554131 0.344689 0.418161 -0.324727 0.039433 0.000301 0.890332 0.245840 0.790287 0.159683 -0.274043 -0.546447 -0.229223 0.354315 -0.509886 0.409186 0.426510 0.095395 -0.010229 -0.202938 0.337896 0.024075 -0.363264 0.427864 0.055266 0.702063 0.008212 0.357311 0.657016 -0.152784 0.035976 0.310852 0.141425 -0.248470 -0.266848 -0.265661 0.591889 0.528888 0.691751 0.330087 -0.263118 0.516148 -0.082209 -0.266501 -0.153907 1.301549 -0.271505 -0.120970 -0.667854
who 0.370205 -0.010457 -0.203862 -0.108877 0.178559 -0.001229 -0.115777 0.331730 -0.062621 0.240095 0.264198 -0.182143 0.120880 -0.223049 -0.067271 -0.221014 0.410811 -0.576004 0.119199 0.218825 -0.607178 0.320137 -0.216967 -0.118160 0.086993 0.339339 0.203817 -0.301959 0.096333 0.538405 0.456132 0.133662 -0.390503 0.116116 -0.281368 -0.457447 0.008429 0.369929 -0.013025 0.232914 0.083133 -0.088201 0.512141 0.081292 0.089114 -0.132590 0.443886 0.123595 0.025932 0.096320
again -0.216276 0.058090 0.462827 0.458815 -0.473416 0.318937 0.416596 0.934235 0.513645 0.283046 -0.045785 -0.361442 -0.394486 -0.380190 0.854238 0.262135 -0.071369 0.496703 -0.071003 -0.212306 -0.844759 -0.068650 -0.152037 -0.343872 0.193995 0.289316 0.215894 -0.247870 -0.027491 0.634625 -0.398101 0.177912 -0.131292 -0.091527 -0.273798 -0.038417 0.073909 0.128504 0.649620 0.302683 -0.156876 -0.039328 0.267956 0.235528 -0.419045 -0.396735 0.650531 -0.505702 -0.229074 -0.709257
since 0.170397 -0.258034 0.021892 0.003109 0.077670 0.209786 0.049608 0.622572 0.070178 -0.171657 -0.172198 -0.030107 0.244070 -0.224216 0.750775 0.593592 0.293294 -0.119950 0.126484 0.063288 0.223228 -0.471248 -0.073754 -0.018447 -0.039829 0.538834 -0.287584 0.024620 0.108476 0.120400 0.078302 0.250559 -0.030692 -0.223066 0.133439 0.544695 0.206084 0.518123 -0.360744 -0.091240 0.111181 0.045077 -0.156469 -0.133845 -0.004031 0.106985 1.152620 0.109455 -0.364579 -0.444524
though 0.336920 0.248606 0.029332 -0.346598 0.540921 -0.033565 0.094508 0.285625 -0.247340 0.008734 0.211921 -0.196042 -0.101020 0.528087 -0.277004 -0.200917 0.285908 0.086960 -0.042752 0.311617 0.208212 -0.059355 -0.286692 -0.297351 -0.232387 0.671233 -0.412000 0.381919 0.464597 -0.083260 -0.082851 -0.069117 0.258631 0.037671 0.270997 0.254783 0.100358 0.329706 -0.228533 -0.466029 0.029744 -0.099277 0.383232 0.113261 0.158690 -0.081252 0.291095 0.325883 0.041354 0.056010
us 0.187547 -0.574043 -0.641951 -0.557942 -0.206815 0.129479 0.015742 0.383612 0.038831 0.101765 0.321788 -0.031695 0.173789 -0.083270 0.316937 0.600196 0.121165 -0.012861 -0.280365 -0.161975 -0.353501 -0.368431 0.354527 -0.011190 -0.148257 0.512783 -0.284457 0.229846 0.554941 -0.036384 0.003431 0.217474 -0.313739 0.067620 -0.142847 0.071020 -0.199095 -0.297702 -0.433435 -0.619463 -0.209696 -0.176202 0.858379 0.417161 -0.207372 -0.736753 0.020756 -0.206729 0.303151 -0.170098
made 0.011933 -0.355148 -0.314920 -0.022289 0.120323 0.292718 -0.099693 0.486118 -0.019357 -0.086970 0.005196 -0.108786 0.095275 -0.266435 0.357339 0.197812 0.140868 -0.016297 -0.042318 0.010541 -0.041684 -0.162986 0.041626 -0.042629 -0.176448 0.597688 -0.270264 0.002945 0.368566 0.209158 0.074837 -0.075547 0.065044 -0.129852 0.145243 0.266729 0.071289 0.502072 -0.271725 -0.220482 -0.034309 -0.046138 -0.062578 -0.194223 0.293670 0.007167 0.648050 -0.045414 -0.167625 -0.130092
now 0.325958 -0.267966 -0.246630 0.354268 0.196268 0.203801 -0.231658 0.400071 -0.071096 0.065412 -0.104698 0.182704 0.384405 -0.314043 0.613872 0.489215 0.084177 0.028934 0.407292 -0.335459 -0.286136 -0.159247 0.179322 0.034348 -0.082261 0.153683 -0.013329 -0.385116 0.166578 0.499113 -0.042249 0.142449 -0.317358 -0.140079 0.241474 0.559006 0.053373 0.761629 -0.248561 0.199862 0.015333 0.099256 -0.286290 0.044040 0.091419 0.179380 0.777816 0.385077 -0.285229 -0.241101
try -0.022028 0.337095 0.156282 0.055425 -0.069369 0.227841 0.098088 0.583407 0.137580 0.551923 0.303092 -0.330223 -0.233502 0.293733 -0.278757 -0.301194 0.068125 0.063841 0.201764 0.006771 -0.280789 0.094973 -0.115860 0.079961 0.133375 0.116433 0.179817 0.189721 0.202359 0.109008 0.002872 -0.077938 -0.181052 0.188401 -0.211507 -0.593007 -0.191990 0.331257 0.190509 0.257665 0.204035 -0.257559 0.660493 0.059021 -0.041423 -0.049060 0.609286 -0.301905 0.179018 0.224880
drive -0.050554 0.090389 -0.599895 0.394072 0.284940 0.230178 0.417481 0.055708 0.106138 0.424402 -0.104522 -0.166363 -0.126434 -0.374455 0.698405 0.464734 -0.193443 0.300620 0.227472 0.141838 0.291635 -0.666759 0.181754 -0.313042 0.594338 -0.396132 0.049233 0.579926 -0.310816 -0.321817 -0.154128 -0.752832 0.209481 0.175902 -0.115663 -0.437196 0.527786 -0.139184 -0.787177 0.163737 -0.185055 0.364530 -0.919779 0.015752 -0.003619 -1.194807 -0.277587 0.121069 0.264871 0.375538
most 0.099834 -0.391208 -0.430826 -0.248895 0.102472 0.116218 0.101325 0.010940 0.264188 0.212370 0.228440 -0.038994 0.020740 0.023327 0.080158 0.079620 -0.040835 -0.233800 0.263319 -0.231868 0.197683 -0.018972 0.068259 0.080856 0.350756 0.080663 -0.114375 0.376968 0.378363 -0.313787 -0.028011 0.036380 0.128129 0.103598 0.053927 0.232431 -0.088621 0.329012 0.122164 -0.064706 0.069753 -0.295940 0.338653 -0.207220 0.314828 0.008084 0.337929 -0.010042 -0.038724 -0.107304
times 0.269856 -0.880371 -0.851250 0.174283 -0.438524 -0.136750 0.444700 0.122921 0.244593 -0.054320 -0.187262 0.006944 0.427993 -0.475112 0.639568 0.595597 0.058006 -0.419501 0.384667 -0.260046 -0.117203 -0.217620 0.167657 0.516850 -0.015847 0.223302 -0.250387 -0.390976 0.148906 0.221013 0.145097 -0.139280 -0.265580 0.045596 -0.188165 0.620490 0.466391 0.387885 -0.473548 0.023082 -0.071853 0.450415 -0.110396 -0.440962 -0.063871 -0.159471 1.195168 0.535951 -0.091651 -0.269839
money 0.495597 -0.017970 -0.078142 0.040768 0.326887 -0.179576 -0.002183 0.239273 -0.172341 0.164284 0.354602 -0.266607 -0.026434 0.276303 -0.570218 -0.629691 0.189014 0.246824 0.409289 -0.327693 -0.435817 0.162098 0.299432 0.157763 -0.060777 0.083413 0.302274 0.244187 0.325049 0.181406 0.063084 0.315302 -0.620311 0.651362 0.154353 -0.993778 -0.187373 0.167014 0.137191 0.420871 -0.153775 0.103638 0.398118 0.163281 -0.222228 -0.122714 -0.092004 0.278118 -0.238229 -0.205564
staff -0.011759 -0.047294 -0.090623 0.323888 0.172499 0.104149 0.340375 0.023372 0.238103 0.106969 0.471135 -0.273860 0.292267 0.401168 -0.342087 -0.266446 -0.299564 0.027598 -0.201538 0.081579 -0.252576 0.286104 -0.380497 0.008760 -0.399387 0.293286 -0.561103 0.359468 0.119632 -0.231652 -0.064025 -0.223303 0.208289 0.295397 0.122870 -0.297010 -0.469305 0.191939 -0.060185 -0.280662 0.011550 -0.230992 0.371736 -0.248357 0.106624 0.035446 -0.044929 -0.284162 0.265989 0.454743
bad 0.044279 -0.196165 0.106522 0.299806 0.210802 0.240586 0.011138 0.166498 -0.068926 -0.050232 0.079966 -0.304147 0.137467 0.129208 0.562109 0.101062 0.031107 0.356119 -0.333190 0.183615 0.097627 0.201465 -0.152153 -0.412718 -0.135350 0.705558 -0.492029 0.192009 0.259980 0.291751 0.048394 -0.348306 0.707733 -0.039873 0.261076 0.543095 -0.202691 0.440370 0.234472 0.060022 0.263951 -0.048213 -0.125170 -0.086999 0.365481 -0.007371 0.313568 0.039962 0.033310 -0.055925
bought 0.322330 0.096748 0.240718 0.315322 0.289411 0.347284 -0.397127 0.541792 0.139641 0.149030 -0.311949 0.134440 0.077777 -0.413976 0.733593 0.348632 0.417639 0.265085 0.293331 -0.102057 0.247524 -0.295890 -0.167644 -0.494194 0.199638 0.395692 0.060656 -0.218212 0.331213 0.655099 0.293201 0.623807 0.080736 -0.469091 0.197094 0.634635 0.101515 0.735515 0.322098 0.319714 0.433054 -0.167265 -0.301821 -0.008177 -0.033284 0.524948 1.032903 0.158545 -0.366531 -0.549043
need 0.099865 0.693225 0.165811 0.087273 0.178916 0.042654 0.073684 0.709080 -0.208529 0.409756 0.179180 -0.253930 -0.336911 0.233305 -0.376052 -0.152329 0.478711 0.095603 0.366741 -0.076696 -0.543207 -0.037872 -0.359242 -0.340354 -0.163206 0.505838 0.033678 0.035117 0.290351 0.485883 0.008441 0.204639 -0.265015 0.096988 -0.007117 -0.122869 -0.102240 0.541761 0.034099 0.279643 0.024388 -0.062823 0.334863 0.201231 -0.011730 -0.129094 0.843774 0.088860 0.093396 -0.242858
looking 0.088530 0.000268 0.211026 0.011765 -0.438285 -0.249784 -0.273398 0.242190 -0.026428 -0.008882 0.874264 -0.206231 0.142040 -0.332872 -0.666160 -0.114789 0.219588 -0.277348 -0.452344 -0.022460 -1.193796 0.825593 0.055697 -0.040996 -0.275348 0.188692 0.128569 -0.277800 0.189407 0.775210 0.051271 0.464883 0.008392 -0.497260 0.075459 0.110820 -1.024626 1.026497 -0.117154 0.041489 -0.004511 -0.357766 0.432749 0.023952 0.125456 -0.103471 0.373189 0.309456 0.401792 0.081982
say -0.617523 0.862888 0.121146 -0.423108 0.146299 0.065438 0.586816 0.500036 -0.108396 0.350793 0.313879 -0.256702 0.084133 0.577528 -0.286776 0.017406 0.593283 -0.062587 0.291118 -0.034365 -0.350490 0.092573 -0.917829 -0.377377 -0.020921 0.686250 -0.586853 0.322457 0.233184 0.077890 0.092341 -0.034414 -0.122937 0.005429 -0.317360 0.319197 0.181803 0.499292 0.261038 0.189422 0.040608 0.041985 0.018143 -0.064502 0.373091 0.354328 1.230863 0.030394 0.194473 -0.286227
long 0.340676 -0.710594 0.214254 0.292171 0.570255 0.064540 0.125359 0.361919 -0.609555 -0.570697 0.225185 -0.633723 0.066737 -0.012971 -0.146169 -0.447425 -0.023296 0.558718 1.272545 -0.009645 -0.316511 -0.316456 0.096659 -0.231556 -0.309575 0.105800 -0.047570 0.180519 0.338368 0.002527 0.148920 0.223602 -0.566307 0.275949 0.402435 -0.495864 0.013781 0.621925 -0.362690 -0.540565 0.340084 0.331176 -0.118366 0.095107 -0.492644 0.417459 0.127665 0.681472 0.469432 0.166821
menu 0.457862 -0.304410 -0.307183 0.156036 0.341773 -0.080323 -0.030303 -0.202727 -0.199818 -0.061680 0.233621 -0.496135 0.105448 -0.015288 0.119508 -0.092921 -0.350381 0.099834 -0.009623 -0.005205 -0.035420 0.136115 -0.121538 0.271359 -0.061393 0.155181 -0.081401 0.047879 0.099753 -0.091522 0.153122 -0.061180 0.163546 0.315478 0.010829 -0.225260 -0.072218 0.273414 -0.192146 0.283449 0.089958 -0.077079 -0.035402 -0.012583 0.097169 0.060265 -0.081231 -0.152107 -0.026500 0.178648
toshiba -0.001214 0.155537 0.259460 0.224695 0.373093 0.027685 -0.276391 0.191116 0.094299 0.044498 -0.120635 -0.065526 -0.093925 -0.071004 0.305868 -0.343248 0.210853 0.204740 0.084510 -0.043917 0.126233 0.254022 -0.174606 -0.108752 0.219202 -0.080144 0.201947 -0.175861 0.108021 0.140450 0.071410 0.064790 0.201405 -0.108844 0.065789 0.147693 0.229996 0.166010 0.332153 0.282567 0.040589 -0.268847 -0.122054 -0.044812 0.103404 0.453380 0.475979 -0.102982 -0.173999 -0.399700
wait -0.179455 0.165158 -0.229932 0.141852 0.246021 0.423146 0.546809 0.408119 0.171883 0.315137 0.118365 -0.431716 0.128025 0.359044 -0.229893 -0.105615 -0.162423 0.177565 -0.188989 0.148535 -0.596362 0.081003 -0.569528 -0.420641 -0.348520 0.820413 -0.672873 0.004144 0.390003 0.453419 0.081068 -0.277904 -0.169524 0.585150 -0.213484 -0.673260 -0.416131 0.232465 0.165745 -0.111137 -0.199960 0.085707 0.717354 0.134064 -0.262544 -0.166978 0.152565 -0.189954 0.174769 0.609988
enough -0.024177 0.240899 -0.289564 0.178344 0.225399 0.119153 0.479960 0.089204 -0.554489 0.146710 0.386646 -0.173195 0.378917 0.042983 -0.864711 -0.382855 0.324759 0.262843 0.207215 0.108765 -0.446057 0.275107 -0.344519 -0.444034 -0.588788 0.554940 -0.232806 0.546238 0.438982 0.709611 0.303703 -0.197981 -0.133231 0.210798 0.214819 -0.285915 -0.101811 0.382865 -0.237924 -0.066410 -0.246057 0.035673 -0.420919 -0.379376 0.380114 -0.263483 0.124075 0.548789 0.310608 0.085894
every 0.331042 -0.824036 0.203036 0.395773 0.014103 0.073236 -0.065560 0.409492 0.059251 -0.283197 0.152542 -0.235674 -0.016541 -0.476938 0.443160 0.024324 0.080821 0.416188 0.541786 0.021093 -0.222674 -0.068802 0.364366 -0.093346 0.083694 0.110405 0.058566 0.311668 0.202589 0.384912 0.433604 0.183893 -0.386917 0.072762 0.271343 -0.133313 0.293648 0.362401 0.108079 0.002363 0.351072 0.090336 -0.151063 -0.009637 -0.303856 -0.084683 0.453797 0.339289 0.137384 -0.317268
far 0.463731 0.072393 0.123894 0.472494 0.090747 0.140727 -0.178926 0.510766 0.054912 -0.059904 -0.029653 0.057744 0.090794 -0.107614 0.255571 0.349273 0.104401 0.200957 0.128800 -0.037702 0.016822 0.145074 -0.476516 -0.432595 0.177448 0.271657 -0.163659 -0.138925 0.261580 -0.411130 -0.297382 0.196693 0.407011 -0.389320 0.450779 0.689873 0.581525 0.872476 0.073059 -0.441614 0.016329 -0.667611 -0.200944 0.000265 0.173904 0.409889 0.502401 0.022965 0.289962 -0.222210
take 0.316831 0.229577 -0.068406 -0.142085 0.169293 0.080093 0.127748 0.828994 -0.215682 0.188175 0.122573 -0.288872 -0.276328 0.039189 -0.088333 -0.302590 0.569648 0.061525 0.636142 -0.247786 -0.435240 -0.067010 -0.039719 -0.215662 0.070155 0.162052 0.302571 0.172584 0.463489 0.211549 0.192232 0.287074 -0.542512 0.094986 -0.125709 -0.381945 0.375199 0.023814 -0.126338 0.174050 -0.033824 -0.192325 0.283710 0.345427 -0.076920 -0.305528 0.630345 0.015516 0.095163 -0.465907
light 0.400477 0.060697 -0.053864 0.835959 0.469223 0.017360 0.146663 -0.000174 -0.216596 0.054165 0.330958 -0.064032 0.392398 0.076671 -0.598172 -0.455254 0.021105 0.517122 0.351565 -0.168430 -0.334743 0.077814 -0.343915 0.214714 -0.837318 -0.287477 -0.013628 0.524630 0.033709 0.289376 -0.067777 -0.168125 -0.208322 0.058847 0.474713 -0.206828 0.239632 -0.055344 -0.456127 -0.366006 -0.068123 -0.195763 -0.673108 -0.486340 0.291314 -0.006356 0.119269 0.320898 0.348974 -0.085257
perfect 0.733603 -0.395496 0.286456 0.574551 0.574452 0.281495 -0.547592 -0.056336 -0.391409 -0.117456 0.127605 -0.036217 0.453518 -0.315947 -0.029513 -0.263374 -0.284093 0.272191 0.210265 0.103713 0.024957 0.163516 0.088404 -0.012196 -0.198444 0.141208 0.312581 0.217661 0.136107 0.486605 0.431064 0.197149 0.011201 -0.022895 0.639782 -0.162352 -0.161056 0.459139 0.040369 0.322151 0.099984 -0.244087 -0.556291 -0.056919 0.279461 0.402088 -0.193070 0.237971 -0.113406 0.135135
pro 0.647593 -0.346613 0.346327 0.817964 1.189670 0.233469 -1.083535 -0.053374 0.028023 -0.508073 -0.771800 0.086679 0.169565 -0.569074 0.679640 -0.245288 -0.555272 0.432078 0.547083 -0.034569 0.718585 -0.263380 -0.241137 0.218084 0.267092 -0.159711 0.365382 -0.706591 0.124702 0.125806 0.315703 0.195872 0.046053 -0.546641 0.559582 0.376258 0.260855 0.168087 0.332685 0.354752 0.018960 -0.393698 -0.787703 -0.203259 0.234450 1.071234 0.075103 -0.288407 -0.634674 -0.365323
small 0.343643 -0.258731 -0.204386 0.302601 0.194992 0.076387 0.028753 -0.158963 -0.159598 0.018643 0.236547 -0.046222 0.154024 -0.002572 -0.280995 -0.347455 -0.123780 0.053546 0.238094 -0.049826 -0.027126 0.379840 0.097184 -0.236104 0.051912 0.013206 -0.006894 0.497864 0.337890 0.114040 -0.100014 -0.195922 0.150483 0.166624 0.452757 0.074463 -0.171729 0.493198 -0.116147 -0.102943 -0.198479 -0.028269 -0.344195 -0.222789 0.374134 -0.222470 -0.331454 0.507599 0.098843 0.228010
windows -0.193939 0.388498 0.142436 0.281473 0.227426 0.235711 0.251275 0.095141 0.170710 -0.052457 -0.050193 -0.145492 -0.104370 -0.012004 0.067847 -0.228428 -0.119161 -0.065287 0.164492 0.049035 -0.189208 0.143377 -0.282140 -0.456230 0.129794 -0.261140 -0.090874 -0.052383 -0.030789 0.175780 0.019135 -0.258505 -0.005553 -0.292118 -0.020774 0.071002 0.106922 0.160730 0.162838 0.078765 -0.025095 -0.122208 -0.371060 0.163892 0.206826 0.076496 0.077829 0.106961 0.024813 0.146020
another 0.121010 0.083996 0.059046 0.150621 -0.078572 0.006479 -0.339114 0.502666 0.164900 0.541442 0.006845 -0.040711 -0.278413 -0.263461 0.430711 -0.344528 0.252189 0.150821 0.295906 -0.155095 -0.087240 0.314794 0.404677 -0.047431 0.695926 -0.301576 0.874972 -0.131082 0.350185 0.439529 0.046840 0.115660 0.024052 -0.089133 -0.277132 -0.084403 0.150282 0.353708 0.582041 0.623699 0.243383 -0.456463 0.368189 -0.073686 0.045271 -0.003256 0.884164 -0.235871 -0.034622 -0.388901
how -0.080560 0.848469 0.051361 -0.320796 -0.081859 -0.277785 0.565076 0.350391 -0.078751 0.275574 0.358384 0.061378 -0.030553 0.579156 -0.698525 0.000652 0.656145 -0.052900 0.175568 -0.227663 -0.353236 -0.103564 -0.555865 0.067571 -0.225479 0.167959 -0.221840 0.237664 0.142199 -0.110973 0.151056 0.394805 -0.383052 -0.000756 -0.404137 -0.053523 0.402191 0.029290 -0.153516 -0.016535 0.239133 0.029934 0.247522 -0.015704 -0.156484 0.053209 0.950043 0.044925 0.383460 -0.383758
many 0.067424 -0.479779 -0.791610 0.016039 -0.440539 -0.438988 0.415062 -0.004382 0.020041 0.050682 0.356767 0.174066 0.713925 -0.061239 -0.337282 0.345047 0.241257 -0.388288 0.001854 -0.349231 -0.128741 0.220106 -0.211139 0.779806 -0.201086 0.187437 -0.252243 -0.329551 0.134250 -0.250966 0.156295 0.059175 -0.076269 0.097325 -0.152019 0.621014 0.509531 0.571364 -0.464172 -0.182097 0.093218 -0.026994 0.041294 -0.786333 0.197168 0.324046 1.020958 0.362063 0.323974 -0.025161
people 0.153211 -0.206619 -0.324967 -0.565449 0.093155 -0.269202 0.089973 0.070316 -0.120903 0.275862 0.637351 -0.219549 0.204102 0.280554 -0.396455 -0.044230 0.179206 -0.614246 -0.052454 -0.053215 -0.345279 0.499102 0.105540 0.301198 0.064357 0.441924 -0.166546 -0.119827 0.256833 -0.101487 0.123673 0.079537 -0.173560 0.338545 -0.300806 -0.088159 -0.159215 0.531130 -0.236752 0.027693 -0.043305 -0.063115 0.771607 -0.088933 0.139486 -0.028209 0.489622 0.118585 0.238199 0.301506
highly -0.652378 0.975271 0.828308 -0.135044 -0.731985 0.371288 0.190505 0.452299 0.239434 0.602972 -0.117777 0.311733 0.179809 -0.004803 0.970727 0.494942 0.519128 0.149365 -0.358480 -0.151754 -0.530114 0.106927 -0.690853 -1.210126 0.737209 0.123135 -0.079663 -0.175609 -0.515479 0.939714 0.107899 0.587586 0.052488 -0.138886 -0.429183 0.495639 0.042095 0.582945 0.822982 0.667774 0.021435 0.316101 -0.384351 0.803787 -0.230474 0.049043 0.532094 -0.066455 -0.077770 -0.331976
off 0.365245 -0.235515 0.219488 -0.106819 0.181365 0.127979 -0.215287 0.330202 0.002864 -0.024446 0.139402 -0.089519 -0.098933 0.080969 0.375331 0.293392 -0.050408 -0.033536 0.132891 -0.026955 -0.048459 -0.119841 0.230382 -0.040291 0.117773 0.236113 -0.090624 0.246184 0.164958 -0.084855 0.052709 0.274494 -0.186092 -0.065868 0.182309 -0.015065 -0.045171 0.108561 0.090777 -0.086460 0.098547 -0.178888 0.352828 0.264211 -0.118850 -0.111320 0.161301 -0.132879 0.058960 -0.127878
them 0.043915 0.060007 -0.467368 -0.406026 -0.384694 0.177483 0.242370 0.632019 0.017321 0.507358 0.319259 0.174310 -0.140662 0.182536 -0.113921 0.117626 0.430465 -0.181823 0.386164 -0.515318 -0.712307 -0.198866 0.372548 0.234240 0.010903 0.136899 0.170429 0.281334 0.334142 0.119722 -0.038874 0.296027 -0.742539 0.270925 -0.337400 -0.326307 0.004892 -0.087017 -0.200052 -0.015351 0.034314 -0.023271 0.725096 0.316227 -0.096417 -0.749434 0.556466 -0.204437 0.048655 -0.243829
two 0.441683 -0.666609 -0.677209 -0.278395 0.248513 -0.093540 -0.419296 -0.031390 0.080274 0.068303 -0.125515 0.338680 0.231889 -0.493687 0.643934 0.394744 0.079269 0.149917 -0.016080 -0.295495 0.118566 0.091468 0.589085 -0.005133 0.202297 0.079436 0.048073 -0.384543 0.374049 0.448081 0.512013 0.354306 -0.144007 0.018576 -0.069786 0.322528 0.225053 -0.236477 -0.078752 -0.277126 0.051824 -0.033071 0.372120 0.210142 -0.096084 -0.173876 0.044250 0.134484 -0.284552 -0.250643
dinner 0.346079 -0.703725 -0.640096 -0.019325 -0.014000 0.105605 -0.208948 0.121331 -0.210532 -0.055319 -0.049254 -0.267488 0.157181 -0.708489 0.556642 0.054244 -0.139498 0.089012 0.007715 0.087801 -0.338320 0.049139 0.413819 -0.162706 -0.053437 0.339351 0.034174 -0.354191 0.532957 0.689868 0.252264 -0.066663 -0.107806 -0.031132 0.020935 -0.177222 -0.263460 -0.114839 -0.150809 -0.145687 -0.140962 0.101512 0.389995 0.359915 -0.255631 -0.295674 -0.203592 0.225344 0.002950 0.188072
going -0.139460 0.054627 0.069933 0.266869 -0.105707 0.113189 0.593878 0.808340 0.573028 0.072972 0.405677 -0.213052 -0.295661 -0.146362 0.154504 0.062811 -0.086083 0.175526 -0.098599 -0.417392 -1.184259 0.221866 -0.352289 -0.150857 0.084646 0.074492 -0.250729 -0.039526 -0.039312 0.293712 -0.247157 0.091332 -0.278806 -0.169773 -0.195770 0.038830 0.392508 0.549390 0.036704 -0.337926 -0.423519 -0.137979 0.131297 0.129373 -0.046506 -0.552758 0.785471 -0.224457 0.250262 -0.572704
problem -0.246267 -0.419382 -0.224118 0.010833 0.598285 0.256512 -0.028645 0.706756 0.336478 0.027081 -0.071491 -0.277232 -0.125984 -0.299667 0.850526 -0.167546 -0.133168 0.097121 0.070348 0.318254 0.272725 0.252300 -0.228717 -0.257358 0.363370 0.261800 -0.528300 -0.189552 0.126829 0.241386 0.179663 -0.389669 0.403950 -0.194390 0.082281 0.391561 0.461012 0.577594 0.253150 -0.086225 0.069654 0.131478 -0.171562 -0.174459 0.246360 0.296362 1.004999 -0.245973 -0.112087 0.022498
re -0.077435 0.091172 0.147334 -0.442511 -0.442519 -0.363615 -0.141867 0.661798 0.085193 0.163744 0.916221 -0.250471 -0.572545 0.128647 -0.733418 -0.307438 -0.005113 -0.308177 -0.315627 0.059999 -0.602749 0.484166 0.451176 0.714246 -0.135241 0.260998 0.196247 0.143374 0.105204 -0.103284 -0.343105 0.234483 0.070046 -0.325248 -0.092020 -0.427402 -0.651620 0.835673 -0.461947 -0.272076 -0.124392 -0.201945 0.996193 -0.254730 0.087237 -0.434773 0.705496 -0.173564 0.169151 -0.226978
years 0.318319 -0.714912 -0.833799 0.246047 -0.010077 0.220569 -0.163563 -0.036153 0.074181 0.154125 -0.567395 0.504276 0.608277 -0.716622 0.853722 0.720486 0.058554 0.008426 0.581896 -0.563971 0.041703 -0.268694 0.452482 0.256349 0.111272 0.006467 0.136662 -0.781761 0.263353 0.633790 0.201265 0.258848 -0.470009 0.097548 -0.013557 0.637588 0.032995 0.290864 -0.013391 0.264133 0.133591 0.292720 -0.119585 -0.075449 -0.181989 0.353263 0.623856 0.354372 -0.675979 -0.139241
hard 0.182542 -0.280520 -0.493383 0.617903 0.566090 0.511517 0.326326 0.261070 0.239899 0.258197 0.043246 -0.224124 0.103829 -0.118357 0.549942 0.394173 -0.227731 0.316783 0.658545 -0.284982 -0.193106 -0.627259 0.035657 -0.200063 0.227414 -0.279789 -0.109354 0.606938 0.113455 -0.180645 -0.350354 -0.555139 -0.274316 0.105298 0.300507 -0.157428 0.259230 0.081247 -0.367740 -0.198888 -0.058385 -0.105889 -0.571626 0.019385 0.170142 -0.758408 0.004235 0.189668 0.471630 0.313487
down -0.108461 -0.136832 -0.060402 0.022923 -0.338065 0.007448 0.056311 0.061145 0.117929 0.078163 -0.062055 -0.069731 -0.179185 -0.090024 -0.086777 -0.037285 -0.168009 0.169009 0.243931 -0.042115 -0.018875 -0.238228 0.163613 0.421653 -0.140387 -0.111917 0.292062 0.349876 -0.064768 -0.045653 -0.077539 0.026877 -0.325188 -0.094782 -0.030642 -0.369128 -0.025433 -0.385885 0.177734 0.035892 0.228768 0.113523 0.177041 -0.144097 -0.007101 -0.047383 0.112548 -0.502497 0.023682 -0.203418
experience 0.023254 -0.437767 -0.463186 0.196130 0.044295 -0.103446 -0.060547 -0.176433 -0.109282 -0.170320 0.010676 -0.038583 0.212944 -0.548218 0.054582 -0.050209 -0.152580 -0.003700 -0.208877 0.349116 0.345625 0.046832 -0.121782 -0.137811 -0.086712 0.210363 -0.098224 -0.021846 0.146080 0.062771 0.414882 -0.109630 0.565168 -0.119568 0.167678 0.380569 -0.327139 -0.040496 0.011938 0.013283 0.263650 -0.150325 -0.062437 -0.380279 0.122505 0.123993 -0.161024 0.147319 0.088370 0.371237
friendly 0.080871 -0.242120 -0.107562 0.680127 0.363752 -0.003474 0.165466 -0.331561 0.008653 -0.290501 0.624837 -0.277476 0.352880 0.396537 -0.623681 -0.337493 -0.418721 0.189606 -0.334796 0.096569 -0.099839 0.229886 -0.193514 0.404747 -1.004210 0.001507 -0.464766 0.381669 -0.032471 -0.406636 -0.490778 -0.542588 0.646316 -0.055464 0.581386 0.151806 -0.554846 -0.047294 -0.471149 -0.578789 0.106870 -0.301862 -0.273284 -0.715524 0.480134 0.037658 -0.464301 -0.047445 0.402564 0.447144
machine 0.332760 0.074523 0.113206 0.506748 0.260154 0.015828 -0.331912 0.221435 -0.198595 0.090289 0.262302 -0.096759 0.243951 -0.189015 -0.030217 -0.440066 0.139655 0.144178 0.149221 0.227610 0.160483 0.181624 -0.105820 -0.145956 0.069606 -0.087922 0.362593 0.212833 0.042165 0.185310 0.333132 0.033830 0.431208 -0.152206 0.245835 -0.068206 -0.134619 0.505057 0.003983 0.423983 0.380046 -0.282091 -0.238998 -0.296154 0.187703 0.222835 0.251963 0.087160 -0.009852 0.087306
day 0.770742 -0.459443 -0.059784 0.177331 0.466855 0.050723 -0.378435 0.227398 0.022199 -0.032674 0.048847 0.051098 0.070969 -0.126553 0.488252 0.125469 0.163970 0.248548 0.493043 -0.206318 0.084057 -0.204604 0.349341 -0.138531 0.232896 -0.065711 0.137603 0.177301 0.452251 0.148719 0.183084 0.331671 -0.292848 0.029749 0.278073 0.098850 0.250458 0.036258 0.196788 -0.020211 0.173724 -0.249451 0.108309 0.094884 -0.015685 -0.085901 0.322450 0.104471 -0.049181 -0.330170
last 0.297855 -0.467289 0.143300 0.105137 0.110009 -0.135394 -0.007858 0.263809 -0.126726 -0.237756 -0.026158 -0.414385 -0.314823 -0.024319 0.380915 -0.137129 -0.086722 0.277179 0.485765 -0.053785 -0.117662 0.112852 0.233263 -0.149904 0.145055 0.099872 0.007174 -0.277150 0.268888 0.176872 -0.173992 0.057843 -0.148187 0.372026 0.180444 -0.113660 -0.006939 0.210944 0.092683 -0.023539 -0.033083 0.424592 0.507921 0.300211 -0.585911 0.156085 0.026785 0.340994 0.096221 0.018616
once 0.175647 -0.140652 0.369234 -0.091744 -0.391304 -0.154415 0.045018 0.492657 0.127107 0.163589 0.456021 -0.413223 -0.432453 0.139224 -0.192628 0.265398 0.048892 -0.192169 -0.017859 0.067741 -0.362235 0.099852 0.164523 -0.053232 -0.001692 0.594727 -0.125433 0.282224 0.248295 0.376155 -0.041516 0.210016 -0.009491 -0.011709 0.083547 -0.057552 -0.347509 0.493722 0.245524 0.218321 -0.022164 0.194313 0.405998 -0.000473 -0.047468 -0.459945 0.443158 -0.180942 0.313929 -0.092572
right 0.434545 -0.325685 -0.005803 0.075140 0.088682 0.189996 -0.146645 0.096092 0.126891 0.215146 0.188442 -0.021398 0.094391 0.231035 0.219362 0.282580 -0.201086 0.228039 0.086026 -0.284206 -0.120893 -0.121266 0.166321 0.020588 0.052542 0.100927 -0.048354 0.368537 0.217143 -0.156607 -0.028857 0.263107 -0.205528 0.201070 0.215954 0.051361 -0.024632 0.128886 0.185593 0.058869 0.157257 -0.162209 0.155373 0.252074 0.194360 -0.079418 -0.211402 -0.375108 -0.020999 -0.139097
she -0.011482 -0.129668 -0.139690 -0.458054 0.168865 0.218738 0.007147 0.466062 -0.081867 0.062293 -0.111277 -0.017438 -0.080942 -0.051311 0.295790 0.458337 0.338784 -0.010808 -0.136621 0.246230 -0.049926 -0.471954 -0.068737 -0.262371 -0.270019 0.883708 -0.457128 0.129445 0.303656 0.373347 -0.013230 -0.016167 -0.212896 -0.078631 -0.004966 0.187301 0.165721 -0.100034 -0.024563 -0.399872 -0.242762 0.260473 0.149102 0.076675 0.056792 -0.341057 0.244455 -0.042417 -0.100968 -0.218909
works 0.265446 -0.005190 0.332422 0.362419 0.526906 0.000926 -0.022668 0.189815 -0.558721 -0.150043 0.289415 0.037813 0.240292 0.014849 -0.718184 -0.155433 0.105693 0.320796 -0.062059 0.495566 0.127820 -0.056711 -0.269734 -0.201300 -0.792511 0.643759 -0.310062 0.887290 -0.099340 0.376460 0.235921 0.083318 0.214052 -0.060238 0.931939 0.177407 0.126272 0.025165 -0.551117 -0.213487 0.017429 0.178970 -0.755953 -0.547274 0.385043 -0.168887 -0.007706 0.628784 0.036270 0.073521
around 0.001227 -0.315583 -0.243740 -0.162028 -0.183606 -0.040279 -0.021133 0.182506 0.112139 0.270036 0.196978 0.084642 -0.169678 -0.139187 -0.206910 -0.064315 0.022531 -0.112628 0.508898 -0.322039 -0.298333 0.012146 0.226390 0.494374 0.184646 -0.122854 0.299340 0.011000 0.180724 0.020762 0.061634 0.263726 -0.529347 -0.038049 -0.130414 -0.263502 0.094979 -0.071447 0.123201 -0.053774 0.080313 0.019340 0.365883 0.080489 0.054161 -0.046133 0.345087 -0.197375 -0.013668 -0.121259
happy -0.062261 0.248716 -0.041666 0.669411 0.520387 -0.178714 0.021050 0.402061 0.645375 -0.329781 0.265643 0.224643 0.149671 -0.399080 0.043666 -0.004189 0.245607 0.440181 -0.227021 -0.408827 -0.264676 0.120317 -0.795432 -0.547488 -0.370549 -0.632843 -0.795567 -0.363252 0.185320 0.254809 -0.012036 0.318779 0.325171 -0.982389 0.443459 1.162915 0.540379 0.043749 -0.169278 -1.292742 -0.062386 -0.433999 -0.693326 -0.150893 0.166219 0.328801 0.821933 0.491060 0.247736 -0.613650
months 0.349516 -0.648165 -0.018479 -0.274976 0.409500 0.455125 -0.672073 0.028972 -0.362655 -0.125656 -0.468659 0.315823 0.391459 -0.330376 1.235720 0.769557 0.050086 0.230364 0.437812 -0.215308 0.178723 -0.329722 0.807584 0.110901 0.166299 0.242145 0.194291 -0.284208 0.212753 0.452571 0.056784 0.170545 -0.277371 -0.327572 0.307636 0.427915 -0.027980 -0.179025 -0.033142 -0.055743 0.121733 0.151321 0.202316 0.419685 -0.088017 0.127916 0.057463 0.304363 -0.651685 -0.134748
slow 0.325627 -0.141396 0.124165 0.577956 0.217815 0.297025 -0.008518 0.276399 -0.023956 0.008738 0.288315 -0.151830 0.242111 -0.056336 -0.448628 0.020757 -0.080543 0.180161 0.312496 0.100833 -0.184690 -0.166519 -0.247062 -0.330144 -0.398015 -0.137197 -0.365344 0.665779 0.020212 0.157289 -0.086300 -0.091166 0.166015 -0.352783 0.677809 0.157095 0.074897 0.302149 -0.222138 -0.482937 0.185717 -0.131217 -0.736047 -0.462018 0.392897 -0.237600 -0.117587 0.319518 0.474073 0.195476
used 0.010146 0.026146 -0.051786 0.318556 -0.375350 0.376059 0.031559 0.939161 0.107179 0.267363 -0.079459 -0.185743 -0.346551 -0.348278 0.412071 0.062278 0.242624 -0.328653 0.619650 -0.052160 -0.529261 -0.189527 0.074761 -0.561724 0.579690 -0.319969 0.094667 0.023800 0.151772 0.507386 0.038337 -0.019749 -0.253554 -0.309858 -0.299813 -0.224599 0.170988 0.404549 -0.049264 0.208433 0.374548 -0.092139 0.072406 0.225495 -0.135840 -0.343357 0.720386 0.393396 0.243838 0.205305
nothing -0.147469 0.146903 -0.177792 0.019256 -0.071195 0.140656 0.397682 0.290754 0.021330 -0.005607 0.056566 -0.336098 0.170142 0.021367 0.384219 0.460589 0.141022 -0.278129 -0.188728 0.431090 0.096592 -0.173159 -0.371796 -0.473977 0.073722 0.406198 -0.741717 0.389994 -0.069883 0.148891 0.159919 -0.393707 0.395816 -0.089961 -0.106559 0.171202 0.300039 0.404377 -0.331533 0.017536 -0.016637 0.312624 -0.421187 -0.331269 0.113330 -0.442664 0.471645 0.121955 0.219190 0.167626
being 0.085532 -0.134409 0.019702 -0.292119 0.130714 0.228209 -0.096121 0.367888 -0.112715 0.102530 0.232494 -0.110707 -0.033709 0.143725 0.010114 0.041622 0.134713 -0.250502 0.273490 -0.179312 -0.431786 0.054410 0.168184 -0.143478 0.272190 0.175518 -0.090429 0.099952 0.299990 -0.076739 -0.195621 0.038882 -0.230922 -0.208798 0.139205 0.179860 0.013036 0.286900 0.062147 -0.208169 -0.232796 -0.100358 0.227846 0.253773 0.295974 -0.212876 0.096489 0.027167 0.169119 0.112383
bit 0.367945 0.003737 -0.013367 0.087098 0.015090 -0.093454 0.026724 0.355663 -0.164037 -0.084420 0.105029 -0.162764 -0.297276 0.107933 -0.368981 -0.091944 0.238863 -0.430337 0.430366 0.185934 0.070594 0.223768 0.272505 -0.867659 0.380528 -0.025819 -0.133422 0.397356 0.245045 0.141182 -0.281144 -0.309486 0.366770 0.040233 0.496239 0.418503 0.210475 0.695957 -0.291570 -0.077737 -0.156004 0.285139 -0.448196 -0.102031 0.282877 -0.650744 -0.138935 0.865210 0.325315 0.219430
eat -0.041233 0.140810 -0.063918 0.080689 -0.122021 -0.089428 0.390276 0.387683 0.191173 0.382263 0.289415 -0.356204 -0.379683 0.183824 -0.017258 -0.227869 0.119177 0.267455 0.297429 -0.217855 -0.453611 0.232190 -0.270073 0.134448 -0.031147 0.197458 0.168352 0.178326 0.423681 0.114047 0.089277 0.181109 -0.152407 0.089456 -0.287263 -0.152764 -0.031209 0.027860 0.450647 0.457053 0.271375 -0.261049 0.510659 0.000511 -0.063551 0.105749 0.741427 -0.546474 0.101177 -0.347779
feel 0.027364 0.479445 0.072881 -0.151078 -0.002031 -0.034801 0.028202 0.563575 -0.119132 0.322821 0.330360 -0.241068 -0.270273 0.730560 -0.202112 -0.181574 0.425851 -0.318899 0.402480 -0.066444 -0.183719 -0.167077 0.219156 0.138829 -0.115929 0.467295 -0.065453 0.245942 0.269102 -0.077304 -0.459344 -0.088058 -0.113178 0.309673 0.025906 -0.042500 -0.652621 0.711226 -0.294370 0.472196 0.082466 0.195533 0.601664 -0.061860 0.176357 -0.264551 0.870027 0.066681 -0.154782 0.124857
few 0.324689 -0.697776 -0.508510 -0.153354 0.048973 0.114053 -0.165924 0.124331 -0.244974 -0.006273 -0.246831 0.039507 0.186067 -0.470587 0.783049 0.352272 0.088202 -0.132225 0.470087 -0.094622 0.048276 0.041933 0.669947 0.249866 0.215443 0.155729 0.133057 -0.324470 0.185429 0.434562 0.199571 -0.041252 -0.113292 -0.060609 -0.078266 0.407535 0.098420 0.100648 -0.374707 -0.004894 0.074685 0.384651 0.144952 0.082487 -0.068672 -0.168674 0.443377 0.595459 -0.337300 0.056642
night 0.505164 -0.599754 -0.276424 0.083069 0.029752 -0.503189 -0.190093 -0.121926 -0.016309 -0.211435 -0.102192 -0.208821 -0.180695 -0.169821 0.478986 0.033045 -0.190764 -0.035686 0.160962 0.035813 0.021083 0.187404 0.389939 0.053681 0.205213 -0.013968 -0.105221 -0.414369 0.260062 0.119387 0.053700 -0.039667 0.021678 0.156986 0.109664 0.126485 0.017736 -0.127570 0.087442 0.051256 0.107149 0.329149 0.303816 0.098028 -0.271902 0.108581 -0.300816 0.215399 0.068820 0.083673
overall 0.015367 0.050923 0.168369 0.548909 0.433984 0.029442 -0.086926 -0.040530 0.036051 -0.198391 0.212968 -0.068814 0.250324 -0.213880 0.136351 -0.031979 -0.123139 0.254590 -0.044158 0.094595 -0.032718 0.274194 -0.497549 -0.536975 -0.052066 0.011271 -0.469637 0.046948 0.133406 0.306926 0.104140 0.204798 0.541159 -0.404046 0.589391 0.688524 -0.239941 0.774778 0.056403 -0.091734 0.247610 -0.160338 -0.628538 -0.236971 0.359040 0.436926 0.265234 0.384187 0.003611 0.092456
while 0.472526 -0.251190 -0.152403 -0.092480 0.252906 -0.035345 -0.180211 0.152055 -0.179355 -0.135272 -0.062150 -0.173572 -0.082108 0.066608 0.150824 0.105376 0.082106 -0.043867 0.318408 -0.131993 -0.225048 -0.217995 0.108439 0.136274 0.049000 0.213547 0.006645 -0.082031 0.244225 0.093160 -0.069925 0.168114 -0.297233 -0.015626 0.022451 -0.008297 0.154270 0.028485 -0.053181 0.021195 -0.035344 0.060804 0.142847 0.253529 0.007716 -0.125030 0.003954 0.027129 -0.026682 -0.086649
before 0.016839 -0.094820 -0.281042 -0.185984 -0.080130 0.085334 0.019590 0.376151 0.171605 0.089800 -0.160128 -0.077948 -0.179888 -0.050482 0.573777 0.480928 0.210186 -0.184987 0.166141 -0.002841 0.076379 -0.414516 0.337702 0.042455 0.114555 0.188026 -0.039194 -0.018420 0.210600 0.165575 0.034557 0.022584 -0.162356 -0.078865 -0.232952 0.106552 0.076520 -0.029897 0.040115 0.060141 0.139416 0.181639 0.334746 0.087714 -0.171958 -0.378617 0.588483 -0.152577 -0.107398 -0.262611
