है -0.727248 1.004796 -0.823527 0.863086 -0.408876 -0.454387 1.878642 -0.984590 0.214000 2.090247 0.248993 -0.873505 0.480077 -0.394211 0.387720 0.161480 0.927335 -1.454887 0.090178 -0.355245 -0.378075 1.070135 0.442941 0.364277 -0.341815 -0.695078 0.201111 -0.026790 -1.314198 -1.002718 -0.263290 -0.896783 0.426128 0.167752 -0.617032 -0.394398 0.441624 0.140846 -1.787396 2.270030 -0.468224 0.610672 1.097244 0.346433 -1.265046 0.564640 0.182316 0.931869 -0.217775 0.542328
। -0.343756 1.106516 -1.576505 -0.630415 -0.206289 -0.452505 1.696823 -0.875082 -0.148821 1.539207 -0.583390 -0.716674 0.918036 -0.212560 1.031647 0.043070 1.011495 -0.598230 0.460747 -1.293319 0.466005 0.186469 0.242308 -0.106931 -1.372055 -0.724575 -0.742671 0.860762 -0.072480 -0.568736 -0.325997 -0.828810 0.977681 0.403992 0.039821 0.194241 0.125812 1.201478 -1.211149 2.157919 -0.640507 -0.485001 -0.189796 -0.002743 -0.724021 0.384754 0.258477 0.639417 -0.348358 0.361258
के 0.292035 -0.085102 -1.993875 -0.379670 -1.526741 0.620283 0.762858 -2.137947 -0.128563 1.400547 0.442183 -0.480322 -0.659180 -0.408156 -0.274715 0.926231 1.064663 -0.310911 -0.219229 0.836796 0.768353 0.088842 -0.276533 0.888327 -0.547281 -1.321146 -0.960232 -0.674793 0.130992 -0.374873 0.321524 -0.581348 0.205371 -1.168025 -0.261389 -0.369999 -0.113303 -0.536097 -1.997380 1.053110 0.009041 -0.907837 -1.308722 -1.087257 -0.459984 1.298346 0.403225 1.375121 1.415973 -0.412406
में -1.568023 0.788887 -1.993301 -0.024725 -0.211275 0.562871 0.981318 -1.930904 -0.106867 1.566811 -0.111839 0.181096 0.120082 -0.376195 0.245948 -0.962839 1.315316 0.038501 0.515256 0.803177 0.601605 0.188469 1.681089 -0.485646 0.687048 -1.514842 0.436200 -0.048635 -0.473464 1.021403 0.334865 -0.511074 -0.311031 1.288994 -0.824064 1.193493 0.286349 0.576836 -0.522652 0.443398 -1.944112 -0.564766 -0.014943 -0.090453 -1.026102 1.746950 -0.109420 0.486950 -0.168565 0.839840
, -0.174865 0.873929 -0.983157 0.587942 0.634022 -0.187828 0.855006 -1.394918 -0.837785 -0.760703 0.221815 -1.783949 -1.489102 -0.410444 0.499684 -0.250789 1.401868 -0.379782 0.505563 0.790046 0.174319 -0.621609 0.885962 0.639725 -0.224358 -0.630437 -0.539792 -0.185689 0.173466 -1.830885 -0.877142 -0.749856 0.760968 -0.261696 0.024832 0.297926 -0.197397 0.165536 -2.313095 1.188028 -0.813987 1.524390 0.340170 -0.140074 -0.975128 0.816761 0.363533 -0.443538 0.968482 2.675998
की -0.451206 1.386459 -0.759865 -0.884254 -0.278394 0.391172 0.777483 -0.019498 -0.743075 1.507627 0.542643 -0.028616 -0.285923 -1.631309 0.677082 0.584294 1.355992 0.055933 0.781812 -0.007635 -0.044343 -0.231674 0.210430 1.219019 -0.310914 0.372335 -0.555673 -1.194251 -1.366125 1.328462 1.082631 0.301412 0.881685 -0.171949 0.059321 -0.227349 0.609051 -0.165567 -0.823182 0.503502 -0.009322 -1.018741 0.655158 0.339987 -1.572262 0.175595 1.755677 0.951216 0.260671 1.199552
और 0.028636 0.930356 -0.914770 -0.779591 -0.097244 0.180023 0.393661 -1.634829 -0.505623 1.384391 -0.484939 -1.593125 -0.306905 -0.635311 1.196830 -0.702045 0.514505 -1.354879 -0.430000 0.585532 0.885285 -1.050529 1.110464 0.485884 -0.259717 -0.512069 -1.044894 -0.764573 -0.547607 -0.321343 0.288899 0.672926 -0.062797 -0.579610 -0.803291 0.240294 -0.182450 -0.012035 -1.876128 0.388311 -0.029820 -0.429976 0.632493 -0.109001 -0.307011 -0.779543 -0.771838 0.384351 0.294426 1.210069
से -0.172784 0.440142 -0.223150 0.642919 0.023067 0.427553 -0.470013 -1.864547 -0.866802 0.743354 -1.070327 0.108027 0.447303 -0.255602 -0.389766 0.605956 1.728754 0.632879 0.472078 0.585126 0.566567 -0.456125 1.157042 -0.460106 -1.241356 1.035321 0.655699 0.324213 0.066532 -0.792624 0.824200 0.543636 1.270815 0.100914 -1.014734 -0.406780 -0.352463 -0.212449 -2.356289 2.123919 -0.085038 -1.567721 1.205972 -0.960280 -1.632218 -0.282330 1.596532 1.138731 0.258653 -0.830145
का 0.463190 1.345847 -0.743852 -1.772635 -0.405361 -0.019302 0.880267 -0.628168 -1.109468 2.319998 0.529831 -1.045902 -0.173348 -1.596980 0.363392 0.816141 0.770579 -0.789389 -0.276690 0.169468 -1.192654 -0.186059 0.779776 -0.880184 0.409337 -1.280748 -0.362544 1.129019 1.249069 -1.062311 0.632310 -0.505605 0.151090 -0.094213 0.041278 -0.361055 0.286801 -0.372067 -0.773655 0.411152 -0.249261 0.433258 0.280114 0.547914 -0.460465 1.119812 0.150848 0.596968 -0.117939 -0.207815
हैं 0.804351 0.789225 -2.264489 -0.854050 1.187843 0.650487 0.557362 -0.556973 -0.742607 0.752062 -0.674609 -0.450533 0.870324 -0.070610 0.637484 0.389949 1.460753 -0.274696 -0.360811 -0.582354 0.489772 0.442032 0.895835 0.850574 -1.647275 -0.212387 0.341933 0.831591 1.207176 0.204299 -0.190455 0.209227 0.645444 0.813057 -1.760542 0.851372 -0.130080 0.292515 -1.468027 1.477678 -0.199670 -0.600733 -0.969677 0.227290 -0.557596 -0.438302 -0.047611 -0.194912 0.493822 1.225026
भी -0.014095 0.346617 -0.821779 -0.725496 -0.308625 0.433848 0.876417 -0.473304 -0.000765 1.590302 -0.355074 -0.587129 1.050169 0.017107 -0.284989 -0.468729 1.741678 -1.318161 -0.747230 0.684855 0.241087 0.061119 0.187753 0.452506 -0.277467 -0.377092 0.103065 0.765360 -0.138546 0.231706 -0.265811 -0.025883 0.761144 0.062028 -0.126671 0.076223 0.213965 0.420186 -0.764786 1.253254 -0.530953 -0.342312 0.471036 -0.179978 -0.939806 -0.088196 0.684498 -0.301299 0.158572 1.048787
को -0.057288 -0.051573 -0.379588 0.053994 -0.224649 -0.576730 -0.054357 -0.701521 -0.496700 1.445970 -0.937647 -0.310013 1.123687 -0.191797 -0.262338 0.215114 1.503733 0.440132 -0.369168 0.266926 0.049008 0.306924 0.317111 0.414287 0.180689 -0.996644 -1.043294 -0.273383 -0.046875 0.542098 -0.342081 -0.305973 1.533810 -0.394699 -0.738696 0.202908 0.487750 -0.475569 -1.641745 0.457857 0.560922 -0.262811 -0.637588 1.469222 -1.311632 0.077083 0.264626 1.480701 -0.027391 0.287448
यह -0.691193 1.020039 -1.028495 0.549461 0.391792 -1.226064 0.622624 -1.268764 -0.428451 1.053352 0.492913 -0.907358 -0.059838 0.197032 0.784207 -0.000211 0.829278 -0.283910 -0.534046 0.490443 0.295885 0.385110 -0.111020 0.690113 0.626128 -0.171399 0.472213 1.079874 -0.427385 -0.362531 0.342308 0.566192 -0.127840 0.503436 0.232773 -0.546115 -0.685443 -0.540320 -1.270800 1.174888 -0.419004 0.419783 -0.017992 -0.172608 -1.094983 0.824064 1.258944 0.985166 0.286581 0.140019
पर -0.953624 0.357392 -0.550211 -0.018250 -0.265065 -0.371972 0.492120 0.279470 -0.587309 0.532653 -0.410182 -1.461450 -0.426570 0.219431 0.486702 1.088204 0.672734 -0.683286 -0.937755 1.106508 0.767313 -0.797849 -0.947543 -0.034489 -0.131878 -0.227582 -0.071752 1.194767 -0.005424 0.736328 0.469629 -0.948355 -0.222099 0.790585 -0.063251 0.223622 -1.112234 0.337175 -2.114450 1.450876 -0.037340 0.219807 0.488027 -0.331716 -1.278457 -1.091345 0.882022 1.345292 -0.295674 1.132487
इस -0.647589 0.259976 -0.613297 -0.330151 0.389236 -0.294182 0.999167 -0.963298 -0.452508 0.617275 0.642518 -0.093232 -0.089221 -0.304409 0.420665 0.513977 1.368485 -0.674254 -0.732332 0.481272 0.363530 -1.216531 0.354032 0.911746 0.613993 -1.822948 0.223191 0.520919 -0.018773 0.483736 0.295403 -0.171013 0.342047 0.689339 -0.572285 0.287806 -0.324574 -0.783150 -1.215093 0.718255 0.434600 -0.180182 -0.187505 0.455127 -1.408617 1.118318 0.669044 0.687217 -0.398809 0.219735
नहीं -0.267667 0.569261 -0.312202 -0.056234 0.318731 -0.208329 1.482292 -0.534985 0.033395 0.793882 -0.870454 -0.737446 0.602217 0.299450 0.490252 -1.000145 1.530557 -1.075395 -0.917176 -0.178500 0.339244 0.451418 0.123670 0.426759 -0.447610 0.277815 0.745905 1.466425 -0.121325 0.713899 0.106388 -0.300235 1.134281 -0.685675 0.494533 -0.308253 0.244239 0.723997 -0.396145 1.439719 -0.402708 0.519791 -0.535468 0.069014 -1.571181 0.059102 0.599780 0.376174 0.743481 0.404946
एक -0.088711 0.990141 -0.437745 -0.751542 0.334286 -0.494197 0.597264 -0.905578 -0.317984 0.658049 0.381014 0.450933 -0.664056 -0.198597 0.857384 -0.181200 0.818502 -0.761673 -0.626797 0.185264 -0.079043 0.092870 0.344195 0.790773 0.349035 -0.299939 -0.013549 0.645994 -1.031309 -0.612365 -0.590773 1.480665 0.526583 0.385529 -0.413248 0.305788 0.329299 -0.394421 -1.946372 1.401140 -0.517214 0.299728 0.514084 0.104998 -0.531136 0.389321 0.844410 1.282139 -0.085898 -0.672353
साथ -0.676369 -0.297932 -1.346459 -0.891928 -0.280607 0.268402 0.586056 -1.248070 -0.141549 1.066773 0.512218 -0.107092 -0.215123 -0.439540 0.870190 0.709957 0.402353 -0.326677 0.177967 0.699080 0.333699 0.615142 -0.172171 -0.001592 -0.718874 -1.899777 0.425230 -0.477850 -0.361189 -0.173072 -0.851193 -0.056008 0.245501 -0.325739 -0.041430 -0.372667 0.135255 0.465504 -1.411603 0.912409 -0.278786 0.399094 0.181654 -0.540178 -0.298534 -0.080609 0.583477 0.793655 -0.157940 0.282715
लिए -0.529369 0.461284 -1.377593 -0.553699 -0.629562 -0.562189 0.074947 -0.934018 0.600105 1.285088 -0.928252 -0.241656 0.091722 -0.513521 0.838368 0.720786 0.610905 -0.240424 -0.404083 0.642353 0.439476 1.249942 0.447060 1.024872 -0.173626 -0.121135 -0.636215 0.137753 -0.178437 -0.719397 -0.152733 -0.044949 0.597545 -0.816673 -0.000851 0.329879 -0.321294 -0.761699 -1.229737 0.571519 -0.490713 0.094326 -0.825401 -0.273269 -0.247809 0.793771 0.072048 1.228200 0.755208 -0.153967
ही -0.326132 0.585597 -0.619665 -0.677170 0.365515 -0.343934 0.630267 -1.381716 -0.384701 0.881044 0.137599 -0.702650 0.267841 -0.630200 1.327244 -0.509513 0.696299 -0.366718 -1.007387 0.725391 0.028729 0.080485 -0.320534 0.402517 -1.200617 -0.417116 0.729708 0.390559 -0.001273 0.254221 -0.551743 0.274086 0.931429 0.071447 -0.610277 -0.022654 0.046056 1.017538 -0.534440 0.187152 -0.944589 -0.437080 0.095242 -0.822856 -0.577210 -0.409666 1.084756 0.976494 -0.146299 -1.047271
- -0.877492 0.325918 -0.851436 -0.087517 -0.452101 0.418625 0.069764 -0.456320 -1.176147 0.306415 -0.044281 -1.558148 0.793760 0.623191 -0.098251 -0.526236 0.578503 0.619909 0.164581 0.930222 -0.875360 -0.762674 1.301121 1.086226 -1.423168 -1.311929 0.433089 0.010282 0.010394 0.394900 -0.308606 0.425858 0.750615 -0.141112 0.529561 -0.851629 -0.505022 0.780634 -2.390882 0.002796 -0.376881 1.085483 0.334272 -0.810511 0.426022 -0.070292 0.574993 0.237540 0.349951 0.131928
जो 0.059830 0.538716 -0.831080 0.222223 -0.020538 0.161062 0.812733 -0.473847 -0.134039 0.746108 -0.381219 -0.522396 0.419694 -0.564143 -0.162648 0.314680 0.865085 -0.572142 -0.325498 0.345307 -0.204451 0.950748 -0.049016 0.322796 0.185663 -0.675583 0.512703 -0.081609 -0.393168 -0.517610 -0.708708 -0.313298 0.138529 0.195849 -0.753957 -0.052686 0.555629 0.140476 -1.584115 0.741646 0.012323 0.304381 0.273453 0.678117 -0.802042 0.551868 0.183086 1.357689 -0.022205 0.878293
कि 0.449202 0.516128 -0.214525 0.417284 0.135015 -0.474746 0.948383 -0.475286 -0.366806 0.628052 -0.194590 -1.222519 0.643012 0.016668 0.089984 -0.402207 1.185590 -0.656060 -1.285762 -0.253254 -0.414642 -0.114228 0.267800 0.657346 -0.138568 0.030459 0.398901 0.388671 -0.271484 -0.405584 -0.106198 0.502580 0.122969 0.206062 -0.661416 0.043418 0.397702 0.508728 -1.318930 -0.109279 -0.172452 0.441088 -0.194910 0.163904 -1.216241 0.995093 0.682431 1.037562 0.035967 0.404467
बहुत 0.126964 1.394016 -0.577338 0.290951 0.184201 -0.185878 0.672056 -1.721618 0.040178 0.808018 -0.285697 -0.557357 0.716979 -0.535191 0.095200 -0.824812 0.853710 -0.554613 -0.648791 1.296582 1.123407 -0.695087 0.123113 0.688749 -0.216677 0.188277 0.247655 0.460919 -0.457043 -0.482446 -0.490278 0.795360 0.479580 -0.064984 -0.746769 -0.127955 0.075298 0.215019 -0.413107 1.357291 -0.265649 0.024843 0.375846 0.118128 -0.542466 -0.212124 0.326361 0.201625 0.273906 0.019526
तो 0.270935 0.361785 -0.867597 0.384047 0.326165 -0.674695 0.935257 -1.370263 -0.191306 -0.147649 -0.261945 -0.965830 0.665670 -0.402820 1.668327 0.673775 1.234574 -0.283335 -0.817659 -0.165216 -0.253498 0.103491 0.863377 1.388001 -0.167784 0.687110 -0.017702 0.285076 0.705254 0.636458 0.485967 0.602906 0.125360 0.401172 0.241122 0.417780 0.028030 0.620462 -0.292965 0.118800 -0.313974 -0.031592 0.077301 -0.311383 -1.200380 0.519821 1.232804 1.314114 -0.005009 0.469438
इसमें -0.556774 0.026194 -0.378563 -0.905886 0.810188 0.575170 0.736741 -0.470987 -0.350604 1.195540 0.271255 -0.301536 -0.262838 -0.417360 0.477406 -0.113830 -0.141054 -1.034075 -0.598870 0.319149 0.231644 0.160363 -0.093892 0.244370 -0.551763 -0.214331 1.243701 0.698790 -1.282627 0.383003 -0.629481 0.041948 -0.299180 -0.779773 0.245174 -0.198960 0.287402 0.126285 -1.481667 -0.021913 -0.162860 1.273472 -0.505398 -0.467629 -0.562698 1.436308 0.741663 -0.068277 0.462988 0.918273
आप 0.773250 -0.219139 -0.736493 -0.287005 0.604810 -0.382185 0.294488 -0.257055 -0.737042 -0.103921 0.078159 -0.965260 0.355156 -0.479539 0.042352 0.659391 1.974738 -0.316027 -0.960092 0.539299 -0.808735 0.196160 0.483030 1.063892 -0.394915 0.133133 0.199445 0.513803 1.178169 -0.110700 -0.476940 0.007037 0.316281 0.491490 -1.254640 0.294228 0.021451 -0.509266 -1.110651 -0.172480 -0.142364 -0.061144 -0.134374 -0.372161 -1.348724 0.100601 0.954198 0.612160 0.107440 0.927188
इसके 0.058413 0.120616 -1.099378 -0.905973 0.227941 0.509221 0.306525 -1.324131 -0.572155 0.812680 0.463761 -0.604688 -0.536693 -0.522985 -0.035394 0.811657 0.381322 -0.832836 -1.076449 1.264752 0.739311 -0.106387 -0.389440 0.886976 -0.846972 -0.742441 1.125476 0.082774 -0.186736 -0.455319 -0.389219 -0.102210 0.102736 -1.004395 -0.815601 -0.143969 -0.063510 0.340908 -0.529108 0.028159 0.265795 -0.135658 -0.524748 -0.430160 -0.820034 0.784271 1.026924 -0.510380 0.706657 0.293071
लेकिन 0.106260 0.599271 -0.333410 0.833131 0.454432 -0.204613 0.858871 -1.268707 0.048695 0.425883 -0.021189 -0.737555 -0.025013 -0.148892 0.111384 -0.470234 1.332278 -0.717597 -0.738143 0.766930 0.358899 -0.471173 0.151836 0.885695 -0.247778 -0.129340 0.453085 0.428298 -0.094107 -0.118046 -0.322870 -0.161241 0.306421 0.216144 -0.368496 -0.003112 -0.103927 0.201283 -0.281168 1.009438 -0.357337 0.540092 0.123217 -0.253654 -1.343114 0.440881 0.869216 -0.327753 0.293629 0.736650
कर 0.225391 -0.265040 -0.657009 -0.757338 -0.003935 -0.722943 0.331768 0.542021 0.194781 0.899468 -0.538371 -0.229202 0.994926 -0.085301 0.167243 0.295612 2.112874 -0.005990 -0.672314 -0.111676 -0.341850 0.525336 0.399744 0.085093 -0.770089 -0.745079 0.001438 0.456711 0.851627 -0.012181 -0.467557 -0.095337 1.260815 -0.000811 -0.470626 0.618263 0.182619 0.247001 -0.430736 0.367690 -0.570800 0.239573 0.231470 -0.193374 -1.206270 -1.086567 0.620556 0.514895 -0.239701 0.442089
' -0.555438 -0.143970 -0.065783 -0.337020 -0.894355 -0.901111 -0.872713 0.117875 -1.351154 0.340307 1.061708 -0.165963 -1.565603 0.082361 0.810989 -1.496362 1.103289 -0.799626 0.178033 -0.595169 -0.874821 -0.468572 1.107914 -0.207049 0.571945 -0.293910 -0.334244 -0.171716 -0.216499 0.321149 -0.510294 0.123806 0.563320 0.444505 0.482314 -0.699832 0.270775 0.377234 -0.948764 -0.441060 -0.028029 -1.726190 -1.040747 0.420772 -0.549734 -0.664321 0.647082 0.449322 0.507922 -0.604384
गया -1.145806 -0.043617 -0.129127 -0.445141 -0.720277 -0.233083 0.455100 -0.508099 0.128916 1.336925 -0.724374 -0.060349 -0.319210 0.226419 0.388775 0.022595 1.158469 -0.983802 -0.302271 -0.482434 -0.071288 -0.013125 1.133225 -0.657309 -0.107698 -1.645172 0.916487 -0.092126 -0.507460 -0.544445 -0.078246 -0.729165 1.180337 -1.156305 0.147940 0.028844 0.352413 1.117515 -0.519987 0.098546 -0.108014 0.366162 0.563968 0.342425 -1.118905 0.936116 0.363415 -0.438514 0.061578 -0.207405
कैमरा -0.530397 0.395835 -0.108313 -1.764119 0.512077 0.496618 0.642626 -1.445063 0.167347 1.003930 -0.452173 0.151827 -0.337411 -1.449985 0.667828 0.906877 -0.140823 -0.877423 -0.113875 0.629538 0.397089 0.053703 0.446117 -0.006944 0.157884 -0.426690 0.358852 0.458496 -0.273533 -0.710138 -0.695776 -0.183298 0.116452 -1.529632 0.162754 -0.228761 0.408340 -0.229663 0.329618 0.605351 -0.690901 0.632707 1.531172 0.409426 -0.415381 0.715410 -0.205672 -0.085263 -0.025471 -0.002569
काफी 0.376707 1.657379 -0.675377 0.369687 -0.472593 -0.014903 0.728228 -1.132848 0.469767 0.773915 -0.084942 -0.358667 0.674758 -0.586824 0.401760 -0.626338 0.446109 -0.401516 -0.463010 1.060277 0.942632 -0.363384 0.091376 0.592945 0.399572 -0.358200 -0.466176 0.140903 -0.565899 -1.009411 -0.044988 0.618887 -0.227959 0.114948 -0.656657 -0.368168 0.286798 -0.161681 -0.059049 1.408909 -0.064088 0.016837 0.492114 0.653734 -0.114619 -0.137990 -0.137169 0.693518 -0.307133 -0.001433
फोन -0.158094 0.309820 -0.869264 -0.296494 0.052037 -0.215370 0.583480 -1.134791 -0.103420 0.753855 0.144356 -0.369710 0.015601 -0.272087 0.640988 0.439064 0.868350 0.030832 -0.544100 0.282308 0.271791 0.061159 0.378995 0.167172 0.292324 -0.683910 -0.122162 0.315811 0.193559 0.115357 0.174465 0.390310 -0.114256 0.227083 -0.540865 0.297878 0.001813 -0.200950 -0.803588 0.679491 -0.592703 0.139609 0.133887 0.265808 -1.005766 0.523019 0.482278 1.111960 -0.125493 0.019914
फिल्म -0.326786 0.151658 -0.523754 0.370056 -0.741335 -0.391604 0.336420 -0.408723 -0.993909 0.635228 0.590317 -0.507519 0.063876 -0.085848 0.393114 -0.342320 0.836647 -0.414290 -0.090659 -0.586705 -0.551587 -0.098377 0.240133 0.669569 0.393857 -0.174972 0.010027 -0.351421 -0.490992 0.514767 0.276821 0.064558 0.506544 0.399430 0.085370 -0.348429 0.108569 0.398600 -0.752060 -0.133830 0.174533 -1.014653 -0.537814 0.739330 -0.824372 0.663788 0.755524 0.912639 0.023413 0.251536
सकते 1.227608 -0.696725 -0.944665 -1.262538 0.815105 -0.241990 -0.129483 1.017147 -0.314766 0.687940 -0.656529 -0.338475 0.691641 0.092352 0.143282 0.373605 2.121505 -0.150465 -0.709554 -0.365771 -0.170890 0.124348 0.522831 0.183272 -1.186936 -0.304795 0.138263 0.655290 0.924726 0.194846 -0.246873 0.169571 0.666107 0.383872 -1.240173 0.746902 0.108257 -0.058440 -0.825663 -0.081684 -0.311644 -0.198381 -0.364502 -0.478398 -1.233652 -0.841940 0.823988 -0.308849 -0.142815 0.815841
जा 0.404062 -0.236174 -0.471364 -0.167853 -0.062306 -0.730712 0.522199 1.051772 1.457825 0.868702 -1.080639 0.135192 0.316919 0.340873 -0.281038 0.816109 2.062199 -0.369554 -0.266982 -0.283033 1.106947 0.001609 0.223811 -0.716664 -0.776528 -0.891361 0.200909 0.317777 -0.905326 -0.635499 1.002464 0.331813 0.241480 0.045181 -0.663049 0.843985 0.734314 0.073011 -0.674755 0.603454 -0.289766 0.190468 -0.111667 -0.843315 -1.637447 -0.291579 1.292584 -0.452977 0.205586 0.233393
ने -0.604326 -0.399485 0.172748 -0.737107 -0.406243 -0.362217 -0.241713 -0.999596 -0.692911 0.608896 -0.117707 -0.754128 0.317654 -0.448425 -0.377783 0.011827 0.979285 -0.568429 -0.664741 0.201383 -0.171257 -0.859784 -0.170485 0.106054 0.184612 -0.667455 -0.741864 -1.146901 -0.697666 0.201619 -1.030496 -0.450764 1.107576 0.343748 -0.154515 0.187703 -0.011962 0.574744 -0.896520 -1.259474 -0.048507 -1.133698 -0.068518 0.109172 -0.756046 0.839651 0.391561 0.182781 -1.196740 -0.013681
करने -1.123495 0.688199 -0.739171 -0.534764 -0.964672 -0.342748 0.264437 0.099652 0.605639 0.305437 -0.814440 -0.007595 0.414044 -0.628521 -0.308261 -0.194863 1.436336 0.982276 -0.223295 1.062491 0.469862 0.242251 0.315443 0.374765 0.281195 -0.511335 -0.417002 0.134343 -0.307532 0.039933 -0.171400 -0.293207 0.646280 -0.505331 -0.274469 0.639628 0.295681 -0.978981 -0.558222 0.468435 -0.810764 0.205391 -0.067029 -0.169210 -0.839310 -0.574381 0.588010 1.197978 0.094897 0.229472
अच्छा 0.308285 1.310213 -0.537637 -0.234465 -0.450889 -0.459586 1.038545 -0.977688 0.584653 0.857431 -0.421540 -0.810227 0.283218 -0.288434 0.412829 0.201996 0.799575 -0.754080 -0.949285 1.219757 0.488412 -0.010247 -0.076557 0.141955 1.016383 -0.970958 -0.314673 1.086260 0.236724 -1.011861 -0.018787 0.181380 0.257746 0.337655 0.154479 -0.120815 0.078768 0.237668 -0.085893 1.113679 -0.481413 0.735602 0.773545 0.412029 -0.611127 0.147900 0.297324 0.478414 -0.555018 -0.158512
सकता 0.285026 -0.073804 -0.213037 0.244233 -0.285853 -0.900154 0.432506 0.555104 1.093274 0.995712 -0.956855 -0.259788 0.368306 0.123263 -0.146549 0.330684 1.935883 -0.728220 -0.289706 -0.041859 0.800227 0.047513 0.327058 -0.716445 -0.287339 -0.818522 0.116585 0.299974 -0.659590 -0.785746 0.781650 0.102431 0.527531 0.086770 -0.515553 0.499924 0.529467 0.048868 -0.877643 0.393128 -0.505452 0.686081 0.146757 -0.689464 -1.489980 -0.161270 0.946612 -0.008554 0.071467 -0.128546
किया -0.393262 -0.223952 0.153272 -0.222624 -0.700696 -0.965155 0.211083 -0.007356 0.328747 1.193865 -1.099191 -0.366731 0.213446 -0.244410 -0.636835 0.344988 1.898841 -0.754886 -0.366415 0.259653 0.329555 -0.546247 0.584642 -1.403561 0.545413 -0.982603 0.120720 0.136419 -0.382565 -1.206035 0.364625 -0.452168 1.003936 -0.387367 0.008351 0.285972 0.972471 0.413351 -0.703667 -0.382532 -0.440825 -0.183421 0.359966 -0.290962 -1.585690 0.552795 0.951944 -0.102023 -0.252102 -0.737351
हो 0.158381 0.483180 -0.984563 0.897816 -0.644055 -0.508661 1.083899 0.080349 0.966346 -0.218675 -0.582951 -0.648978 1.094840 0.092932 0.932802 0.557479 1.553205 -0.256213 -0.498738 -0.280527 0.319763 0.722370 0.782192 0.411071 -0.524283 -0.207611 0.868035 -0.465995 0.345059 -0.487260 0.776632 0.418283 0.651530 0.265555 -0.162509 0.469424 0.380893 1.188497 0.040874 0.281774 -0.649731 0.218340 0.196838 -0.833739 -0.624460 -0.062560 0.640944 0.752762 0.771748 -0.015546
टैबलेट -0.259043 0.267408 -0.629830 0.150901 -0.238018 0.109094 0.354100 -0.634263 -0.388038 0.523011 0.732104 -0.042858 -0.191269 0.066773 -0.365297 0.296214 0.885264 0.025016 -0.182863 0.508374 -0.143271 -0.458892 0.093270 0.505713 0.695752 -0.625830 0.031750 0.369614 -0.031457 0.113190 0.024149 -0.120500 0.020278 0.550173 0.134595 -0.558743 -0.439645 -0.373791 -0.982267 0.792360 -0.061580 0.156542 0.172154 0.096730 -0.469016 0.980234 0.584599 0.310355 0.139284 0.472934
तक 1.144249 0.791229 -0.011382 -0.466304 0.538210 -0.417187 -0.205445 0.909518 0.024100 1.078233 -0.489629 -0.168206 0.232569 -0.806557 -0.337027 -0.503815 1.549594 -0.321904 -0.037035 0.256345 0.470647 0.089438 -0.629074 -1.533286 -0.127039 0.221745 0.171288 0.873028 -0.720133 -0.463563 0.358071 0.186328 -0.626946 0.984496 -0.484832 -0.616461 0.863126 -0.073687 -1.727832 -0.409017 -0.658008 -0.265595 0.011721 -1.692150 -0.568367 -0.092210 0.408013 1.228265 -0.531495 0.301025
इसका 0.353837 1.234043 -0.090187 -0.013160 -0.332773 0.090817 0.897301 -1.018198 -0.133552 0.558016 -0.061177 -1.003028 0.080113 -0.495268 -0.156517 0.051616 0.422909 -0.262054 -1.019248 0.934165 0.073233 -0.779869 0.448137 -0.007373 0.291120 -0.775599 0.481943 0.640511 0.369022 -0.987443 0.212786 0.187192 -0.488215 -0.690536 -0.259594 -0.581395 0.195217 0.147453 0.091413 0.792682 0.095266 1.288736 0.887136 0.415987 -0.584824 0.547406 0.395856 -0.033034 -0.034519 0.109354
अच्छी 0.162526 1.731918 -0.336313 0.044662 0.436406 0.079040 1.132432 -0.077223 0.184832 0.893461 -0.159267 -0.110349 0.897854 -0.710241 0.455427 -0.482100 0.641056 -0.386482 -0.191274 0.553779 0.836568 -1.110227 -0.230809 1.623634 -1.013842 -0.202703 -0.035937 -0.263202 -1.429485 0.017740 -0.014488 0.212350 0.231537 -0.297217 -0.353795 -0.216733 0.424220 0.216403 0.315861 0.847984 0.882670 -0.329767 0.383179 0.163635 -0.495063 -0.323771 0.818847 -0.109231 0.117558 0.907703
कुछ 0.510830 0.143919 -0.393312 0.053545 0.140685 0.315080 0.385861 -1.065108 0.342887 0.375050 0.003521 -0.474704 0.817988 -0.236876 -0.218869 -0.986668 1.208794 -0.939005 -0.747670 0.895873 0.350119 0.016092 0.115564 0.412037 -0.394467 0.316476 0.425979 0.169402 -0.300452 -0.241283 -0.702797 0.240625 0.411218 0.263220 -0.515833 0.388914 0.124625 0.550897 -0.964778 0.094571 -0.872629 -0.044872 -0.094598 -1.000827 -0.312990 0.287626 0.226727 0.645552 0.434097 0.050647
इसे 0.335606 0.333235 -0.165437 0.139467 -0.267142 -0.723776 -0.150399 -0.396133 0.090638 0.062614 -0.048861 -0.214537 -0.155198 -0.827330 -0.155532 -0.145772 1.623410 -0.326551 -0.787052 0.469821 -0.169165 0.471848 0.490233 0.076514 0.344444 0.090646 -0.104609 0.300735 -0.208875 -0.971919 -0.475532 -0.057188 0.573898 0.089385 -0.506201 0.219347 0.576165 -0.370201 -0.783122 -0.069131 -0.722455 0.160311 -0.369111 -0.274478 -1.264207 0.227964 0.711269 0.703023 0.284460 -0.011673
स्क्रीन -0.545590 0.473085 -0.205993 -0.205412 -0.640296 0.379701 1.146609 -0.264603 -1.001904 0.295286 -0.423681 -0.952112 0.082920 -0.647019 0.240946 0.473629 -0.526938 0.696376 -0.048408 -0.066630 0.042582 -0.770868 0.006586 0.407048 -0.693351 -0.698501 0.358112 -0.564795 -0.224662 -0.283845 0.299552 -0.076303 -0.556079 -0.873357 -0.175299 0.152363 0.553066 0.313996 -0.536411 0.685542 0.802568 0.448365 0.472721 0.883081 -0.579104 0.286724 0.946871 1.074276 0.155247 0.808588
आपको 0.037606 0.181993 -0.490268 -0.237393 0.316318 -0.243727 0.673071 -0.695418 0.221641 -0.103153 -0.121985 -0.773332 0.314689 -0.334811 0.548830 0.260764 0.766781 -0.276045 -0.927259 0.478385 -0.412942 0.271444 0.095138 0.984194 -0.178576 -0.225096 0.202646 0.480474 0.400324 -0.079732 -0.273441 0.296760 0.451559 -0.100293 -0.334934 0.509837 0.201802 0.135296 -0.696274 -0.137181 -0.540083 0.334478 -0.282636 0.098356 -0.709936 0.375695 0.552133 0.736293 -0.045773 -0.020344
डिवाइस -0.004824 0.251110 -0.642135 -0.289877 0.278019 -0.471199 0.350117 -0.893727 -0.280625 0.637171 0.254986 -0.294529 0.184108 -0.384435 0.297878 0.425351 0.969918 -0.347491 -0.518018 0.389881 -0.061735 0.049482 -0.002888 0.642976 0.201547 -0.591958 -0.204960 0.265299 0.023405 -0.107419 -0.329859 -0.036722 0.423494 0.262772 -0.406986 0.011333 -0.073521 -0.252085 -0.678122 0.291862 -0.272451 0.252221 0.121609 0.270565 -0.734705 0.691119 0.416383 0.477263 -0.207459 0.092828
कीमत -1.118337 0.498778 -0.346867 1.169446 0.166346 0.601834 0.909009 -0.771045 0.370179 -0.755049 0.344514 -0.179820 0.253985 -1.526325 -0.302752 0.026935 1.164755 0.138998 -0.243112 0.351264 0.002707 -0.569382 -0.745087 0.449386 -0.872514 -0.315767 -0.127298 -0.338534 -0.415472 0.072174 0.060377 -1.355014 0.047357 0.758177 -0.780119 -0.092073 -0.713889 -0.428696 -0.211691 0.819553 0.002783 -1.001903 0.211091 -0.008775 -0.239650 0.271923 0.129219 1.147616 -0.204136 0.449159
तरह -0.870055 1.155996 -0.248014 0.258542 -0.199666 -0.170053 0.527640 0.053520 -0.566660 1.289161 -0.228176 -0.148365 0.405711 -0.014218 -0.574988 -0.358536 1.293648 -0.219866 -0.395542 1.387811 0.157605 -0.781534 -0.349260 0.342354 -0.174724 -0.357876 0.196123 0.657998 -0.295593 0.433630 0.577125 -0.271499 1.028883 0.070332 0.058378 -0.313366 -0.122533 -0.275039 -0.596993 0.822727 0.394072 -0.778668 0.370970 0.054396 -0.635416 -0.292968 1.285007 0.149993 -0.008791 -0.013571
बैटरी 0.488645 1.722531 -0.328109 -0.095978 0.478712 0.382888 0.664993 0.578201 -0.060943 0.191731 -0.043227 0.699301 0.239670 -1.273481 0.391466 -0.510974 0.954561 -0.143431 0.404143 -0.078664 0.482658 -0.181549 -0.551254 0.616225 0.077158 -0.207533 0.192297 -0.098279 -1.071794 0.079700 -0.453594 0.285821 -0.209589 1.021011 0.583598 -0.785150 0.838317 0.710719 -0.373664 0.170284 0.155970 0.036979 0.831807 -0.237122 -0.069477 0.269238 0.701344 0.967916 -0.621322 1.630050
टेबलेट -0.130527 0.565687 -0.875488 -0.016334 0.468489 0.229746 0.596559 -1.179374 -0.046189 0.222682 0.781085 -0.584055 -0.383320 -0.264845 0.082987 0.652701 0.484630 -0.005592 0.147835 0.076554 0.278195 -0.974616 0.600055 0.387705 1.381765 -0.868208 -0.323375 0.282612 0.207455 -0.563460 0.543172 0.181293 -0.147188 0.845918 -0.559155 0.468903 -0.010053 -0.436411 -0.286277 0.845615 0.233965 -0.331440 -0.010355 0.765342 -0.911205 0.754119 0.058683 -0.500007 -0.203568 0.110733
इसकी 0.152769 1.303701 0.132710 0.452545 0.409496 -0.005253 0.923241 -0.249656 -0.175625 0.139826 0.395633 -0.328192 0.105222 -1.676275 0.440708 -0.541130 0.679369 -0.283104 -0.450753 0.231616 0.016844 -0.754544 -0.679014 1.268561 -0.676597 0.013041 -0.158863 -0.444238 -1.273092 -0.151848 -0.035152 -0.015045 -0.110940 -0.064943 -0.386403 -0.554992 0.517138 0.007767 -0.350817 0.253963 0.516448 -0.068457 -0.000360 0.248882 -0.583038 0.097434 0.795221 0.533411 -0.032008 0.956140
करता -0.779894 0.614075 -0.221858 0.836080 -0.048049 -0.390431 0.883708 0.156027 0.290727 1.109320 -0.748714 -1.165491 0.264617 0.377124 0.259796 0.195240 -0.022283 -0.022143 0.016131 1.111483 0.340213 0.324897 -0.690977 -0.363674 0.600439 -0.450601 0.047443 0.793054 -0.188164 -0.310286 0.238873 -0.555072 0.920921 -0.389794 0.317548 -0.198247 0.118406 0.266122 -0.933421 1.069810 0.022157 0.509556 0.439549 0.691407 -0.632864 -1.402111 0.016971 0.677519 -0.141870 0.251746
दिया -0.867552 -0.248709 -0.031149 -0.876586 -0.245608 0.075475 0.330860 -0.495533 -0.089450 1.308677 -0.468012 -0.101193 -0.416912 0.196479 0.600315 0.233529 0.449264 -1.046908 -0.128854 -0.493409 -0.292695 -0.017817 0.830532 -0.225190 -0.324065 -1.390944 0.478913 -0.013558 -0.353548 -0.223368 -0.425432 -0.783496 1.285214 -1.459029 0.339177 -0.191281 0.293338 0.671751 -0.577053 0.077062 0.075581 0.629530 0.637356 0.856592 -0.751270 0.443365 -0.115673 -0.354911 0.094598 0.063009
बात 0.321784 0.936316 -0.150540 0.613075 0.664978 -0.407414 1.294785 -0.571835 -0.092294 0.620787 -0.111608 -0.589266 0.760119 -0.365883 0.791157 0.273870 0.820054 -0.316220 -0.480042 -0.351408 0.218406 -0.701427 0.480445 1.532947 0.033850 0.866191 0.254590 0.229601 -0.887905 0.523943 0.756809 0.560833 -0.249663 -0.418616 0.180053 -0.057940 0.165911 0.306285 -0.200083 -0.176197 0.075994 0.370266 0.203788 -0.087558 -1.199309 1.617026 0.906818 1.519256 -0.050339 1.036418
काम -0.805770 0.425648 -0.839948 -0.001417 -0.044647 -0.492802 0.599200 -0.145191 0.020028 1.038884 -0.587423 -1.012973 0.279977 0.654410 0.183987 0.389656 0.573829 -0.060769 -0.307478 1.245428 0.528364 0.506530 -0.823271 -0.166516 -0.062284 -0.741849 0.003657 1.267824 0.619447 0.240186 -0.272175 -0.895742 1.018620 0.090429 0.109638 0.251990 -0.415772 0.265165 -1.068005 1.263519 -0.649797 0.269802 0.064737 -0.217528 -0.849441 -1.274676 0.234419 0.879502 -0.388965 0.160146
ये 0.152511 0.275722 -0.224490 -0.221219 0.554648 -0.459532 0.751597 -0.791355 -0.029708 0.645724 0.027113 -0.443870 0.249372 -0.081169 0.303481 0.359934 0.288438 -0.039418 -1.023279 -0.149471 0.177218 -0.420194 -0.037726 0.515416 0.172398 0.083305 -0.063158 0.357401 -0.111810 0.198127 0.330145 0.333664 -0.392777 -0.258934 -0.590709 0.432129 -0.243610 -0.327437 -0.364024 0.077061 -0.376343 0.211034 -0.028601 -0.035122 -0.836879 1.038139 0.208338 1.502637 -0.253223 0.019407
अपने 0.063760 -0.596272 -0.661642 -0.390373 -0.215869 -0.331259 -0.528697 -1.107675 -0.332128 0.636436 0.080145 -0.359920 0.280519 -0.114037 -0.178675 0.342601 1.058195 0.204424 -0.717394 0.438970 0.014541 0.139350 0.314161 0.489911 -0.016790 -0.347371 -0.453802 -0.297144 0.517177 0.079233 -0.457314 0.181262 0.509933 0.315354 -0.875394 0.477936 -0.369912 -0.456708 -1.006281 -0.394404 -0.242136 -0.723921 -0.504510 0.112010 -0.717246 0.194688 0.288139 0.705453 -0.458424 -0.237888
डिस्प्ले -0.064033 0.841531 -0.538584 -0.560647 -0.839090 0.340974 1.398242 -0.838073 -0.734191 0.395551 -0.172530 -0.869130 0.030739 -0.602135 0.045027 0.303479 -0.594334 0.126034 -0.719197 0.617892 0.324707 -0.743668 0.236981 -0.081907 -0.185820 -0.817753 0.994962 0.066273 0.265835 -0.557683 0.251684 0.268300 -0.677345 -0.929802 -0.389359 0.197851 0.551281 0.379548 0.771274 0.822945 0.671343 0.526281 0.611934 0.750306 -0.314817 0.452351 0.874110 0.106894 0.050018 0.372096
सबसे 0.721354 1.506258 -0.324152 -0.029680 0.522606 -0.273961 0.653463 -0.825686 0.114243 1.033629 0.185457 0.031369 0.216988 -0.581119 0.385770 -0.134111 0.147091 -0.508503 -0.330512 -0.302606 0.413183 -0.334622 0.228805 0.408739 0.335936 0.836078 -0.131961 0.692956 -1.021881 -0.679899 0.852468 1.054666 -0.740517 -0.093724 -0.090007 -0.478745 0.265247 -0.130875 -0.061198 0.157356 -0.174481 -0.109328 0.222746 -0.353502 -0.233820 1.575775 0.178457 1.269859 -0.102966 -0.318072
कम -0.539973 0.932846 -0.453308 0.331911 -0.175451 0.675870 1.203350 -1.258377 0.261043 -0.167730 0.035220 -0.603433 0.702156 -1.452763 0.077687 -0.402186 0.928042 -0.201453 -0.495830 0.751598 0.197087 -0.341453 -0.062581 0.007570 -0.922663 -0.140656 0.473635 0.017898 -0.019977 -0.108389 0.331402 -0.721924 -0.046873 0.125952 -0.165648 0.093130 -0.138278 0.266935 0.717514 0.644864 -0.701370 -0.161786 0.322263 -0.608980 -0.480245 0.627405 0.467597 0.371113 0.182512 -0.051047
इस्तेमाल -0.093772 0.641467 -0.401053 -0.538063 -0.138460 -0.574844 -0.025705 0.042827 0.158460 0.489721 -0.890102 -0.452187 -0.109440 -0.489649 -0.044266 -0.097196 1.466797 0.103366 -0.483000 1.004524 0.670617 -0.216709 0.518431 -0.330185 0.289816 -0.707057 -0.056795 0.886360 0.298459 -0.580344 0.157468 -0.057204 0.437028 -0.227703 -0.259678 0.475553 0.347422 -0.628467 -0.762618 0.375173 -0.467728 0.345819 -0.059961 -0.375178 -1.135088 -0.528089 0.489641 0.475381 0.299328 0.163540
बेहतर 0.090664 0.973120 -0.465270 -0.008728 -0.328960 0.136467 0.674371 -0.784350 0.631722 0.694667 -0.697673 -0.134739 0.409830 -0.310741 0.251382 0.090495 0.348461 -0.230638 -0.439763 0.771348 0.648553 0.205247 -0.069645 0.476460 -0.132574 -0.057014 -0.329155 0.453545 -0.219276 -0.481124 0.074151 0.149832 0.109055 -0.038909 0.075037 0.180723 0.194552 0.165886 0.031440 1.386007 -0.445540 0.071974 0.655811 0.182999 -0.409900 0.257165 0.316108 0.430147 0.063641 -0.016336
प्रोसेसर -0.165787 0.371702 -0.593166 0.081619 -0.040531 0.898101 -0.153639 -0.062170 -0.098336 1.380756 0.846431 0.036197 -0.154996 0.389977 0.279179 -0.079667 -0.074729 -0.107837 0.454321 0.239267 -0.285332 -0.362579 0.770931 0.426730 -0.837409 -1.790620 0.521554 0.520807 -0.011737 0.062005 -0.578860 -0.520860 -0.158119 -0.407174 0.708721 -0.895840 -0.367235 0.491367 -0.979231 0.664027 0.210137 1.672791 -0.003168 0.303540 0.380126 0.692998 -0.796356 -0.319925 0.276150 0.246353
ज्यादा 0.458712 0.963693 -0.248857 0.106066 0.002014 0.311625 0.458021 -0.466587 0.416012 0.493274 -0.598388 -0.289712 0.788225 -0.563520 -0.047915 -0.662409 0.681742 0.093298 -0.341997 0.457781 0.415347 -0.085669 0.251915 0.203298 -0.885865 0.235488 0.393842 0.551406 -0.119661 -0.350649 0.018758 0.094337 -0.025154 -0.410730 -0.179176 -0.208873 0.221213 0.192321 -0.065392 0.869772 -0.267071 0.372248 0.050634 -0.492806 -0.273565 -0.219078 0.002928 0.782173 0.346785 -0.028705
गई -0.119898 0.008392 -0.881678 0.351285 -0.273494 0.372203 1.138331 0.295185 0.128755 -0.261577 0.010548 0.084393 0.670406 -0.723670 0.930972 0.543590 0.672933 -0.417144 0.873284 -1.094226 0.249169 0.439981 0.292916 0.044121 -0.816562 -0.474533 0.765458 -1.565417 -1.161386 0.046721 0.155635 -0.339848 0.199634 0.249321 -0.177525 -0.029552 0.982214 1.007035 -0.074056 0.331632 0.633579 -0.838171 0.177454 0.189012 -0.421939 -0.147481 0.885845 0.689536 0.298824 1.605432
कोई -0.211601 0.124241 -0.040955 -0.085767 0.582887 0.278502 0.874663 -0.325001 0.146527 0.424157 -0.575807 -0.385323 0.149807 0.014587 0.581974 -0.316104 0.685871 -1.321514 -0.861099 0.150313 0.196235 0.346442 0.013759 0.973179 -0.232554 0.757842 0.648557 0.931581 -0.395301 0.997402 0.391213 -0.340225 0.527987 -0.774267 0.513627 -0.052500 -0.259601 -0.052844 -0.152698 0.420227 -0.102221 0.545895 -0.322940 -0.623672 -1.147275 0.754931 0.412207 0.353965 0.785117 0.901580
होने -0.209758 0.795597 -0.349240 0.199941 -0.479629 0.258682 0.648862 -0.340243 -0.140885 0.250514 0.284176 -0.282648 0.277598 -0.432160 -0.058000 0.330272 0.665252 -0.132558 -0.717277 0.306709 0.287076 -0.266073 -0.870322 0.696316 -0.830711 -0.202412 0.717251 0.363004 -0.035933 0.015961 0.538276 -0.262921 -0.071917 -0.715262 0.368727 -0.567513 -0.439754 -0.102620 -0.135486 0.658950 0.079665 -0.182253 -0.204235 -0.451114 -0.528255 0.659190 0.744039 1.140196 0.542159 -0.485505
वाले -0.748016 0.137487 -0.782016 -0.972773 -0.330192 0.857678 0.400018 0.062366 0.078982 0.266578 -0.028002 0.262270 -0.012974 -0.777736 -0.783869 0.754053 0.460615 0.932796 -0.480090 0.569634 0.611462 -0.518925 -0.229306 -0.032306 -0.271691 -0.939050 -0.149250 0.456839 -0.051987 0.727510 0.331946 -0.366109 -0.358182 -0.080495 -0.636788 0.432022 -0.188525 -1.094497 -0.557830 0.807174 0.196521 -0.225285 -0.180459 0.321813 -0.545268 0.400835 0.428692 1.052405 -0.161068 0.518147
या -0.177054 -0.388048 -0.537186 0.137330 -0.488934 0.219502 0.322988 -0.314417 0.386751 -0.409926 -0.545639 -0.418867 0.055668 0.012467 -0.195908 0.292738 1.038498 -0.235475 -0.359378 0.737573 0.158098 0.346261 0.255506 0.416612 -0.336007 0.540683 -0.130474 0.051818 0.375968 0.357423 -0.041298 -0.250870 0.164495 0.134112 -0.166494 0.389316 -0.663721 -0.614178 -0.533160 0.835150 -0.512772 0.597312 -0.063012 -0.896488 -0.557677 0.141537 0.629358 0.194593 0.421490 1.268323
इंच -0.973111 -0.104525 -0.533596 -0.956993 -0.450923 0.917208 1.003906 -0.175979 -1.339025 -0.151611 0.380379 -0.222564 -0.422280 -0.798505 0.210845 0.878057 -0.812166 0.881643 0.342421 -0.238648 -0.267687 -0.368144 0.096504 -0.278039 -0.272287 -0.339842 0.899877 -0.695495 -0.344641 0.289805 0.475753 0.505894 -1.125909 -0.345493 -0.196553 0.062767 0.434360 0.200738 -0.309350 0.459081 0.774511 -0.269011 0.675538 0.839899 -0.238735 0.802123 1.161943 1.054282 0.054015 1.131829
अगर 0.443167 0.208600 -0.396216 0.366402 0.679268 -0.353496 0.435327 -0.971456 -0.391405 -0.632327 0.390348 -0.848057 0.076217 -0.601541 0.720083 0.465706 1.102614 -0.015394 -0.969142 0.298254 -0.648789 -0.470662 0.572336 1.358492 0.028172 0.327237 0.226470 -0.046621 0.513567 0.190247 0.149583 0.440875 0.069153 0.352026 -0.615173 0.307608 0.056580 -0.050947 -0.410277 -0.565503 -0.112638 0.219607 -0.045856 -0.125899 -1.000013 0.593093 0.784960 0.597808 -0.037720 0.631322
करते 0.226605 0.297624 -0.794027 -0.195559 0.846802 -0.266290 0.300233 0.024759 -0.042072 0.098321 -0.839426 -0.580268 0.786591 -0.114998 0.124923 0.160628 1.163247 0.213451 -0.283601 0.257443 0.089834 0.559120 0.225035 0.226233 -0.174061 0.484470 -0.088415 0.769277 0.743504 0.529742 0.094627 -0.611998 1.069011 -0.001923 -0.406848 0.581409 0.043002 -0.454287 -0.206586 0.238982 -0.251360 -0.439767 -0.652612 -0.074874 -0.909626 -0.686866 -0.165433 0.599324 0.013770 0.430301
जीबी 0.225665 0.154675 0.101965 -0.303838 0.043358 0.502827 -0.463239 0.103277 -0.098272 1.133859 0.553112 0.293980 -0.843489 -0.958157 0.111911 0.216076 0.381731 -0.625518 1.277399 -0.600470 0.248902 0.232746 0.726700 -1.686298 -0.722407 -0.320190 -0.339375 -0.408218 -1.103949 -0.435593 0.319961 -0.037280 -0.113622 0.094084 0.146627 -0.978412 0.202821 -0.100040 -1.525443 -0.059468 -0.625741 0.700732 -0.365063 -1.339690 -0.420753 0.493604 0.470241 -0.949937 0.458634 0.666732
था -0.187772 0.035411 -0.052632 -0.194456 -0.128184 -0.777178 0.577578 -0.275694 0.273180 0.376994 -0.661947 -0.828331 0.137292 0.233216 0.508232 0.094278 1.218044 -0.804530 -0.426285 -0.457303 0.118203 -0.123384 0.119718 -0.495712 -0.249123 -0.880782 0.131452 0.193857 0.144405 -1.249295 0.044271 -0.409425 1.129453 -0.102600 0.353741 0.333024 0.333418 1.122794 -0.309488 -0.043988 -0.574953 0.031359 0.278300 -0.150860 -0.911737 0.273047 0.421526 -0.093233 -0.308009 -0.647627
जाता 0.402753 -0.027524 -0.371594 0.391421 -0.695199 -0.650577 0.222974 0.091991 1.284465 0.611829 -0.990672 -0.540757 0.755370 0.381600 0.144857 0.180715 1.174185 -0.469220 -0.263898 -0.199553 0.178929 0.733813 0.832943 -0.299156 -0.273706 -0.510424 0.530819 -0.047418 0.208268 -1.260870 0.679869 0.302371 0.608066 -0.314805 0.001862 0.083098 0.420376 0.842483 -0.457439 -0.198841 -0.721699 0.575179 0.212144 -0.711579 -0.339863 0.284290 0.109469 0.198679 0.385936 -0.806973
यहां 0.469183 0.158964 -0.603401 -0.497389 0.240961 0.497678 -0.165113 0.399735 -0.268959 0.410910 -0.326914 -0.311334 -0.077091 -0.027854 -0.677252 0.133816 0.441215 0.138474 -0.062154 0.124782 0.138381 -0.016980 0.041315 -0.419349 -0.327990 -0.082866 -0.246843 0.448254 0.296662 0.381151 0.439272 -0.071280 -0.544470 0.544810 -0.308679 0.115314 0.045062 -0.345866 -1.415522 -0.005100 -0.275190 -0.138814 -0.454153 -0.893003 -0.182250 0.458410 0.122872 0.459492 -0.022879 0.696745
2 -0.031870 -0.069336 0.206277 -1.275949 -0.253688 0.398719 -0.573983 -1.108431 -0.768246 1.114362 0.715208 0.725144 -0.588411 -0.576987 0.458697 0.457195 0.315599 -0.717784 0.293954 -0.388095 -0.395139 -0.211531 0.766771 -0.568891 0.419297 0.079799 -0.504832 -0.063228 -0.491288 0.311777 -0.632461 0.245759 0.008856 0.006326 0.674510 -0.518586 -0.033499 -0.598212 -0.877586 0.415119 -0.544863 0.208159 0.641744 -0.317610 -0.436945 1.234552 0.772001 -0.397739 -0.080796 0.432143
तथा -0.115914 0.248560 -0.189722 -0.306326 0.098843 0.326811 0.033439 -0.020399 -0.325670 0.511037 0.223308 -0.291029 -0.142019 -0.394160 0.252007 0.050671 0.007355 -0.138744 0.298314 0.410991 0.060551 -0.065269 0.204555 0.297026 -0.436378 -0.496843 -0.172521 0.030120 -0.260035 -0.399416 -0.645727 -0.123353 0.368455 -0.235030 -0.108309 -0.387752 -0.029873 -0.057557 -1.063437 0.696422 -0.008914 0.758874 0.127651 0.032281 0.077416 -0.066491 0.120801 -0.294777 0.352113 0.827567
अपनी -0.174077 -0.188026 -0.311914 -0.058318 -0.024211 -0.239261 0.077337 -0.415186 -0.656831 0.376815 -0.117052 -0.524485 0.626020 -0.292979 0.106625 0.265776 0.784413 0.149589 -0.422476 -0.095562 -0.142502 -0.014058 -0.102921 0.663826 -0.493278 0.070790 -0.431924 -0.649230 0.140984 0.350207 -0.108413 -0.380016 0.927943 0.255660 -0.503578 0.157196 -0.188501 -0.057644 -0.593792 -0.175234 0.163724 -0.999765 -0.242879 0.259102 -0.756447 -0.103160 0.362459 0.681155 -0.219351 0.217339
देता 0.320833 0.907232 -0.139243 -0.030994 -0.492694 -0.556030 0.777360 0.357750 0.628408 0.651549 -0.586716 0.034860 0.689260 -0.509399 0.423406 -0.041830 0.867349 -0.286106 0.033596 -0.229053 0.222834 0.737062 -0.251344 0.509613 -0.055773 -0.397613 -0.256118 0.321936 -0.366606 -0.568584 0.002331 0.024030 1.033317 -0.708176 0.081954 -0.353776 0.548145 0.100441 0.287989 0.783867 -0.076580 0.192042 0.591571 1.198175 -0.601093 -0.779624 -0.042938 0.375833 0.196207 -0.125468
हालांकि -0.139412 0.143085 0.065243 0.224458 0.115585 -0.241245 0.337601 -0.234618 -0.424101 0.220937 0.061465 -0.591872 0.122438 -0.135218 -0.208988 -0.356926 0.620265 -0.120085 -0.674908 0.585274 -0.055626 -0.324883 0.121719 0.695527 0.174909 -0.109957 0.226419 0.222742 -0.259514 0.201342 -0.093882 0.057110 0.139884 -0.330763 -0.012411 -0.185786 -0.051266 -0.209360 -0.555403 -0.161527 0.020716 0.596459 -0.079304 -0.013764 -0.758682 0.774172 0.679610 0.261708 0.441611 0.615744
स्मार्टफोन -0.509429 0.201121 -0.600175 -0.487026 0.105157 0.009504 0.411987 -0.855650 -0.001537 0.313479 0.040199 0.047342 0.048480 -0.557213 -0.159106 0.423073 0.579562 -0.013634 -0.524701 0.493767 0.061733 0.056412 0.015867 0.088995 0.389205 -0.380479 0.179211 0.500874 0.006413 -0.081067 -0.125825 -0.051474 0.096682 0.126610 -0.213752 0.012681 -0.195357 -0.476250 -0.351226 0.389803 -0.320949 -0.158228 0.231462 0.202384 -0.547176 1.027796 0.451086 0.778738 -0.280101 -0.208230
समय 0.649984 0.378109 -0.411961 0.090533 0.699819 -0.030202 0.443658 -0.147310 0.268797 -0.101113 -0.426406 -0.536793 0.608095 -0.559374 -0.551539 -0.697583 1.367711 -0.360468 -0.551664 0.805725 -0.107507 0.302375 -0.158552 -0.064549 -0.230540 0.467136 -0.165120 0.584503 0.459014 -0.071839 -0.230964 -0.659355 0.210220 0.439276 -0.834534 0.143589 -0.103753 -0.500125 -0.145609 0.041503 -0.761298 -0.366741 -0.421137 -0.919338 -0.646796 0.102646 -0.188557 0.805594 -0.228184 0.271694
होता -0.032335 0.599167 0.102529 0.673974 0.096531 -0.844788 0.742995 -0.204343 0.370369 -0.104590 -0.488867 -0.462187 0.482351 0.122678 0.559536 -0.372618 0.596705 -0.519258 -0.515640 -0.007991 -0.064657 0.428920 0.014794 0.018047 0.240030 0.410612 0.492091 0.846148 0.151613 -0.479441 0.215160 -0.197852 0.633504 -0.000958 0.376113 0.000033 0.184156 0.566566 0.290299 0.400020 -0.578294 0.425911 0.348351 -0.075501 -0.657747 0.046871 0.299126 0.610783 0.094939 -0.533338
रहे 0.867245 -0.466273 -0.920731 -0.321230 0.470416 -0.555046 0.198277 0.453577 0.380256 -0.307802 -0.727756 -0.240330 0.332907 0.165392 1.092158 0.641257 1.208145 -0.144501 -0.114744 -0.420976 0.075914 0.401625 0.524046 0.150047 -0.453921 0.003170 -0.273665 -0.246031 0.901746 0.520016 0.298694 0.351623 0.544285 0.519060 -0.683924 0.992323 -0.126163 0.161546 -0.480992 0.227596 -0.616528 0.027346 -0.127522 -0.342855 -0.740695 -1.117650 0.038038 0.370382 0.017908 0.699449
वीडियो -0.298477 -0.340976 -0.535165 -1.025889 -0.593793 0.196435 0.375051 0.970065 0.328346 0.495750 -1.184222 -0.381837 -0.049687 -0.538918 -0.164582 0.440780 -0.147264 0.502047 -0.091298 1.233455 0.879381 -0.197392 -0.059334 0.598168 -0.268234 -0.520575 -0.067850 -0.354341 -0.072569 -0.309712 -0.125530 -0.225412 -0.358859 -1.176342 -0.822777 0.387985 0.305090 -0.738522 -0.258030 0.194765 0.269644 0.316478 0.307096 -0.298281 -0.047941 -1.228855 0.231241 0.222342 0.318002 1.042313
जैसे 0.160957 -0.236227 -0.419920 -0.279899 0.618809 0.255918 0.042718 -0.640917 -0.427103 0.215863 0.298384 -0.672218 0.150796 0.297880 -0.119952 -0.386166 0.178740 -0.460243 -0.638532 0.322239 0.283924 -0.155607 0.024917 0.619467 -0.575885 0.010104 -0.098809 0.007360 -0.199575 0.061170 -1.057369 0.345515 0.149787 0.281687 -0.613141 0.243105 -0.469459 0.002229 -1.461633 0.302699 -0.315149 0.423938 -0.241276 -0.550332 0.139695 -0.029255 0.018167 -0.285651 0.331396 1.283092
लगता 0.102289 0.833095 0.304674 0.761479 0.230183 -0.784004 0.930573 -0.601739 0.436838 0.597902 0.166085 -0.572983 0.478452 -0.138310 0.179633 -1.021892 0.691858 -0.933452 -0.771873 0.269939 -0.206879 0.188440 -0.099662 -0.122128 0.267172 0.270696 0.102598 0.917328 -0.242245 -0.432436 0.044683 0.176890 0.440928 0.158209 -0.042409 -0.173804 0.394716 0.216403 -0.221300 0.716551 -0.435349 0.036995 0.083980 0.135416 -0.560348 -0.160046 0.010618 0.709066 0.041297 -0.655921
कई 0.166628 -0.038901 -0.673816 -0.405602 0.248458 0.393768 -0.008820 -0.506065 -0.085647 0.444394 0.255899 0.374056 0.250756 0.369162 -0.391296 -0.419931 0.554359 -0.046598 -0.622733 0.653988 0.159317 0.328959 -0.414088 0.858816 -0.223037 -0.052114 0.133570 0.448846 -0.172854 0.973279 -0.711924 0.623970 0.460199 0.533623 -0.428957 0.270035 -0.281298 -0.170541 -1.059967 0.350160 -0.448291 -0.164576 -0.321118 -0.351917 0.098330 -0.056363 0.119323 0.548870 0.090176 0.361557
शानदार 0.432642 1.040491 -0.531340 -0.613917 0.176402 0.202877 0.631574 -0.727281 0.383300 0.430036 -0.154573 0.177971 -0.030704 -0.727579 0.369717 0.010585 -0.000954 -0.307611 -0.155734 0.425554 0.608011 0.138358 -0.150164 0.635782 -0.079220 -0.227051 -0.311795 0.136630 -0.455001 -0.695260 -0.396502 0.249704 -0.040699 -0.373347 -0.318653 -0.032698 0.379695 0.021146 0.290194 0.772158 -0.048631 -0.037624 0.352795 0.378006 0.076092 0.300084 -0.148199 -0.043063 0.106004 0.300258
क्वालिटी 0.131277 0.963662 -0.283949 -0.196404 -0.026379 0.249890 0.729735 -0.423052 0.230330 0.573839 -0.379276 -0.234483 0.251550 -0.892089 0.241470 -0.302773 -0.242590 0.041092 0.192783 0.618273 0.700036 -0.684787 -0.109703 0.997394 -0.634543 -0.019307 -0.325577 -0.335161 -0.635588 -0.364836 -0.310382 -0.004360 -0.121942 -0.914357 -0.169715 -0.264267 0.521354 -0.155760 0.510663 0.950434 0.299350 0.019039 0.730780 0.486518 -0.000063 -0.418339 0.106135 -0.196358 0.264819 0.845435
किसी -0.063913 0.004363 -0.041402 -0.247607 -0.365094 -0.033201 0.247740 0.458133 -0.389123 1.004380 -0.323668 -0.316060 0.541247 0.010286 -1.018378 0.030435 1.251194 -0.746861 -0.906524 1.132746 -0.281187 -0.265474 -0.265481 0.392007 0.194990 0.010379 0.138686 0.738278 0.064156 0.785157 0.563430 -0.307698 0.747503 -0.034961 0.088246 -0.349459 -0.140801 -0.412829 -0.389684 0.108432 0.269840 -0.202415 0.031813 -0.073906 -0.515118 0.511456 0.832127 -0.049881 0.330301 0.525149
गए 0.524574 -0.289043 -1.123389 -0.998907 0.690821 1.169115 0.060276 0.332180 0.432163 0.502661 -0.495526 0.405324 0.479119 0.031157 0.122782 0.301996 0.627909 -0.362798 0.071898 -0.093151 0.995649 0.660172 0.101042 0.304768 -1.553280 -0.288107 0.289859 0.086543 0.089435 0.457784 -0.633574 0.032025 0.477231 -0.057677 -0.490563 0.460534 -0.169771 0.370978 -0.621791 0.256776 -0.164605 -0.115914 -0.616758 -1.135195 0.348095 -0.199582 -0.025075 -0.753569 0.566255 1.061122
देखने -0.050170 0.422161 -0.419039 -0.194919 -0.411381 0.027047 0.284032 -0.430880 -0.134030 0.840025 -0.467680 -0.736239 0.257892 -0.142907 -0.038881 -0.015487 0.348676 0.002440 -0.524800 0.990853 0.028215 -0.180284 0.237251 0.301698 0.343318 -0.383881 -0.380543 0.259343 0.412247 0.130135 0.002898 -0.111007 -0.004650 -0.046576 -0.366902 0.064912 -0.019358 -0.125056 -0.556116 0.547174 0.048085 0.104022 0.013898 0.341679 -0.292912 -0.246406 0.072242 0.303128 0.016662 0.391108
दी -0.287090 -0.184346 -0.657440 -0.240292 -0.404009 0.472411 1.040719 0.625582 -0.077077 0.162573 0.118851 0.061528 0.391716 -0.551981 0.686867 0.522095 0.439011 -0.446484 0.937525 -0.938200 0.262456 0.403956 -0.107737 -0.073648 -0.717951 -0.941242 0.225094 -1.577862 -1.320956 0.293165 -0.159104 -0.571099 0.220496 0.163896 -0.171103 -0.110152 0.912965 0.967664 -0.366384 0.163904 0.866087 -0.525882 0.175239 0.424526 -0.407766 -0.174945 0.615971 0.473457 0.102610 1.836810
रूप -0.428223 -0.101192 -0.044090 0.290324 -0.400878 -0.523218 -0.389278 -0.441261 -0.178869 0.470148 -0.197890 0.060887 -0.193359 0.225890 -0.442241 0.108613 0.723579 0.063692 -0.067240 0.387406 0.128532 0.042643 0.286223 -0.461345 0.159499 0.050326 0.353205 0.523984 0.022073 -0.491859 0.078464 0.195108 0.436384 0.221022 -0.133938 -0.063193 0.068623 -0.073189 -0.959694 0.684937 -0.315641 -0.352326 -0.045222 -0.581897 -0.674378 -0.119446 0.882496 0.348758 0.136474 -1.024017
अन्य -0.239300 0.366392 -0.579093 -0.296848 -0.046915 0.647280 -0.128740 -0.841010 -0.166351 0.793132 0.154605 0.655853 0.226812 0.004037 -0.866381 -0.620659 0.710556 0.088780 -0.557441 0.801979 0.478978 -0.038348 -0.436340 0.494635 0.172869 -0.076211 -0.136663 0.251069 -0.384724 0.836547 -0.625884 0.271252 0.406055 0.680071 -0.388607 -0.120055 -0.360733 -0.280845 -0.765417 0.664024 -0.376513 -0.621802 -0.027226 -0.115144 -0.039228 0.519144 0.193961 0.058575 0.166103 0.408474
अलावा -0.221660 -0.124249 -0.470959 -0.870103 0.259864 0.571466 0.052229 -0.441920 -0.459999 0.694483 0.348986 -0.219555 -0.143389 -0.207482 -0.096914 0.306914 0.165199 -0.550074 -0.605434 0.681807 0.244741 -0.288890 -0.192305 0.539220 -0.439327 -0.203895 0.708496 0.088740 -0.579041 0.426951 -0.310359 0.044940 -0.179550 -0.320700 -0.404344 0.033443 -0.087984 -0.041960 -0.518369 -0.406152 0.123684 0.022268 -0.399184 -0.583173 -0.369943 0.862477 0.786461 -0.482094 0.382574 0.594151
वाला -0.660794 0.829600 -0.619540 -0.508329 0.037418 -0.250374 0.640351 -0.581135 0.597033 0.432462 -0.141381 0.364111 0.059766 -0.669988 0.367951 0.789577 -0.103740 0.416960 0.024058 0.101762 0.543692 0.003479 0.034814 0.008861 0.794370 -0.416630 -0.505942 0.538804 -0.458845 -0.292803 0.480191 0.318335 -0.116074 -0.180731 0.045757 0.494863 0.130344 -0.566504 0.607822 0.983038 -0.377394 0.027024 0.541639 1.030777 -0.562089 0.552064 -0.021866 0.600030 -0.220578 -0.313052
रहा 0.021121 -0.121063 -0.380118 -0.275038 0.001289 -0.610805 0.636524 0.013213 0.855703 0.321504 -0.473004 -0.670651 0.164521 -0.097184 0.583259 0.484291 0.984480 -0.741396 -0.537128 -0.108002 0.124997 0.271900 -0.342151 -0.332266 -0.551733 -0.973028 0.317116 0.115433 0.317822 -0.910665 0.065079 -0.441784 0.920515 0.048281 -0.160161 0.553305 0.102345 0.982850 0.218264 0.100916 -0.698648 -0.026671 0.335315 -0.194724 -0.685883 -0.578287 0.097321 0.039526 -0.229657 -0.650410
इन 0.268554 0.061293 -0.258878 -0.515761 0.203903 0.188296 -0.192659 -0.460168 -0.553358 0.712677 0.170590 -0.135342 0.182992 -0.055272 -0.177561 -0.034571 0.401454 0.308578 -0.337285 0.111107 -0.501388 -0.235616 0.471730 0.655391 -0.227274 0.085773 -0.020900 -0.097640 0.157212 0.588065 0.061613 0.488001 0.113981 0.085372 -0.565380 0.246881 0.122029 -0.041398 -0.600185 -0.526898 -0.332487 -0.248850 -0.286698 0.061767 -0.234923 0.576577 0.176934 0.713385 -0.055262 0.127114
तरफ -0.194831 0.064116 -0.293640 -0.774056 1.023945 1.144414 -0.121010 -0.735050 -0.213266 0.589196 -0.031347 0.573032 -1.074258 -0.314282 0.394064 0.445263 -0.100383 -0.656458 0.472119 -0.885264 -0.082027 0.438814 0.286543 0.735221 -0.268497 -0.032825 0.077529 -0.312444 -0.498767 0.390257 -0.002730 -0.117842 0.867798 -0.933386 -0.309317 0.224304 0.116657 0.252068 -0.197095 0.062980 0.211302 -0.476384 -0.251420 0.550688 -0.473612 0.585834 -0.574175 -0.959004 0.482654 0.258579
कार्ड 0.280876 -0.351837 0.227856 -0.043366 0.705939 -0.186531 -0.104590 0.477198 0.423045 0.303157 0.150561 -0.156460 -0.767355 -0.359013 0.774054 -0.268588 0.638903 -0.897721 0.608637 -0.242356 -0.081194 0.450093 0.648896 -1.195580 -0.133724 -0.426927 -0.879008 0.231861 0.046592 -0.308398 0.544136 0.416934 0.397603 -0.283112 0.039856 0.251667 0.653808 -0.887914 -2.004395 0.316009 -0.104723 0.404475 -0.926193 -0.374601 -0.335661 -1.394521 -0.259042 -0.720444 0.864584 -0.412677
टीवी -0.289748 -0.842129 0.041628 -0.427798 -0.230091 -0.363646 0.340116 -0.074951 -0.451489 -0.338548 0.255455 -0.214307 0.102329 -0.032282 -0.049806 0.616173 -0.179068 0.676084 -0.521606 -0.347897 -0.161683 -0.498263 -0.182612 -0.125788 -0.235494 -0.369337 -0.485094 -0.611212 0.437878 0.431619 0.154534 -0.240687 -0.454252 -0.045941 -0.682531 0.551022 -0.289564 -0.679869 -0.264925 -0.339435 0.195407 -0.494917 -0.044896 0.249845 -0.229005 -0.009603 0.256269 1.001676 -0.305745 0.256725
बार -0.404984 -0.171893 -0.211604 -0.135549 -0.373341 -0.339137 0.157572 -0.098458 -0.190439 0.222490 0.153931 0.216335 0.361318 0.752756 -0.302570 -0.629718 0.881754 -0.102887 -1.053093 0.510996 -0.335352 -0.011162 -0.073175 0.695815 0.320004 -0.468149 0.302989 0.420511 -0.189058 1.135222 -0.605839 0.590637 0.368021 0.903325 -0.049235 0.604270 0.135188 -0.063847 -1.203812 0.064398 -0.640147 -0.014323 -0.016355 -0.280484 -0.382848 0.010502 0.578266 1.476525 -0.642998 0.024916
हुए 0.043180 0.009757 -0.678208 -0.113385 0.916290 -0.144596 -0.077624 -0.086722 -0.079744 0.233750 -0.502072 -0.342316 0.553888 0.288648 0.013811 -0.143456 0.745016 0.129144 -0.326130 0.082847 0.096796 0.578782 0.096252 0.205672 -0.406439 0.427003 -0.117668 0.669384 0.584013 0.840927 -0.332422 -0.308457 0.694680 0.396542 -0.659578 0.557201 -0.505040 -0.341253 -0.509997 0.260411 -0.401368 -0.490658 -1.010830 0.094303 -0.579214 -0.357058 -0.199709 0.399312 -0.023717 0.427543
खास 0.192369 0.496799 0.082631 0.023188 0.751199 -0.254534 0.832958 -0.414985 0.342440 0.799207 -0.167274 -0.337012 0.412661 -0.062172 0.311595 -0.169834 0.288160 -0.831159 -0.790717 -0.070526 0.582854 -0.209825 -0.241194 0.887576 -0.034045 1.102891 0.128884 0.693935 -1.030135 0.514100 0.513406 0.357465 -0.339659 -0.446104 0.255583 -0.081551 -0.102675 -0.192485 -0.525343 0.044186 -0.078451 0.170003 -0.528878 -0.790073 -0.623763 1.179454 0.266381 1.527861 0.291187 0.365397
सकती 0.347129 0.147638 -0.656734 0.280217 0.020162 -0.430966 0.841516 0.934767 1.017744 0.198864 -0.845495 -0.097521 0.620473 0.106844 0.693096 0.500458 1.300789 -0.465803 0.032346 -0.565464 0.759990 0.200779 0.104586 0.247633 -0.758929 -0.153864 0.509592 -0.268744 -0.694148 -0.106523 0.857903 0.282864 0.209198 0.204359 -0.385143 0.459551 0.580791 0.732754 -0.198600 0.226459 -0.122680 0.098622 0.136858 -0.767031 -0.879481 -0.447244 0.885188 0.088712 0.272565 0.571559
कारण 0.258657 0.537779 -0.163704 0.303110 -0.307563 -0.006571 0.599236 -0.526941 0.020098 0.520346 0.236549 -0.351445 0.365674 -0.273107 -0.091795 0.172507 0.596921 -0.293365 -0.819334 0.054664 0.348714 -0.296703 -0.412016 0.451655 -0.680363 -0.035504 0.446491 0.331313 -0.220683 -0.437364 0.332984 0.080452 -0.283284 -0.548394 -0.190624 -0.401288 -0.250255 -0.087747 -0.411322 0.368128 0.091014 0.261979 -0.326407 -0.429193 -0.373027 0.865463 0.368543 0.933367 0.399285 -0.297061
करती -0.581426 0.034324 -0.335800 0.585198 -0.175338 -0.320083 0.804411 0.503494 0.121550 0.515796 -0.643174 -0.624685 0.270110 0.325263 0.565781 0.044386 0.379413 -0.110306 0.279676 -0.063400 -0.061220 0.614500 -0.066587 -0.495886 0.277869 -0.667376 0.375526 0.249030 -0.046635 -0.116647 0.252059 -0.450695 1.055377 -0.320162 0.359655 -0.199268 0.417733 0.526770 -0.424777 0.589187 0.312380 -0.287058 -0.120397 1.042228 -0.576673 -1.033570 0.109575 0.547452 0.223350 -0.080182
दो 0.392723 0.224055 -0.638468 -1.117580 0.945931 0.631761 -0.177281 -0.401053 -0.431615 0.663995 0.283679 0.466593 -0.317033 -0.185838 0.317137 -0.215317 0.093811 -0.393886 -0.048059 0.105816 0.235126 0.206518 0.073054 0.056888 -0.403808 -0.249245 0.116779 0.412512 -0.280981 0.927229 -0.188529 0.788066 -0.256157 0.436180 -0.380725 0.145503 0.156573 -0.310449 -1.517234 0.013943 -0.204342 -0.182691 -0.495663 -0.637109 0.092000 0.564238 0.041817 0.556786 -0.051726 0.295218
दिए 0.513702 -0.166403 -1.120678 -1.016715 0.943045 1.329916 0.129598 0.221069 0.363272 0.389387 -0.208235 0.452361 0.354851 -0.020561 0.259200 -0.023686 0.366892 -0.449959 0.268723 -0.291673 1.018493 0.377872 0.047642 0.413442 -1.574487 -0.443483 0.092109 -0.027477 -0.281881 0.625572 -0.830502 0.112056 0.392160 0.145092 -0.481636 0.388430 -0.161918 0.522327 -0.831636 0.483662 -0.095268 -0.092645 -0.562597 -0.925833 0.555811 -0.188752 -0.206740 -0.843325 0.503703 1.358447
बाद -0.057434 -0.127739 -0.604823 -0.343290 -0.383612 -0.077155 -0.087394 -0.394630 -0.190045 -0.024944 0.030712 -0.376679 0.006073 -0.038992 -0.276340 0.222031 0.653936 0.022096 -0.677810 0.818535 0.104831 -0.023754 -0.186987 0.358148 0.107571 -0.058569 0.067359 0.081852 0.324189 0.146634 0.040028 -0.012575 -0.021738 0.146231 -0.461219 0.456619 -0.205483 -0.228444 -0.453468 -0.235873 -0.401221 -0.527918 -0.484078 -0.753459 -0.478337 0.386980 0.411013 0.761038 0.106900 -0.057905
कोर -0.289494 0.146486 -0.430644 -0.000348 0.017493 0.825382 -0.324423 0.027356 -0.407939 1.006067 0.664477 -0.041623 0.028164 0.713571 -0.036796 -0.295929 -0.395498 0.203178 0.426773 0.271251 -0.676522 -0.313413 0.927620 0.324713 -0.762509 -1.467595 0.468833 0.497714 0.134507 0.368071 -0.440813 -0.270482 -0.195758 -0.308950 0.795747 -0.862089 -0.415074 0.360173 -1.090874 0.348006 -0.004698 1.271556 0.091206 0.335504 0.727307 0.416899 -0.890127 -0.214848 -0.046012 -0.232017
रैम 0.171855 0.083017 -0.100018 -0.312298 -0.086660 0.529583 -0.273444 -0.187863 -0.209924 0.998774 0.927971 0.436111 -0.626627 -0.366815 0.612349 0.038875 -0.026559 -0.400979 0.840934 -0.633732 0.101198 0.269302 0.540897 -0.106624 -0.734001 -0.476592 -0.279604 -0.721018 -0.894000 -0.168970 -0.553096 0.016551 0.104126 -0.357818 0.388248 -0.756341 -0.064740 0.193709 -0.985157 0.333298 -0.011974 0.670132 -0.361220 -0.386913 0.115295 0.351826 0.087962 -0.617327 0.618434 0.952337
करना 0.217394 0.255969 -0.047805 0.326476 0.109992 -1.165262 0.217583 0.017797 0.981166 -0.257674 -1.038159 -0.306917 0.872703 0.065848 0.251266 -0.416032 0.783736 -0.076021 -0.670889 0.450687 0.312850 0.489804 0.223306 -0.055754 0.474280 -0.096701 -0.099620 1.041414 0.943198 -0.659279 -0.069560 -0.304928 0.684935 -0.077820 -0.032744 0.724165 0.417093 -0.250806 0.372754 0.250613 -0.742365 0.317227 -0.179050 -0.035091 -0.668704 -0.710229 -0.331674 0.409826 0.059156 -0.764282
कैमरे -0.185108 -0.075323 -0.521499 -1.116115 0.180529 0.492461 0.159123 -0.708799 -0.194749 0.434064 -0.124558 0.244094 -0.047857 -0.756956 0.054977 0.557685 0.298355 -0.273026 0.024107 0.328923 0.443597 -0.261642 0.448269 0.046535 -0.402140 -0.605133 0.380905 -0.433567 -0.354585 0.068270 -0.159385 -0.039824 0.031593 -0.240428 -0.613110 0.215619 0.356969 -0.102422 -0.129940 -0.215821 0.089245 -0.496976 0.327834 -0.165153 -0.405393 0.556177 0.468552 -0.025326 -0.106242 0.352483
पोर्ट -0.183788 -0.033702 -0.187069 -0.652140 -0.038352 0.066053 -0.294032 -0.761469 -0.494177 -0.158727 0.416210 0.045129 -1.190528 0.271714 0.616161 -0.451094 -0.596738 -0.313586 0.351146 -0.296145 -0.208140 -0.154113 0.587405 0.074800 -0.277961 -0.564490 -0.437461 -0.667073 0.042674 -0.438251 -1.237419 0.517921 0.149588 -0.913122 -0.111851 0.241836 -0.114198 0.010988 -0.817453 0.493482 0.330396 0.551694 0.342098 0.805148 0.768212 -0.006161 -0.586199 -0.879737 0.457438 0.426081
7 -0.787558 0.012092 -0.574201 -0.465556 -0.611970 0.562513 0.269048 -0.570681 -0.982554 -0.144927 0.467686 -0.374786 -0.047779 0.076554 -0.078925 0.616378 -0.336863 0.475810 -0.052446 -0.040113 -0.260464 -0.384065 0.105553 -0.012602 0.764618 -0.036380 0.325251 -0.108539 0.101921 0.117546 0.523789 0.598107 -0.765569 0.542452 0.112828 0.463793 -0.108846 0.316395 -0.083178 0.634575 0.058387 -0.346772 0.547241 0.460176 -0.213194 0.814524 0.859483 0.411572 -0.419658 0.588838
आपके -0.246363 0.121664 -0.645462 0.217839 0.119031 -0.791396 -0.017149 -0.570087 0.044111 -0.094570 -0.161871 -0.397163 0.067107 -0.097586 0.660595 0.480543 0.388731 0.327281 -0.634143 0.377415 -0.035822 0.508816 0.088831 0.816940 0.322565 0.628926 -0.298250 0.033969 0.414046 0.031702 0.442334 0.368292 0.018393 -0.018902 -0.131995 0.323880 -0.363798 -0.554386 -0.447041 -0.157592 -0.240025 -0.163043 -0.367660 -0.131115 -0.497645 0.334036 0.484102 1.322001 0.340333 -0.314332
उपलब्ध -0.682556 0.198194 -0.936888 -0.106835 -0.076003 0.330000 0.247011 -0.515245 0.347167 0.484691 0.042271 0.407889 0.142789 -0.062154 0.046023 -0.240352 0.219306 -0.127854 -0.043613 0.119323 0.582846 0.368505 -0.300515 -0.078899 -0.069128 -0.399353 0.036057 0.177993 -0.392071 0.517354 -0.022171 -0.335884 0.197158 0.716310 -0.311239 0.203664 -0.394447 0.210362 -0.034546 0.656568 -0.569776 -0.550492 -0.184858 -0.264500 0.045782 0.285650 -0.076150 0.077455 -0.021337 0.302624
जबकि -0.434454 0.176649 -0.237058 0.225193 0.144776 0.240667 0.454491 -0.709612 -0.049132 -0.141233 0.275633 -0.200487 -0.181854 -0.427011 -0.166536 0.065049 0.615481 -0.398570 -0.109130 0.214026 -0.218536 -0.102332 0.191821 0.078677 -0.009241 -0.336449 0.390314 0.005969 -0.000368 -0.221877 -0.199947 -0.622543 0.339977 0.044510 -0.181429 -0.033079 -0.053087 0.227604 -0.277917 0.228403 -0.391237 0.183504 0.342528 -0.006268 -0.443549 0.781818 -0.002794 0.067870 0.121462 0.420412
जाती 0.431191 0.270921 -0.438955 0.311299 -0.133165 -0.199267 0.391515 0.478807 0.554972 0.039158 -0.639043 -0.059969 0.677174 -0.002036 0.717907 -0.066995 0.812530 -0.251017 0.244287 -0.795219 0.226606 0.551528 0.375500 0.123046 -0.736626 0.128716 0.526470 -0.478883 -0.268202 -0.051314 0.544630 0.244743 0.448644 0.096902 0.056270 0.129693 0.648864 1.050838 -0.008972 -0.113762 -0.315625 -0.238512 0.127509 -0.550872 -0.314214 -0.586794 0.322644 0.361651 0.125342 0.131232
टैब -0.666433 -0.299991 -0.355121 -0.639771 -0.667298 0.441880 -0.515410 -1.044378 -1.143074 0.216019 0.398371 0.297652 0.026425 0.304842 0.047834 0.625959 0.071114 0.376375 0.238009 -0.393540 -0.750735 -0.047363 0.864500 -0.124828 0.444148 0.202306 -0.495835 -0.436520 0.210740 0.927051 -0.086746 0.306397 -0.219311 0.974620 0.589828 0.209889 -0.405663 -0.084059 -0.693109 0.441253 -0.522394 0.028086 0.684558 -0.062610 -0.086073 1.288872 0.894252 0.193037 -0.498270 1.103395
परफॉरमेंस 0.584401 1.599790 -0.366962 0.021143 -0.126322 0.214914 0.650605 -0.910738 0.304921 0.311487 0.145521 0.393484 0.093291 -0.797956 0.165629 -0.265465 0.086455 -0.391006 -0.092172 0.408895 0.517973 -0.159680 -0.129670 0.281758 0.617745 -0.152930 -0.151891 0.380777 -0.178967 -0.871222 -0.098311 0.402897 -0.154502 0.162884 0.106278 -0.432895 0.419682 0.306074 0.732855 0.981650 -0.029596 0.081461 0.858124 0.682525 0.042572 0.419963 -0.038456 0.000400 -0.300775 0.145510
पीछे -0.021550 0.329928 -0.351195 -0.866803 0.212789 0.385050 0.107432 -0.300310 0.071216 1.111232 -0.030200 0.224298 -0.399992 -0.547562 0.193235 0.751920 0.300959 -0.535007 0.147655 -0.213067 0.164084 0.406561 0.099544 0.092797 0.107703 -0.456441 0.270755 -0.012951 -0.328683 0.017466 0.388783 -0.183311 0.378729 -0.645453 0.032226 -0.137456 0.414024 0.175630 0.125502 0.084265 0.041724 -0.383142 0.128250 0.557242 -0.834217 0.657730 0.145916 -0.288042 0.394080 0.040867
बटन -0.136467 -0.149796 -0.272265 -0.386449 0.542622 0.844060 -0.104004 -0.409835 -0.374025 0.462460 -0.594205 0.085090 -0.182636 0.549669 0.280143 -0.256015 -0.380578 -0.612506 -0.101057 -0.258760 0.356786 0.044631 0.189870 0.752901 -0.430877 0.028315 -0.088790 0.162731 0.014392 0.831384 -0.089421 -0.542189 0.481440 -0.532196 -0.033255 0.283027 -0.590075 -0.095617 -0.448002 0.224585 0.200143 -0.347429 -0.465218 -0.165541 -0.013051 0.172003 -0.895083 -0.143688 0.449958 0.864840
थी 0.003345 0.213991 -0.536580 0.489712 -0.016538 -0.285647 0.938096 0.137126 0.119032 -0.232583 -0.513152 -0.502781 0.657793 -0.082911 0.982793 0.003423 1.005488 -0.399482 0.586797 -1.135052 0.363738 0.300038 0.162524 0.427112 -0.597433 0.053666 -0.105152 -0.843642 -0.313523 0.268126 0.259576 -0.269940 0.943753 0.376207 0.229517 0.330964 0.405384 1.168964 -0.100853 0.178310 0.125117 -0.837134 -0.137395 0.134681 -0.721037 -0.346662 0.536385 0.459913 0.096178 1.087791
फ्रंट -0.110956 0.034219 0.061391 -1.636845 0.574457 0.248030 0.334440 -1.220400 0.043310 0.605482 -0.178407 0.034989 -0.821349 -0.973327 0.773020 0.800128 -0.323120 -1.023381 -0.259870 0.314190 0.104768 0.099787 0.570461 -0.195044 0.121523 -0.504456 0.431953 0.191976 0.072493 -0.650994 -0.860659 -0.317413 0.032134 -1.285873 0.062538 -0.025829 0.583872 -0.228175 0.404174 -0.147006 -0.441450 0.444346 0.845473 0.340836 -0.179713 0.845652 -0.299480 -0.665885 0.191092 -0.134153
सपोर्ट -0.804114 -0.133839 -0.099135 0.608607 0.016077 -0.099321 0.773065 0.468697 0.414329 0.771184 -0.768936 -0.586995 0.021953 0.222871 0.606667 -0.105746 -0.208992 -0.208757 0.671448 0.226543 0.082820 0.921518 -0.252335 -0.586066 0.383923 -0.918504 0.034853 0.013139 -0.384272 0.016888 0.061361 -0.451516 1.015403 -0.886299 0.250247 -0.032129 0.485542 0.042618 -1.083854 0.566446 0.355550 0.244405 -0.211271 1.273907 -0.485843 -0.957136 -0.393086 0.389605 0.565166 0.709383
हुआ 0.165271 0.152863 0.105139 -0.198458 0.233439 -0.346689 0.352057 0.247867 0.101531 0.829598 -0.416555 -0.116937 0.276858 -0.091572 0.433927 0.328227 0.707281 -0.686602 0.160852 -0.460331 -0.312745 0.339247 0.438140 -0.824769 0.007842 -0.427599 0.772996 0.737175 0.011780 -0.740540 0.351705 0.063469 0.636848 -0.366873 0.435383 -0.350350 0.690879 0.681174 -0.352800 0.005288 -0.489023 0.475067 0.562296 0.093276 -0.487480 0.056764 0.257617 -0.201479 -0.207328 -0.878362
अधिक -0.154830 0.801003 -0.193501 0.513094 -0.059632 0.023701 0.716624 -0.709257 0.232670 0.264935 -0.296847 -0.315334 0.353719 -0.367885 -0.255859 -0.592619 0.322902 -0.336920 -0.391501 0.486724 0.514167 -0.027159 -0.498305 0.335931 -0.485168 0.465855 -0.006685 0.308598 -0.335544 0.042678 0.017478 -0.282480 0.115269 -0.202474 -0.180318 -0.132293 -0.231615 0.097229 0.033665 0.863140 -0.152372 -0.272792 -0.165704 -0.167618 -0.256050 -0.059388 -0.043389 0.602316 0.325232 0.168440
ओर 0.114894 -0.229285 0.129985 -0.459284 0.713262 0.255895 -0.037694 0.208212 -0.490415 0.246896 -0.378635 0.236398 0.031684 0.012101 0.782081 0.745324 -0.004764 -0.087478 0.374658 -1.200335 -0.206204 0.513949 0.244596 0.635144 -0.471881 0.700131 0.007130 -0.442708 -0.005105 0.665743 0.364145 -0.158280 0.799234 -0.416023 0.135753 0.009277 0.044482 0.216306 -0.046598 -0.380218 0.261719 -0.672191 0.018316 0.161841 -0.305261 0.122326 -0.053111 -0.024807 0.119084 0.342189
डिजाइन -0.061416 0.926451 0.088637 0.209322 -0.205399 -0.287051 0.410535 -0.548724 -0.012223 0.515656 -0.082941 -0.238619 0.241568 -0.448880 0.307495 -0.348056 0.497031 -0.228013 -0.246436 0.131598 0.002628 -0.575178 0.302770 0.319749 0.048960 -0.074419 0.043843 -0.263661 -0.568953 -0.261045 0.249692 0.278301 0.262838 -0.174498 0.224680 -0.340053 0.362679 0.347411 0.137849 -0.041358 0.182644 -0.194247 0.352363 0.171199 -0.304458 0.406647 0.462802 0.330189 -0.071637 -0.156374
लगा -0.049062 0.063004 -0.297781 -0.535352 0.335480 0.283333 0.448802 0.105952 -0.129780 0.968429 -0.062988 -0.225822 0.055719 -0.105415 0.470366 0.506658 0.321823 -0.827516 0.316478 -0.392921 -0.366313 0.382223 0.503383 -0.271054 -0.332227 -0.792640 0.720633 0.675495 -0.045382 -0.382461 -0.246395 -0.451482 0.418989 -0.556163 0.544248 -0.517710 0.339474 0.801553 -0.667800 0.374630 -0.398776 0.706106 0.583984 0.304370 -0.396906 0.634849 -0.021087 -0.351815 0.023348 -0.115799
कंपनी -0.592695 -0.258942 0.048290 -0.297142 -0.246779 -0.321839 0.057847 -0.455170 -0.409639 0.333465 0.317520 -0.204147 -0.001272 -0.492928 -0.298558 0.377020 0.749398 -0.336302 -0.528220 -0.060974 -0.254944 -0.206520 -0.279938 0.251109 0.203895 -0.475950 -0.306024 -0.528109 -0.428017 -0.063522 -0.412840 -0.522904 0.556580 0.122389 0.002864 -0.012237 -0.002888 -0.103636 -0.607296 -0.700662 0.177692 -0.579283 -0.234123 0.277830 -0.677095 1.125810 0.469716 0.560757 -0.477575 -0.173488
5 -0.451962 -0.049744 -0.148299 -1.312304 0.125131 0.616603 0.416976 -0.764575 -0.886630 0.394870 0.281785 -0.210256 -0.500310 -0.860516 0.404752 0.622196 -0.708493 -0.097979 0.042548 0.224745 -0.181664 -0.145092 0.386420 -0.529387 0.065906 -0.538842 0.743307 0.174701 -0.030569 -0.258818 -0.268142 0.237750 -0.527742 -0.789256 0.243076 -0.166580 0.394018 -0.055050 -0.194263 0.228466 -0.258445 0.543492 1.018886 0.471548 -0.190119 1.089066 0.503498 0.194264 0.017645 0.047836
फीचर -0.177739 0.111039 -0.184452 -0.590843 0.393067 0.256709 0.168651 -0.580500 0.152045 0.735347 -0.038170 0.281290 0.013006 0.083954 0.180056 -0.442568 0.307721 -0.755340 -0.511642 0.020462 0.228799 0.068059 0.294510 0.273582 -0.013253 -0.450053 0.156121 0.340036 -0.421393 -0.069385 -0.775220 0.327462 0.512399 -0.338823 -0.189881 0.083777 -0.019346 0.169367 -0.705924 0.327350 -0.097764 0.218087 0.005959 0.168812 0.105215 0.270850 -0.222094 -0.200010 0.056279 0.123632
मामले -0.094758 0.337696 -0.601334 0.136869 -0.310937 0.064296 0.422060 -0.994068 0.485187 0.382491 -0.111762 0.000348 0.191849 -0.053928 -0.297682 -0.135864 0.544382 -0.170698 -0.601514 0.631446 0.618873 -0.159157 -0.079631 0.448984 0.340093 -0.306452 -0.140824 0.185890 -0.043742 0.077050 0.234491 -0.130212 -0.099771 0.060135 -0.293192 0.233987 -0.070634 -0.252650 0.257248 0.412603 -0.278938 -0.292565 -0.229337 -0.191556 -0.239818 0.788406 -0.066163 0.449916 0.122758 0.017670
सभी 0.196601 -0.110720 -0.410541 0.201389 0.462088 -0.071719 0.069577 -0.313634 -0.074236 0.197708 -0.143509 -0.124429 0.233539 -0.012506 -0.248141 0.116835 0.454953 0.059017 -0.197926 -0.053559 0.215920 -0.109702 -0.258227 0.075763 -0.098185 0.134059 -0.356646 0.140643 0.020408 0.119549 0.011230 -0.010590 0.008686 0.463850 -0.775002 0.305885 -0.437727 -0.272418 -0.822650 0.236724 -0.226349 -0.330325 -0.214082 -0.136054 -0.169442 0.139336 -0.198640 0.494343 -0.149583 0.323782
होती 0.017032 0.634439 -0.305496 0.606115 -0.028205 0.002168 0.637478 0.037649 0.350808 0.218695 -0.524767 0.115941 0.620969 -0.251773 0.328272 -0.511036 0.566083 -0.071241 0.377707 -0.451416 0.214844 0.498103 -0.023947 0.552673 -0.708324 0.396388 0.239329 -0.243389 -0.566952 0.226382 0.109534 -0.216047 0.740733 -0.148274 0.171927 -0.236109 0.403405 0.532488 0.189580 0.622173 -0.093656 -0.338870 -0.051738 0.107149 -0.381656 -0.316041 0.287810 0.368841 0.411888 0.313658
अब 0.519493 0.479229 -0.221289 -0.414805 0.488404 -0.125782 0.001480 -0.321327 -0.367031 0.486299 0.155160 -0.231990 -0.254745 -0.405234 0.023247 -0.023436 0.757765 -0.282653 -0.213779 -0.063674 -0.122428 -0.009420 0.136777 -0.346090 0.238727 0.105341 0.265191 0.341260 -0.193092 -0.409260 0.119166 0.351396 -0.314913 0.429619 -0.199477 -0.294791 0.345856 -0.015530 -0.852796 -0.424968 -0.476991 -0.190189 0.069538 -0.546722 -0.552641 0.975767 0.428848 0.552437 -0.181800 0.088325
8 -0.116069 0.133997 -0.055512 -0.806490 0.269660 0.555417 -0.005031 -0.034509 -0.353524 0.910619 0.621941 0.052394 -0.477732 -0.521697 0.122906 0.487489 -0.554190 -0.591069 0.296922 0.085306 0.246238 0.024797 0.018756 -1.205482 -0.138062 -0.469495 0.341072 0.475020 -0.495551 0.039153 -0.183032 -0.322005 -0.700609 0.024511 0.374283 -0.640039 -0.106985 -0.103381 -0.723558 0.306242 -0.204409 0.603880 0.403222 -0.353982 -0.097327 0.394465 0.148895 -0.457040 -0.076030 0.365645
आता -0.396073 -0.388011 -0.564838 -0.047519 -0.328391 0.045742 0.715164 -0.493964 0.411988 0.258299 -0.189577 -0.322186 0.231234 0.599217 0.411698 0.151822 0.102431 -0.304920 -0.257715 0.381512 0.454876 0.535915 -0.510319 -0.046373 -0.384945 -0.811818 0.564333 0.316671 0.038168 0.102931 -0.270562 -0.527582 0.141431 -0.267718 0.291636 0.041832 0.047691 0.767929 -0.113128 0.636402 -0.251235 0.401996 -0.047645 -0.396644 -0.288122 -0.248508 0.044426 0.467022 -0.103883 -0.130199
गेम 0.060003 -0.503100 -0.078349 0.162398 0.508785 -0.228606 -0.229210 -0.093542 0.045747 -0.055389 0.063502 -0.261859 0.206432 0.245347 -0.377043 -0.349501 0.435262 -0.199245 -0.556446 0.465991 0.233024 0.077924 0.078336 0.389370 0.127360 0.464332 -0.396193 0.395236 -0.039409 0.087885 -0.255658 -0.036687 -0.426533 0.550190 -0.655969 0.341209 -0.614052 -0.978290 -0.600059 0.216842 -0.309134 0.481863 -0.580414 -0.710360 -0.129799 0.021305 -0.249854 0.092804 0.205526 0.753643
जगह -0.323907 0.642411 -0.530388 0.341022 -0.155825 -0.414038 0.226040 -0.267830 0.510330 0.334262 -0.187135 -0.152404 0.268749 0.002664 0.560953 -0.041828 0.325171 0.060283 -0.296578 0.189291 0.174225 0.608241 -0.209595 1.067811 -0.241769 0.495693 -0.024673 0.052638 -0.522841 0.049473 0.340362 0.384310 0.364702 -0.117582 0.285522 -0.062976 -0.153778 -0.052529 -0.328898 0.430108 -0.252594 -0.155634 -0.233186 -0.297557 -0.088717 0.208591 0.381260 0.952273 0.454990 -0.359754
दोनों -0.286019 -0.047938 -0.245501 -0.643024 0.297349 -0.083824 -0.026162 -0.652952 -0.238882 0.605119 -0.026933 -0.225132 -0.225486 0.058382 0.227617 0.123070 0.041370 0.009871 -0.479608 0.242910 0.022412 -0.170649 -0.109292 0.352026 -0.227925 -0.085046 -0.205355 -0.013711 0.081192 0.539141 -0.091527 0.254081 0.469847 -0.121252 -0.669922 0.521473 -0.188696 -0.007158 -0.511353 -0.158278 -0.364913 -0.459306 -0.109486 -0.056023 -0.343143 -0.183837 0.011116 0.468065 -0.181223 -0.279828
अच्छे 0.561280 0.619042 -0.764218 -0.469219 0.459635 0.505310 0.327043 -0.823400 0.560200 0.465608 -0.168486 0.285862 0.366657 -0.173050 0.036309 -0.357416 0.201889 -0.503711 -0.353499 0.473227 0.945142 0.184985 -0.237412 0.475254 -0.395271 -0.059369 -0.136319 0.480263 -0.145832 -0.078382 -0.342342 0.330381 0.018127 0.037695 -0.645512 0.304092 -0.118301 0.021760 0.160150 0.760818 -0.205056 -0.477394 -0.143690 -0.138104 0.277798 -0.170558 -0.443919 -0.135405 0.197719 0.081760
अलग -0.102498 0.543801 -0.165216 0.150445 -0.146394 -0.083518 -0.322464 -0.357236 -0.538025 0.536252 -0.348723 -0.609363 0.498435 0.366559 -0.355674 -0.452983 0.371076 0.430485 0.045021 0.660628 -0.595978 -0.020582 0.658923 0.106282 -0.932576 -0.043582 0.044225 0.273679 0.468403 -0.319067 -0.147129 0.272810 1.119496 -0.149169 0.251567 -0.400623 -0.303904 0.204241 -1.188670 0.308988 -0.382003 0.262643 0.077858 -0.551765 0.425896 -0.672170 0.126587 -0.124471 0.238770 -0.833259
आसानी 0.333387 0.012613 -0.244433 0.111552 0.060014 -0.362334 -0.244636 -0.215994 0.104966 0.378883 -0.772448 -0.172643 0.345700 0.186737 -0.437243 -0.142971 0.993694 0.009449 -0.163157 0.673799 0.694853 -0.223571 0.300635 -0.505837 -0.360186 0.016070 0.033945 0.406655 0.280007 -0.503249 0.252072 0.234860 0.229347 0.303331 -0.720435 0.316382 -0.073853 -0.130641 -0.799208 0.603347 -0.240466 -0.332416 0.008843 -0.688590 -0.616638 -0.674354 0.511824 0.027339 0.214221 -0.197568
एचडी -0.530969 -0.137474 -0.312634 -1.129591 -1.101872 0.293262 1.030114 0.901285 -0.886066 0.188174 -0.476322 -0.568929 -0.386625 -0.404951 -0.061055 0.455175 -0.681379 0.816024 0.084008 0.493551 0.117100 -0.663244 -0.027902 0.125034 -0.469380 -0.775185 0.487141 -0.545983 0.027808 -0.271307 -0.055335 0.143970 -0.871623 -0.839728 -0.694614 0.204333 0.428739 -0.062387 -0.421372 0.357667 0.698478 0.057712 0.620303 0.088088 -0.052599 -0.643327 0.846895 0.407291 0.017076 0.876784
तुलना -0.128483 0.888398 -0.243398 0.217342 -0.258314 0.436822 0.216190 -0.928136 -0.243413 0.206803 0.062464 0.209913 0.198113 -0.478302 -0.224439 -0.526907 0.455291 0.091246 -0.136474 0.403463 0.360515 -0.364424 0.110721 0.523925 0.082069 0.848795 -0.057993 -0.152389 -0.541057 0.659306 0.127038 0.358094 -0.090649 0.520478 0.048068 -0.049306 -0.163654 -0.049176 0.161075 0.614917 -0.392273 -0.441239 0.410691 -0.161328 -0.423416 0.750556 0.784996 0.228204 0.027411 0.642055
फीचर्स 0.165244 -0.050074 -0.966612 -0.802397 0.985647 1.100834 0.139224 -0.849574 0.063376 0.338855 0.041555 0.146544 0.364976 -0.089834 -0.268742 -0.334371 0.120950 -0.276251 -0.403122 0.412983 0.787687 0.106692 -0.206629 0.699055 -1.064325 -0.055307 -0.046558 0.388711 -0.068355 0.622135 -0.968515 0.060745 0.181108 0.089764 -0.864166 0.366802 -0.527917 -0.160032 -0.676631 0.711947 -0.208880 -0.279313 -0.455098 -0.597829 0.479097 0.021712 -0.577762 -0.339388 0.352654 0.719096
होगा 0.108981 0.346690 -0.262049 0.126058 0.056004 -0.812077 0.455918 -0.483578 0.713397 0.099981 -0.863793 -0.468020 0.716769 0.047444 0.659452 -0.093572 0.405007 -0.050118 -0.565499 0.087916 0.155006 0.618394 0.006638 0.094707 -0.146912 -0.128811 0.081416 0.993607 0.830785 -0.717239 0.005180 -0.242260 0.795964 -0.234826 0.230745 0.341093 0.129118 0.373669 0.262147 0.487795 -0.651085 0.173274 -0.109621 0.133392 -0.559183 -0.260344 -0.044894 0.611535 0.031041 -1.042882
एंड्रायड -0.520642 0.236301 -0.039786 0.508320 0.205200 -0.722493 0.034143 -0.099234 0.015340 -0.170931 0.368664 -0.547497 -0.414771 0.425702 0.051193 0.366718 -0.586276 0.456567 -0.155076 0.121564 -0.025985 -0.244159 -0.371140 0.017869 0.990795 -0.215556 -0.315643 0.525612 0.490852 -0.538357 0.194546 -0.236482 -0.343249 0.401404 -0.065805 0.233135 -0.518531 -0.494068 -0.387455 0.551865 0.177875 0.532509 0.035560 0.511755 -0.250215 -0.139485 -0.174070 0.213510 -0.274743 -0.141802
ऐसा 0.359974 0.110098 0.269860 0.197317 0.225496 -0.544584 0.543499 -0.439360 0.248075 0.339933 0.234029 -0.541468 0.487266 0.082783 0.075258 -0.577401 1.029577 -0.890901 -0.960606 0.305416 -0.581113 0.215347 0.188798 0.058498 0.382778 -0.283855 0.393690 0.671403 0.058081 -0.520774 -0.434032 0.463875 0.580966 0.310020 -0.173200 0.141291 0.290886 0.297929 -0.616390 0.081183 -0.689651 0.532944 0.305143 -0.172398 -0.627796 0.205794 0.197907 0.496829 -0.137070 -0.629189
जिसमें -0.016118 -0.133181 -0.145599 -0.477968 0.238788 0.153003 0.468258 -0.379009 -0.267694 0.040556 0.011500 -0.324359 -0.104141 -0.286061 0.273096 0.328318 0.259924 -0.543181 -0.026855 -0.137927 -0.219998 0.192167 0.454966 0.025667 -0.189944 -0.256782 0.348541 -0.078405 -0.091268 -0.589177 -0.351508 0.025119 0.133394 -0.296567 0.007634 -0.010006 0.295897 0.394631 -0.492435 0.113832 -0.193650 0.316471 0.509159 -0.090180 -0.412917 0.439463 0.226339 -0.097495 0.086097 0.429588
इससे 0.273517 0.161036 -0.305079 0.415847 0.311256 0.214521 0.440595 -0.295805 0.397347 -0.122812 -0.449764 -0.266559 0.711756 -0.159198 -0.094511 -0.425111 1.030896 -0.288439 -0.525968 0.652948 0.417753 -0.034696 0.038887 0.558049 -0.418129 0.376736 0.326563 0.138654 0.068887 0.114655 -0.035507 -0.155745 0.065857 0.293633 -0.577334 0.352459 -0.028260 0.149721 0.223295 0.347226 -0.249468 -0.051522 0.183107 -0.405169 -0.493224 -0.187806 0.334719 0.066656 0.145390 0.705399
जब 0.426150 -0.302407 -0.032415 0.673005 0.399662 -0.700356 0.391885 -0.067433 -0.183748 -0.295661 0.145394 -0.599452 0.243837 0.133071 -0.084277 0.070806 1.239975 -0.212057 -0.716740 0.265117 -0.222292 -0.138307 0.212536 0.932034 0.443541 0.341404 0.212886 0.061242 0.124933 0.138842 -0.049046 0.116499 0.157672 0.419493 -0.520738 0.274368 0.025278 -0.112558 -0.509559 -0.530655 0.004386 0.382655 -0.093658 -0.224443 -0.932200 0.509054 0.609936 0.689087 0.062566 0.934170
बेहतरीन 0.104315 0.979833 -0.135340 0.029831 0.015730 -0.269820 0.473629 -0.783320 0.188296 0.239029 0.219497 -0.038068 -0.200552 -0.405965 0.342236 -0.101971 0.005814 -0.336153 0.019193 0.161060 0.229723 -0.094975 -0.040525 0.292685 0.347900 -0.134863 -0.395189 0.104856 -0.425943 -0.832991 -0.209955 0.358317 0.050695 0.217710 -0.027148 -0.102152 0.136016 0.041201 -0.346303 0.749575 -0.057020 0.076990 0.351553 0.275909 -0.009030 0.308509 0.039847 0.242208 -0.203622 -0.188869
मंदिर -0.190596 0.135252 -0.370485 -0.677785 -0.036658 0.278916 -0.220810 -0.549603 -0.657584 0.573640 0.487964 -0.010639 -0.466696 -0.079221 0.027147 0.339753 -0.437168 0.170591 0.229034 0.180235 -0.154666 -0.341335 0.390146 -0.044691 0.148351 -0.475425 -0.245418 0.122659 0.144624 -0.219653 0.030621 0.272330 -0.327526 -0.027397 0.257985 -0.247611 -0.330014 -0.415820 -0.658320 0.196669 -0.021912 0.298111 0.147303 0.074741 0.313572 0.707067 0.084289 -0.260106 -0.107984 0.009326
गैलेक्सी -0.336032 -0.061289 -0.327397 -0.045125 -0.677249 0.251463 -0.517952 -1.550874 -1.357385 0.089747 0.648340 0.241431 0.206598 0.525263 -0.176348 0.350557 -0.192678 0.302682 0.226477 -0.334957 -0.645304 -0.042411 0.652879 -0.097787 0.342240 0.520407 -0.722189 -0.501250 0.230925 0.680380 -0.029653 0.543072 -0.378409 1.162169 0.583303 -0.037121 -0.592237 -0.234201 -0.541866 0.662534 -0.331584 -0.059853 0.649821 -0.168919 0.247019 1.383549 0.792156 0.191345 -0.705483 0.522798
पिक्सल -0.169054 -0.057572 0.319376 -0.368101 -0.406699 0.379411 0.268079 -0.097934 -0.538608 0.102400 -0.058334 -0.048346 -0.619782 -0.675369 0.070562 0.996962 -0.857661 0.186685 0.832275 -0.406322 -0.141807 -0.151590 0.150684 -0.840107 -0.001060 -0.488434 0.270341 -0.296253 0.138479 -0.886221 0.140347 -0.445760 -0.412332 -1.026990 0.358424 -0.329542 0.565696 0.177737 -0.096720 0.295445 0.489794 0.322106 0.706698 0.436727 0.041330 0.242823 0.079824 -0.081395 0.085317 -0.352428
सैमसंग -0.273347 -0.236154 -0.044358 0.004829 -0.398162 -0.028933 -0.532307 -1.133421 -0.993164 0.043791 0.603305 -0.044056 0.089349 0.426870 -0.374686 0.265197 0.003861 0.212488 -0.097056 -0.185162 -0.544282 -0.202006 0.179061 0.260706 0.268001 0.465188 -0.739536 -0.543476 -0.011579 0.559388 -0.308646 0.394195 -0.112682 0.899008 0.270619 -0.000202 -0.559030 -0.444865 -0.735789 0.174740 -0.109560 -0.070512 0.204620 -0.246986 0.085215 1.157686 0.673452 0.217681 -0.506002 0.573561
फिर -0.176140 -0.325462 -0.114136 0.334371 -0.203316 -0.007532 0.261153 -0.294657 0.239680 -0.060162 -0.252659 -0.327262 0.258491 0.325666 -0.216338 -0.220300 0.947334 -0.524469 -0.660889 0.388976 -0.044403 0.164751 0.306338 0.459334 -0.015409 0.249873 0.338607 0.232989 0.091371 0.298190 -0.062927 -0.068537 0.382937 0.281213 0.032394 0.304451 -0.208043 -0.002231 -0.197591 0.336858 -0.485954 0.350608 0.037936 -0.477363 -0.546612 0.326979 0.579615 -0.098337 0.125958 0.696143
फुल -0.779579 -0.197908 -0.061725 -0.876148 -1.035528 0.090656 0.677516 0.726204 -0.915063 0.052565 -0.067406 -0.284899 -0.585346 -0.109301 -0.119128 0.246960 -0.661897 0.712228 -0.216709 0.426335 -0.147430 -0.475222 0.004535 0.098600 -0.168379 -0.742890 0.380669 -0.356394 -0.159732 -0.072079 -0.341693 0.359513 -0.796169 -0.451462 -0.402291 0.237502 0.268353 -0.108531 -0.816194 0.148765 0.560212 0.212176 0.396153 0.030733 0.091452 -0.283677 0.636859 0.674202 -0.129087 0.414556
वह 0.155819 -0.016250 -0.213717 0.499966 0.145794 -0.409692 0.359019 -0.249752 0.139320 -0.189419 -0.238933 -0.448693 0.367002 0.278268 0.214559 -0.232899 0.830836 -0.122149 -0.338501 0.126817 0.004854 0.272591 -0.024072 0.484040 -0.009053 0.079744 0.278462 0.024083 0.060814 0.161170 -0.131554 0.058027 0.567305 0.164582 -0.200160 0.304064 0.048313 0.387529 -0.267791 -0.024774 -0.441493 0.106855 -0.088006 -0.260687 -0.708777 -0.168393 0.362215 0.477759 0.160019 0.238690
घंटे 0.362367 0.735680 -0.162276 -0.510840 0.346649 0.489135 -0.096853 0.459315 -0.424249 0.569129 0.123459 0.264168 -0.733923 -1.046739 0.057747 -0.036658 -0.107151 -0.113970 0.681015 -0.017257 0.268612 -0.004889 -0.616127 -1.293671 -0.406322 -0.055006 0.214516 0.263592 -0.511766 -0.287019 0.132558 -0.174118 -0.897741 0.630648 0.030777 -0.559784 0.424081 0.090441 -0.833004 -0.041823 -0.459306 -0.190949 0.592679 -0.995646 0.279251 0.064327 0.150465 0.715971 -0.570718 0.485959
मेगापिक्सल -0.483221 -0.063083 0.166940 -1.674392 0.266618 0.572132 0.167341 -1.044024 -0.410457 0.825761 0.359510 0.388677 -0.865719 -0.941842 0.401293 0.703098 -0.940666 -0.768865 0.389964 -0.064847 0.042856 -0.072672 0.523866 -1.040513 0.328476 -0.532737 0.310840 0.223757 -0.293804 -0.366174 -0.450430 -0.187984 -0.518943 -0.785745 0.563852 -0.446631 0.337439 -0.184513 0.009685 0.053660 -0.367074 0.384160 0.860150 0.187948 -0.015897 1.292048 -0.179489 -0.612375 -0.082973 -0.264770
आईपैड 0.324071 0.191903 0.234827 -0.049570 -0.286356 0.367355 -0.289596 -0.840668 -0.584916 0.240215 0.881852 0.399128 -0.921546 -0.416216 -0.329144 0.302254 0.347576 -0.084786 0.321630 -0.177452 0.024756 -0.465919 0.361773 -0.196598 0.274817 0.607737 -0.479765 -0.191264 -0.454923 0.276894 0.016638 0.370410 -0.508785 0.645029 0.074108 -0.277737 -0.612290 -0.397360 -0.436744 0.356695 -0.139934 0.248405 -0.148591 -0.291111 -0.355520 1.461049 0.691491 -0.390057 0.147354 0.870233
हर -0.315945 0.368644 -0.270248 -0.082669 -0.226642 -0.040122 0.065075 0.030057 -0.550985 0.344760 -0.141579 -0.190245 0.227751 0.141969 -0.652277 -0.229379 0.706583 -0.129812 -0.472773 0.856307 -0.078172 -0.651914 -0.160350 0.532859 0.107188 0.030925 -0.058541 0.283305 0.073684 0.911571 0.662519 0.052234 0.115332 0.277503 0.025381 -0.027068 -0.335989 -0.504850 -0.563559 0.070216 0.325076 -0.563257 -0.080866 -0.255194 -0.056207 0.468386 0.438369 0.452456 -0.011786 0.139624
क्योंकि 0.035608 0.294363 -0.312794 0.130003 0.496918 -0.242715 0.418402 -0.530850 0.098843 0.184206 0.009270 -0.539220 0.153804 0.064447 0.406808 0.029612 0.485972 -0.421384 -0.715079 0.180796 0.187613 0.142987 0.212853 0.505547 0.011366 -0.076972 0.522515 0.482580 0.032447 -0.126374 -0.048329 0.176226 0.106709 -0.183296 -0.229680 0.133610 -0.103707 0.001457 -0.352329 0.188395 -0.262671 0.686141 -0.082669 -0.076698 -0.743025 0.653157 0.426714 0.163380 0.310842 0.319955
रही 0.259362 -0.165680 -0.500966 0.071744 -0.217336 -0.290470 0.626505 0.732461 0.534963 0.014016 -0.560750 -0.309422 0.541415 0.050850 0.729128 0.430260 0.866148 -0.318308 0.317643 -0.898588 0.277723 0.405290 0.207125 0.075730 -0.659634 -0.351046 0.289792 -0.654453 0.004654 0.131625 0.450163 -0.151199 0.556403 0.015566 0.055924 0.435669 0.509792 1.085452 0.208188 -0.117334 -0.053092 -0.404955 0.151601 -0.082908 -0.484058 -0.660332 0.483840 0.217057 0.181882 0.637272
कभी -0.133490 0.060594 -0.052420 0.681292 -0.352811 -0.154449 0.080153 0.125268 -0.036712 0.196537 -0.226464 -1.015674 1.072070 0.892461 0.046872 -0.321662 0.525688 0.250981 -0.227787 0.375347 -0.231057 -0.147643 0.896158 0.786302 -0.341245 -0.344472 0.524297 0.121508 0.272910 0.170624 0.204506 0.541656 0.377642 -0.105393 0.515042 -0.558452 -0.430360 0.696330 -0.742104 -0.402952 -0.423280 1.270473 0.426990 -0.419803 0.366712 -0.138059 0.026267 -0.083277 0.308786 0.060926
जिससे 0.239405 0.100075 -0.231556 0.274504 0.301483 -0.543295 0.352754 -0.050672 0.045501 -0.106527 -0.055957 -0.188456 0.123022 -0.221344 0.325068 0.248139 1.017699 -0.219219 -0.126578 -0.232876 -0.097599 0.388446 0.237456 0.373969 0.084548 -0.024778 0.062387 -0.035669 -0.061225 -0.458178 -0.192118 -0.187972 0.391336 0.213544 -0.349333 0.114632 0.316527 0.102225 -0.221300 0.070150 -0.149984 0.146354 0.001347 0.140562 -0.802897 -0.044089 0.281605 0.260694 0.108304 0.677289
पहले 0.259373 0.049294 -0.063658 -0.134463 0.016615 -0.133354 0.089676 -0.275774 -0.184080 0.238865 0.226517 -0.141320 -0.103141 -0.290238 -0.110075 0.168183 0.676526 -0.004957 -0.487681 0.105041 -0.005806 -0.125010 -0.035035 0.085867 -0.100147 0.324626 0.257425 0.127222 -0.084961 -0.007356 0.240464 0.295524 -0.051463 0.161930 -0.261248 -0.021496 0.041073 0.067746 -0.212558 -0.205724 -0.287243 -0.184128 -0.050962 -0.414907 -0.583919 0.636626 0.694006 0.306687 0.057986 -0.092227
3 -0.245251 -0.217351 -0.423947 -0.724382 -0.317930 0.797485 -0.150071 -0.362853 -0.919351 0.406693 0.564673 0.198293 -0.245808 -0.106420 0.247430 0.777321 -0.275621 0.407021 0.673332 -0.357171 -0.610457 -0.286831 0.575662 -0.257960 -0.210779 -0.727758 -0.006679 -0.339631 0.205844 0.373638 -0.002428 0.007683 -0.463549 0.204948 0.516920 -0.341853 -0.052745 0.219027 -0.576710 0.195618 -0.005165 0.289298 0.654127 0.135251 0.362248 0.840596 0.385051 0.112304 -0.313556 0.601450
दिन 0.298334 0.380171 -0.115176 -0.271459 0.137666 -0.146025 -0.381686 0.460564 0.073093 0.196254 -0.058772 0.698307 -0.377632 -0.250341 -0.256460 -0.038351 0.638021 0.035657 0.377007 0.246248 0.340070 0.254053 -0.415894 -0.756797 -0.002304 -0.085476 -0.092684 0.548554 -0.403743 -0.079573 0.212284 0.272349 -0.277708 0.698538 0.104571 -0.216512 0.207956 -0.380309 -1.014652 0.130518 -0.408054 -0.070049 0.049635 -1.188589 0.003191 0.096815 0.416339 0.854993 -0.194384 -0.168958
यूजर 0.257040 -0.109571 -0.058849 -0.084514 -0.176862 -0.189883 -0.002434 -0.327283 -0.225871 0.479312 0.041321 -0.271742 0.055556 -0.141904 -0.136135 0.139740 0.466372 -0.019335 -0.347460 0.134754 -0.010428 0.131853 -0.192406 0.590966 -0.062553 0.017847 -0.122001 -0.149155 0.001767 -0.139502 -0.118636 -0.008438 0.321527 -0.368090 -0.354243 -0.247411 0.083454 -0.215855 -0.334097 0.000434 0.301680 -0.244098 -0.151788 0.381809 -0.387264 -0.068404 0.194591 0.354318 0.312292 0.212260
खूबसूरत 0.046957 0.558334 -0.134515 -0.217604 -0.063966 -0.378367 -0.104096 -0.416631 -0.271118 0.680593 0.277186 -0.159556 -0.224679 -0.151911 0.435252 -0.803913 0.191264 -0.223336 -0.097982 0.000002 -0.235388 -0.206888 0.378844 0.173467 -0.149405 -0.119782 -0.305977 -0.089278 -0.370988 -0.171305 -0.160974 0.473613 0.386715 -0.161842 0.111207 -0.330822 0.302812 0.120365 -0.539608 0.048766 -0.087532 -0.375934 -0.147889 0.146450 0.033629 -0.362946 0.035121 0.303631 0.140479 -0.599814
रंग -0.093107 0.220551 -0.378188 -0.104082 0.081954 0.456361 -0.266975 -0.517727 -0.555126 0.325031 0.224730 -0.358857 -0.137060 0.182815 0.120411 -0.641284 -0.370756 -0.038873 0.269656 0.315432 0.030987 -0.372112 0.645356 0.270839 -0.438181 -0.516197 -0.368873 -0.323872 0.071279 0.183701 -0.432964 0.163737 0.233365 0.005854 -0.195715 -0.039601 -0.297451 0.162745 -0.711006 0.438822 0.204651 0.058475 -0.207752 0.393821 0.510671 -0.558892 -0.474848 -0.549409 0.247208 0.422332
लैपटॉप -0.211600 -0.015252 -0.205007 -0.111965 0.013858 -0.123557 0.050211 -0.693789 0.062875 0.190121 0.346879 0.338236 -0.150027 0.129587 0.029227 0.130959 0.292748 -0.124669 -0.143175 0.124602 -0.018481 -0.117254 0.297692 0.218283 0.592645 -0.405290 -0.176479 -0.012390 -0.182148 -0.203606 -0.329461 0.305218 0.195571 0.340545 -0.213290 0.222987 -0.188466 -0.311995 -0.362463 0.366755 -0.161547 -0.001351 0.092274 0.197148 -0.189707 0.612629 0.171226 0.208096 -0.219022 -0.276188
सिस्टम -1.009960 0.210111 -0.152264 0.164112 -0.157787 -0.686562 0.323743 0.254482 0.044705 0.475657 0.117590 -0.681992 -0.398868 0.526757 0.127511 0.523170 -0.790988 0.310469 -0.161433 0.237181 0.187284 0.151937 -0.931777 -0.477072 0.525386 -0.551019 -0.120744 0.525353 0.307652 0.037458 0.140441 -1.118554 -0.191417 0.027377 0.454266 0.140264 -0.551433 -0.001905 -0.258355 0.463110 0.034338 0.484824 0.080587 0.165972 -0.325770 -0.487905 -0.286727 0.599109 -0.443349 -0.007691
कमी 0.108180 0.604773 0.129750 0.231915 0.830578 -0.218649 0.860106 -0.065479 0.077430 0.346549 0.196651 0.099610 0.085272 -0.112832 0.582063 -0.521947 0.292597 -0.826892 -0.376509 -0.567512 0.043467 0.230995 -0.116831 0.652220 -0.085048 0.511294 0.777585 0.276639 -1.168799 0.299876 0.032929 0.633406 0.035054 0.014620 0.388829 -0.200180 0.459275 0.470643 -0.201304 -0.007475 -0.076792 0.619656 -0.190010 -0.045081 -0.750205 0.876645 0.804397 0.199458 0.228581 0.301674
लगभग -0.015513 0.328437 -0.013036 0.655484 0.414978 0.394129 0.085825 -0.063828 -0.115264 -0.345754 0.108291 0.079742 -0.138591 -0.993498 -0.428064 -0.237766 0.368920 0.200991 0.376904 -0.003310 0.005992 -0.140901 -0.738916 -0.309911 -0.561555 0.308601 -0.059416 -0.122012 -0.494506 -0.112885 0.211328 -0.520325 -0.293169 0.494870 -0.370662 -0.406801 -0.095308 -0.194624 -0.596036 0.110995 -0.071505 -0.378684 0.142190 -0.529609 0.200590 0.192086 -0.013552 0.660522 -0.075717 0.433568
वाली -0.624805 0.580139 -0.231962 0.103172 -0.566336 0.003039 0.181086 0.154811 -0.287302 -0.068062 0.078738 0.093804 -0.004335 -0.614662 -0.468969 0.323310 0.281609 0.652241 0.173284 0.193885 0.084468 -0.422830 -0.348953 0.239113 0.278914 -0.168070 -0.446563 -0.384755 -0.341153 0.306217 0.649825 -0.394454 -0.204529 0.143770 0.093075 -0.017147 -0.155300 -0.577760 -0.059378 0.060057 0.105651 -0.292113 0.059100 0.315946 -0.408645 0.546916 0.309402 1.022991 -0.175807 0.334424
वे 0.317131 -0.124462 -0.445370 0.133979 0.725168 0.050753 0.011020 -0.337784 -0.301514 -0.103998 -0.305249 -0.413604 0.570957 0.330438 0.198987 -0.162469 0.429372 -0.000129 -0.435073 -0.200640 0.043433 0.007303 0.210614 0.693548 -0.316717 0.270106 0.033461 0.057891 0.466635 0.580186 -0.229831 0.202211 0.304156 0.510867 -0.663470 0.551817 -0.224328 0.214815 -0.553450 0.088960 -0.067718 -0.302606 -0.398280 0.081404 -0.313308 -0.028306 -0.039601 0.149502 -0.055202 0.582853
कहा 0.475093 0.091558 0.080066 0.375034 -0.306242 -1.012685 0.583670 0.409433 1.144218 0.537459 -0.648491 -0.324398 0.333343 0.217192 0.119038 0.255875 1.375448 -0.848915 -0.529924 -0.344779 0.353336 0.316557 0.345824 -0.443528 0.293680 -0.379114 0.240552 0.433722 -0.088725 -0.947250 0.779347 0.212798 0.509671 -0.011899 0.015356 0.232601 0.565610 0.627247 0.326868 -0.016341 -0.400223 0.445355 0.263551 -0.106140 -1.162916 0.060227 0.648428 -0.076996 0.066895 -0.510507
न 0.395568 0.125730 -0.306607 -0.248793 0.093557 -0.000695 0.287321 -0.676492 -0.070919 -0.023451 0.015056 -0.563564 0.070806 -0.367501 0.944375 0.136264 0.232772 -0.530018 -0.536839 0.120650 -0.229290 0.261333 0.217796 0.309506 -0.009785 0.187772 0.062372 0.196312 0.669032 -0.278322 0.218521 0.338043 0.271829 -0.174338 0.054932 0.487316 -0.039383 0.539612 0.261246 -0.197000 -0.591667 -0.072168 -0.013510 -0.447231 -0.365653 0.275968 0.162968 0.278648 0.281407 -0.320901
पूरी -0.598712 0.696476 -0.086509 0.155591 -0.415008 -0.224017 0.187578 0.000714 -0.556658 0.517381 -0.112263 -0.031036 0.204896 -0.378142 -0.392491 -0.010415 0.853495 0.462529 -0.224019 0.811599 -0.050924 -0.577451 -0.379238 0.431167 -0.013131 0.000348 -0.064544 0.033969 -0.249458 0.362372 0.638162 0.005561 0.598402 0.119731 -0.028935 -0.320305 -0.120612 -0.540206 -0.415362 0.341147 0.516555 -0.859604 0.199866 0.064137 -0.480190 -0.130691 1.014887 0.728610 -0.001361 -0.199216
व 0.046573 -0.092993 0.013013 -0.404713 -0.169946 0.336629 -0.344115 -0.205413 -0.170522 0.394035 0.156352 0.153651 -0.231180 0.084174 -0.197257 0.008232 -0.032015 -0.028018 0.269813 0.039663 -0.056032 -0.028857 0.347766 -0.107377 -0.116515 -0.317648 -0.298006 -0.072156 0.048114 0.050076 -0.362211 -0.083235 0.058941 -0.154186 0.241297 -0.264492 -0.018858 -0.140736 -0.564793 0.144739 -0.200466 0.220242 0.043119 -0.054554 0.141498 0.125783 -0.128602 -0.349446 0.205246 0.155692
हम 0.473518 -0.218772 -0.136828 0.174409 0.570967 -0.287475 0.055581 0.023369 -0.264978 -0.060844 0.175256 -0.409341 0.188149 0.196438 -0.016393 -0.223424 0.980982 -0.366512 -0.676049 -0.022043 -0.177557 -0.120981 0.140721 0.660385 -0.030087 0.328523 0.045314 0.209263 0.314162 0.507415 0.022326 0.114987 0.195980 0.295736 -0.516132 0.074726 -0.227584 -0.261092 -0.598100 -0.186115 0.066634 -0.112598 -0.606983 -0.266928 -0.660730 0.071802 0.307010 0.202594 0.292769 0.565299
मेमोरी 0.140408 -0.073135 0.025318 0.122893 0.161762 0.232633 0.127400 0.579928 0.303385 0.379545 0.359994 0.113911 -0.412454 -0.650197 0.332018 0.204629 0.486237 -0.690332 0.909429 -0.580841 0.408850 0.401473 0.078212 -0.959077 -0.646793 -0.166360 -0.434144 -0.577846 -0.867703 -0.006341 0.577651 -0.180949 0.115517 0.112527 -0.146221 -0.170323 0.469370 -0.107451 -1.054895 0.088206 0.013126 0.054946 -0.676538 -0.769259 -0.230571 -0.521832 0.413340 -0.557683 0.603012 0.725426
सिम -0.081135 -0.303722 -0.272317 -0.343321 0.660905 0.055071 -0.230307 0.015783 0.290737 0.504927 0.129278 0.022651 -0.613668 0.200752 0.729415 -0.274858 -0.059074 -0.546991 0.241246 0.103240 -0.057048 0.508123 0.400848 -0.331527 0.081701 -0.634259 -0.658507 0.300884 0.082071 0.269039 0.070666 0.491483 0.261768 -0.444426 0.050616 0.278606 0.189359 -0.878244 -1.663307 0.354411 0.023167 0.337558 -0.931618 -0.046221 0.156947 -0.718662 -0.643675 -0.206268 0.661816 -0.377825
स्थित -0.781013 0.285811 -0.336941 0.113766 -0.555569 0.065293 0.141618 -0.179644 -0.232448 0.254105 0.282913 0.130593 0.095453 0.206782 -0.110591 0.290108 -0.425839 0.461110 0.177128 0.402839 0.275185 -0.196376 -0.581454 0.019886 0.180794 -0.154477 -0.106577 0.184941 -0.312558 0.492523 0.422997 -0.163426 -0.373827 0.485458 0.233105 -0.156695 -0.513951 -0.193380 -0.145790 0.649923 -0.024201 -0.404959 0.092551 -0.205638 0.178208 0.161621 0.121480 0.705137 -0.329894 -0.337732
हमें 0.074274 0.004274 0.119081 0.497364 0.256869 -0.282550 0.481375 -0.271670 -0.009363 0.042973 -0.535332 -0.565883 0.454580 -0.043774 0.132927 -0.194894 0.421964 -0.550123 -0.681824 -0.040726 0.098840 0.210566 -0.158018 0.301889 -0.037168 0.401226 0.424687 0.263549 -0.187438 -0.028837 -0.172472 -0.184864 0.374937 -0.227739 -0.053575 0.036110 0.145418 0.413815 -0.195810 -0.022268 0.002071 0.156073 -0.139468 0.061216 -0.722714 0.384561 0.341406 0.391952 0.075118 0.235220
10 -0.926814 0.106686 -0.139890 -0.068110 -0.480431 0.018651 -0.053582 0.263708 -0.850118 -0.310696 0.649247 -0.029553 -0.839412 -0.636520 0.133772 -0.018366 -0.064844 0.321674 0.478287 0.130990 -0.399461 -0.443184 -0.068135 -0.628954 0.301855 -0.046683 0.295510 -0.189985 -0.042257 0.208371 0.164100 -0.442551 -0.405501 0.211627 0.348581 -0.562611 -0.080715 0.025069 0.013571 -0.138228 0.352806 -0.870399 0.155603 0.264169 0.039932 0.034060 0.438527 0.739265 -0.201084 -0.278384
4 0.313897 0.145853 0.113072 0.129824 -0.295313 0.373003 -0.215564 -0.374293 -0.375387 0.337042 0.702112 0.300935 -0.508500 -0.415701 -0.318159 0.468631 0.228025 -0.133027 0.641186 -0.368106 -0.055075 0.072520 0.001508 -0.729864 -0.104044 0.204071 -0.351216 -0.195709 -0.522422 -0.011245 0.211796 0.060513 -0.506871 0.606501 0.133704 -0.508229 -0.237119 -0.232849 -0.640558 0.361364 -0.151470 0.456011 -0.163340 -0.600373 -0.165468 1.142116 0.601494 -0.166771 -0.146621 0.642053
3जी -0.246748 -0.532643 -0.205300 -0.369590 -0.068478 -0.020932 -0.212482 0.171580 -0.283658 0.197856 0.067485 -0.180295 -0.540068 0.386829 0.052467 0.343777 -0.193452 -0.050634 -0.089104 0.460894 -0.158374 0.041861 -0.130558 -0.267347 0.580936 -0.312259 -0.421636 0.170832 0.447982 0.268994 -0.101488 -0.373064 -0.002891 0.245434 -0.199229 0.369980 -0.359313 -0.418982 -0.882935 -0.056897 -0.174072 -0.030057 -0.205259 -0.011691 -0.057383 -0.450006 -0.158265 0.063811 -0.025438 0.597474
आते 0.377516 -0.180271 -0.911492 -0.284425 0.399037 0.647381 -0.018379 0.489838 0.271419 0.275332 -0.759922 -0.163281 0.423391 0.555318 -0.034416 0.188482 0.151688 -0.094683 -0.011594 -0.023540 0.675654 0.488272 -0.178307 0.017914 -0.873304 -0.130453 -0.090498 0.581670 0.577721 0.650842 0.004923 -0.395311 0.012053 0.367012 -0.325765 0.450575 -0.313106 0.261410 -0.568374 0.587221 -0.203017 -0.169401 -0.629440 -0.673743 0.132430 -0.534571 -0.448806 -0.135496 0.083313 0.689975
जिसे 0.454004 -0.284421 0.164858 0.271890 0.533422 -0.382720 -0.100468 0.353341 0.228509 0.069473 0.036545 -0.109302 -0.305398 -0.445634 0.036995 0.207666 0.985982 -0.496441 0.378652 -0.255776 -0.295646 0.609036 0.509510 -0.700601 -0.032660 0.155775 -0.494216 -0.016976 -0.048599 -0.522277 0.208953 -0.024136 0.266645 0.161764 -0.546210 0.156383 0.475112 -0.537101 -1.322318 -0.040576 -0.343696 0.477853 -0.407421 -0.373185 -0.585704 -0.239377 0.140580 -0.394877 0.449927 0.291241
